0 0 -0.000000
1 0 -0.000000
2 0 0.362889
3 0 -0.000000
4 0 -0.000000
5 0 -0.000000
6 0 0.072579
7 0 -0.806029
8 0 0.000000
9 0 -0.000000
10 0 0.000000
11 0 0.000000
12 0 0.000000
13 0 0.000000
14 0 -0.000000
15 0 -0.302255
16 0 -0.000000
17 0 0.000000
18 0 -0.263672
19 0 -0.000000
20 0 -0.000000
21 0 -0.706357
22 0 -0.000000
23 0 -0.000000
24 0 -0.000000
25 0 -0.000000
26 0 -0.000000
27 0 -0.000000
28 0 0.000000
29 0 -0.237977
30 0 0.000000
31 0 0.000000
32 0 0.000000
33 0 0.000000
34 0 -0.736315
35 0 -0.000000
36 0 1.879552
37 0 0.000000
38 0 0.000000
39 0 0.000000
40 0 -0.000000
41 0 0.000000
42 0 0.000000
43 0 -0.000000
44 0 1.909746
45 0 0.193626
46 0 1.269198
47 0 -0.000000
48 0 -1.625868
49 0 0.000000
50 0 -0.000000
51 0 -0.308279
52 0 -0.000000
53 0 -0.000000
54 0 -0.275732
55 0 0.000000
56 0 0.000000
57 0 -0.000000
58 0 -0.000000
59 0 -0.000000
60 0 -0.000000
61 0 -0.000000
62 0 0.000000
63 0 -0.000000
64 0 -0.303412
65 0 -0.000000
66 0 0.000000
67 0 -1.344491
68 0 -0.892178
69 0 0.000000
70 0 -0.000000
71 0 -1.661072
72 0 -0.000000
73 0 0.000000
74 0 -0.000000
75 0 0.000000
76 0 -0.310934
77 0 -0.000000
78 0 0.000000
79 0 -0.000000
80 0 -0.000000
81 0 -0.000000
82 0 0.000000
83 0 -0.000000
84 0 -0.000000
85 0 -0.000000
86 0 -0.000000
87 0 -0.300495
88 0 -0.000000
89 0 4.053886
90 0 -0.000000
91 0 -0.000000
92 0 0.000000
93 0 -1.040374
94 0 -0.000000
95 0 -2.267674
96 0 -0.144745
97 0 -0.000000
98 0 -0.000000
99 0 -0.298992
100 0 -0.000000
101 0 -0.000000
102 0 -0.000000
103 0 -0.000000
104 0 -0.000000
105 0 -0.000000
106 0 -0.000000
107 0 -0.293338
108 0 -0.000000
109 0 -0.284257
110 0 -0.000000
111 0 -0.000000
112 0 -0.000000
113 0 -0.000000
114 0 0.000000
115 0 0.000000
116 0 0.000000
117 0 -0.000000
118 0 3.597262
119 0 -0.301490
120 0 -0.000000
121 0 1.171511
122 0 -0.000000
123 0 -0.304509
124 0 0.000000
125 0 -0.000000
126 0 2.493395
127 0 0.000000
128 0 -0.291418
129 0 0.000000
130 0 0.000000
131 0 -0.000000
132 0 0.593317
133 0 -0.993576
134 0 0.000000
135 0 0.000000
136 0 2.168959
137 0 -0.250225
138 0 1.497167
139 0 2.881571
140 0 -0.000000
141 0 0.000000
142 0 -0.000000
143 0 0.000000
144 0 -1.428969
145 0 0.000000
146 0 0.000000
147 0 -0.000000
148 0 -0.162850
149 0 -0.000000
150 0 -0.000000
151 0 -0.000000
152 0 -0.000000
153 0 0.000000
154 0 -0.000000
155 0 -0.000000
156 0 -0.247496
157 0 0.000000
158 0 0.000000
159 0 -0.277659
160 0 -0.000000
161 0 -0.000000
162 0 -0.000000
163 0 -0.301593
164 0 -0.000000
165 0 0.000000
166 0 0.000000
167 0 -0.000000
168 0 0.000000
169 0 -0.000000
170 0 0.000000
171 0 -0.000000
172 0 -0.699151
173 0 0.000000
174 0 -0.280461
175 0 -0.000000
176 0 -0.277301
177 0 -0.000000
178 0 0.000000
179 0 -0.000000
180 0 0.000000
181 0 -0.000000
182 0 0.000000
183 0 0.000000
184 0 -0.000000
185 0 -0.000000
186 0 -0.000000
187 0 -0.000000
188 0 0.000000
189 0 0.000000
190 0 -0.287910
191 0 -0.308608
192 0 -1.142271
193 0 0.000000
194 0 0.000000
195 0 -0.000000
196 0 0.000000
197 0 -0.281507
198 0 -0.234822
199 0 0.000000
200 0 -0.000000
201 0 0.000000
202 0 -0.355109
203 0 -0.000000
204 0 -0.000000
205 0 -0.000000
206 0 -0.244935
207 0 -0.000000
208 0 0.000000
209 0 -0.000000
210 0 0.000000
211 0 -0.000000
212 0 -0.000000
213 0 0.524192
214 0 -0.297105
215 0 -0.000000
216 0 -0.000000
217 0 -2.186311
218 0 -0.000000
219 0 -0.000000
220 0 0.000000
221 0 0.000000
222 0 -0.000000
223 0 0.000000
224 0 -0.148556
225 0 0.000000
226 0 0.141857
227 0 -0.000000
228 0 0.000000
229 0 -0.000000
230 0 -0.000000
231 0 -0.000000
232 0 0.476694
233 0 0.000000
234 0 0.000000
235 0 -0.350530
236 0 0.000000
237 0 0.000000
238 0 -0.000000
239 0 0.000000
240 0 -0.269266
241 0 -0.000000
242 0 -0.685547
243 0 -0.000000
244 0 -1.084729
245 0 0.121303
246 0 -0.960675
247 0 -0.000000
248 0 0.000000
249 0 0.000000
250 0 -0.301910
251 0 0.000000
252 0 -0.000000
253 0 -0.000000
254 0 -0.000000
255 0 -0.000000
256 0 -0.000000
257 0 -0.000000
258 0 -0.000000
259 0 -0.281395
260 0 0.000000
261 0 -0.000000
262 0 0.000000
263 0 -0.000000
264 0 -0.431212
265 0 -0.000000
266 0 0.000000
267 0 0.933545
268 0 -0.302777
269 0 0.000000
270 0 -0.000000
271 0 -0.000000
272 0 0.000000
273 0 -0.957875
274 0 0.000000
275 0 0.294622
276 0 0.000000
277 0 3.016764
278 0 -0.000000
279 0 -0.000000
280 0 -0.289005
281 0 0.000000
282 0 -0.000000
283 0 -0.274248
284 0 0.000000
285 0 0.000000
286 0 -0.000000
287 0 -0.779853
288 0 0.000000
289 0 -2.153821
290 0 -0.000000
291 0 -0.291067
292 0 0.000000
293 0 0.224723
294 0 -0.277151
295 0 -0.000000
296 0 0.000000
297 0 0.000000
298 0 -0.000000
299 0 -0.000000
300 0 -0.000000
301 0 0.000000
302 0 0.000000
303 0 -0.000000
304 0 -0.000000
305 0 0.764985
306 0 0.000000
307 0 0.000000
308 0 -0.920513
309 0 -1.212024
310 0 -0.000000
311 0 -0.000000
312 0 -0.000000
313 0 -0.000000
314 0 0.568029
315 0 -0.000000
316 0 -0.000000
317 0 0.000000
318 0 -0.000000
319 0 0.000000
320 0 0.000000
321 0 -0.000000
322 0 1.668470
323 0 0.000000
324 0 -0.000000
325 0 1.650398
326 0 0.000000
327 0 -0.000000
328 0 -0.000000
329 0 -0.000000
330 0 -0.000000
331 0 -0.000000
332 0 0.000000
333 0 0.000000
334 0 -0.000000
335 0 -0.998503
336 0 -0.000000
337 0 2.434577
338 0 0.000000
339 0 0.000000
340 0 -0.000000
341 0 -0.000000
342 0 0.000000
343 0 -0.000000
344 0 -0.000000
345 0 -0.000000
346 0 0.000000
347 0 -0.000000
348 0 0.000000
349 0 -0.286785
350 0 -0.000000
351 0 -0.000000
352 0 -2.289491
353 0 0.000000
354 0 -0.000000
355 0 0.000000
356 0 -0.277129
357 0 -0.000000
358 0 -0.000000
359 0 0.000000
360 0 -0.579871
361 0 -0.000000
362 0 -0.279170
363 0 0.000000
364 0 0.485900
365 0 0.000000
366 0 0.000000
367 0 0.000000
368 0 -0.268027
369 0 -0.617904
370 0 -0.658135
371 0 -0.000000
372 0 0.000000
373 0 -0.000000
374 0 -0.000000
375 0 -0.000000
376 0 -0.000000
377 0 -0.000000
378 0 0.000000
379 0 -0.000000
380 0 -0.000000
381 0 -0.000000
382 0 0.000000
383 0 0.000000
384 0 -0.000000
385 0 -1.585473
386 0 -0.000000
387 0 4.228479
388 0 -0.210444
389 0 -0.492873
390 0 -0.000000
391 0 -0.000000
392 0 -0.000000
393 0 -0.320573
394 0 -0.284178
395 0 -0.000000
396 0 0.753022
397 0 -0.141064
398 0 1.384166
399 0 -0.000000
400 0 -0.000000
401 0 -1.390507
402 0 0.000000
403 0 0.000000
404 0 -0.000000
405 0 -0.000000
406 0 0.000000
407 0 0.019745
408 0 -2.179587
409 0 0.000000
410 0 -0.000000
411 0 1.739682
412 0 -2.065439
413 0 -0.000000
414 0 -0.279775
415 0 -0.000000
416 0 0.000000
417 0 0.000000
418 0 0.000000
419 0 0.752282
420 0 -0.000000
421 0 -0.000000
422 0 -1.250025
423 0 0.000000
424 0 -0.000000
425 0 0.000000
426 0 -0.000000
427 0 -0.431721
428 0 0.000000
429 0 -0.000000
430 0 -0.000000
431 0 -0.277351
432 0 -0.263958
433 0 -0.000000
434 0 -0.000000
435 0 -0.000000
436 0 -0.000000
437 0 -0.000000
438 0 -0.000000
439 0 -0.000000
440 0 0.000000
441 0 0.000000
442 0 -0.000000
443 0 0.085784
444 0 -0.000000
445 0 1.881923
446 0 -0.447077
447 0 -0.000000
448 0 -0.000000
449 0 -0.000000
450 0 0.000000
451 0 0.000000
452 0 0.000000
453 0 0.000000
454 0 0.000000
455 0 -0.456949
456 0 0.000000
457 0 -0.000000
458 0 1.771547
459 0 -1.345026
460 0 0.000000
461 0 0.000000
462 0 -0.284362
463 0 -0.000000
464 0 0.000000
465 0 -0.298506
466 0 -0.000000
467 0 -0.000000
468 0 0.679537
469 0 -0.638992
470 0 0.000000
471 0 -0.235865
472 0 -0.283230
473 0 -0.288148
474 0 -0.000000
475 0 -0.650029
476 0 0.000000
477 0 -0.000000
478 0 -0.246418
479 0 -0.146587
480 0 -0.743218
481 0 -0.000000
482 0 -0.000000
483 0 0.000000
484 0 -0.000000
485 0 -0.000000
486 0 -0.000000
487 0 -0.240151
488 0 -0.638181
489 0 0.000000
490 0 -0.000000
491 0 -0.289595
492 0 0.858986
493 0 -0.183354
494 0 -0.000000
495 0 -0.286130
496 0 0.000000
497 0 -0.000000
498 0 -0.756990
499 0 2.536348
500 0 0.843180
501 0 -0.000000
502 0 0.000000
503 0 -0.291306
504 0 -0.000000
505 0 0.000000
506 0 0.000000
507 0 0.000000
508 0 -0.274132
509 0 0.000000
510 0 -1.173285
511 0 -0.000000
512 0 -0.000000
513 0 -0.000000
514 0 -0.273263
515 0 -0.327685
516 0 -0.306453
517 0 0.000000
518 0 -0.000000
519 0 -0.000000
520 0 -0.000000
521 0 -0.278340
522 0 -0.000000
523 0 0.000000
524 0 -0.000000
525 0 0.000000
526 0 0.000000
527 0 -1.411440
528 0 0.000000
529 0 -0.809102
530 0 -0.000000
531 0 -0.280841
532 0 0.000000
533 0 -0.000000
534 0 -1.161212
535 0 -0.683639
536 0 1.156386
537 0 -0.000000
538 0 1.037596
539 0 0.000000
540 0 -0.000000
541 0 -0.267183
542 0 -0.000000
543 0 -0.217892
544 0 -0.000000
545 0 2.981466
546 0 -0.280592
547 0 -0.000000
548 0 -1.303460
549 0 -0.000000
550 0 0.000000
551 0 0.000000
552 0 0.773921
553 0 4.534187
554 0 -0.000000
555 0 -0.522646
556 0 -0.000000
557 0 -1.663671
558 0 0.728779
559 0 -1.971748
560 0 -0.695089
561 0 -0.000000
562 0 -0.000000
563 0 -0.000000
564 0 -0.000000
565 0 -0.000000
566 0 -0.000000
567 0 0.435175
568 0 -2.481534
569 0 1.162243
570 0 -0.000000
571 0 -0.279717
572 0 -0.276418
573 0 -0.296131
574 0 0.000000
575 0 -0.000000
576 0 -0.000000
577 0 -0.000000
578 0 -0.000000
579 0 0.000000
580 0 -0.906033
581 0 0.843102
582 0 0.000000
583 0 2.969948
584 0 -0.000000
585 0 0.000000
586 0 -1.848543
587 0 -0.000000
588 0 0.000000
589 0 -0.252308
590 0 -2.386879
591 0 -0.000000
592 0 -1.368855
593 0 0.000000
594 0 -0.672580
595 0 0.210390
596 0 -0.268762
597 0 -0.000000
598 0 0.000000
599 0 -0.000000
600 0 0.000000
601 0 -0.000000
602 0 -0.000000
603 0 0.000000
604 0 -0.282362
605 0 0.000000
606 0 0.000000
607 0 -0.259681
608 0 -0.000000
609 0 -0.273072
610 0 0.000000
611 0 -0.376891
612 0 -0.000000
613 0 0.000000
614 0 0.000000
615 0 -1.494622
616 0 -1.770394
617 0 0.000000
618 0 0.000000
619 0 0.297204
620 0 0.000000
621 0 -0.000000
622 0 -0.000000
623 0 -0.000000
624 0 -0.000000
625 0 0.000000
626 0 0.000000
627 0 -0.307135
628 0 -0.000000
629 0 0.000000
630 0 -0.000000
631 0 -0.000000
632 0 0.000000
633 0 -0.843044
634 0 -0.000000
635 0 -0.000000
636 0 0.000000
637 0 -1.285403
638 0 -1.384560
639 0 0.000000
640 0 2.302485
641 0 -0.000000
642 0 0.000000
643 0 0.000000
644 0 -0.297377
645 0 -0.274838
646 0 -1.577206
647 0 -0.277594
648 0 0.000000
649 0 0.000000
650 0 -2.877109
651 0 -0.000000
652 0 0.000000
653 0 -0.627597
654 0 -0.000000
655 0 0.663913
656 0 0.000000
657 0 -0.000000
658 0 0.000000
659 0 -0.000000
660 0 0.000000
661 0 -1.314497
662 0 0.108385
663 0 0.227278
664 0 -0.000000
665 0 -0.000000
666 0 -0.000000
667 0 -0.000000
668 0 -0.000000
669 0 -0.298360
670 0 -0.250574
671 0 0.000000
672 0 0.000000
673 0 0.000000
674 0 -0.298231
675 0 -0.289416
676 0 0.000000
677 0 2.529882
678 0 0.000000
679 0 -0.000000
680 0 -0.000000
681 0 0.594568
682 0 -0.285733
683 0 -0.294286
684 0 -0.000000
685 0 -0.000000
686 0 0.000000
687 0 0.000000
688 0 0.000000
689 0 -0.000000
690 0 -0.000000
691 0 -1.710145
692 0 -0.000000
693 0 0.000000
694 0 -0.000000
695 0 0.000000
696 0 0.000000
697 0 -0.000000
698 0 -0.000000
699 0 -0.000000
700 0 0.000000
701 0 2.272705
702 0 -0.880425
703 0 -0.000000
704 0 -0.301271
705 0 0.364039
706 0 -0.000000
707 0 -0.000000
708 0 -1.172470
709 0 -0.000000
710 0 0.000000
711 0 -0.000000
712 0 -0.254727
713 0 0.000000
714 0 -0.000000
715 0 -0.000000
716 0 0.000000
717 0 -0.000000
718 0 -0.000000
719 0 -1.437250
720 0 -0.000000
721 0 -0.379948
722 0 -0.277847
723 0 0.000000
724 0 0.000000
725 0 1.944805
726 0 -0.000000
727 0 -0.000000
728 0 -0.000000
729 0 -0.867436
730 0 -0.286872
731 0 0.000000
732 0 -0.191348
733 0 -0.000000
734 0 -0.000000
735 0 -0.000000
736 0 -0.000000
737 0 -0.000000
738 0 -0.277289
739 0 0.000000
740 0 -0.000000
741 0 -0.000000
742 0 -0.000000
743 0 -0.311179
744 0 -0.256983
745 0 0.000000
746 0 -0.000000
747 0 -0.315957
748 0 -0.000000
749 0 -0.000000
750 0 -0.269820
751 0 -0.000000
752 0 0.000000
753 0 0.000000
754 0 -0.299169
755 0 -0.000000
756 0 0.000000
757 0 -0.000000
758 0 -0.000000
759 0 -0.000000
760 0 0.000000
761 0 0.000000
762 0 1.195081
763 0 -0.290570
764 0 -2.141139
765 0 -0.000000
766 0 0.000000
767 0 -0.917369
768 0 -2.632871
769 0 -0.000000
770 0 -0.306787
771 0 -0.000000
772 0 0.989139
773 0 0.000000
774 0 0.000000
775 0 0.000000
776 0 -0.000000
777 0 0.000000
778 0 -0.535230
779 0 -0.290642
780 0 0.000000
781 0 -0.000000
782 0 -0.270906
783 0 -0.000000
784 0 -0.000000
785 0 0.000000
786 0 -0.000000
787 0 0.000000
788 0 0.060602
789 0 -0.281129
790 0 0.000000
791 0 1.847704
792 0 0.000000
793 0 -2.466423
794 0 -0.282201
795 0 -0.235819
796 0 -0.000000
797 0 0.000000
798 0 0.718749
799 0 -0.000000
0 1 -0.000000
1 1 -0.000000
2 1 -2.591987
3 1 0.000000
4 1 0.000000
5 1 -0.000000
6 1 -0.274984
7 1 0.521130
8 1 -0.000000
9 1 -0.000000
10 1 0.000000
11 1 -0.000000
12 1 0.000000
13 1 -0.000000
14 1 -0.000000
15 1 -0.439818
16 1 0.000000
17 1 -0.000000
18 1 -0.808223
19 1 0.000000
20 1 -0.000000
21 1 -0.292942
22 1 -0.000000
23 1 0.000000
24 1 0.000000
25 1 -0.000000
26 1 0.000000
27 1 -0.000000
28 1 0.000000
29 1 -0.952178
30 1 -0.000000
31 1 0.000000
32 1 0.000000
33 1 0.000000
34 1 -1.056416
35 1 -0.000000
36 1 -1.298060
37 1 -0.000000
38 1 -0.000000
39 1 -0.000000
40 1 -0.000000
41 1 -0.000000
42 1 0.000000
43 1 -0.000000
44 1 -0.331155
45 1 -0.016619
46 1 -0.227258
47 1 -0.000000
48 1 -0.573954
49 1 -0.000000
50 1 -0.000000
51 1 -0.412306
52 1 0.000000
53 1 0.000000
54 1 -0.366875
55 1 0.000000
56 1 -0.000000
57 1 0.000000
58 1 -0.000000
59 1 0.000000
60 1 -0.000000
61 1 -0.000000
62 1 0.000000
63 1 -0.000000
64 1 -0.430192
65 1 -0.000000
66 1 0.000000
67 1 -1.224650
68 1 -1.293827
69 1 0.000000
70 1 -0.000000
71 1 3.059307
72 1 -0.000000
73 1 -0.000000
74 1 -0.000000
75 1 -0.000000
76 1 -0.763784
77 1 -0.000000
78 1 -0.000000
79 1 0.000000
80 1 -0.000000
81 1 0.000000
82 1 -0.000000
83 1 -0.000000
84 1 -0.000000
85 1 -0.000000
86 1 -0.000000
87 1 -0.405755
88 1 0.000000
89 1 -0.480570
90 1 -0.000000
91 1 -0.000000
92 1 0.000000
93 1 0.046001
94 1 -0.000000
95 1 -2.258614
96 1 -0.597507
97 1 -0.000000
98 1 -0.000000
99 1 -0.404491
100 1 -0.000000
101 1 -0.000000
102 1 0.000000
103 1 -0.000000
104 1 -0.000000
105 1 -0.000000
106 1 -0.000000
107 1 -0.536366
108 1 -0.000000
109 1 -0.368481
110 1 0.000000
111 1 -0.000000
112 1 -0.000000
113 1 0.000000
114 1 0.000000
115 1 0.000000
116 1 0.000000
117 1 0.000000
118 1 -0.177850
119 1 -0.502734
120 1 0.000000
121 1 -0.305242
122 1 -0.000000
123 1 -0.433668
124 1 -0.000000
125 1 -0.000000
126 1 -0.314254
127 1 -0.000000
128 1 -0.386932
129 1 -0.000000
130 1 -0.000000
131 1 -0.000000
132 1 6.241547
133 1 0.064087
134 1 -0.000000
135 1 -0.000000
136 1 -0.177072
137 1 -1.135981
138 1 0.024230
139 1 -0.227206
140 1 -0.000000
141 1 0.000000
142 1 -0.000000
143 1 0.000000
144 1 -0.980718
145 1 0.000000
146 1 -0.000000
147 1 0.000000
148 1 -1.293284
149 1 0.000000
150 1 0.000000
151 1 -0.000000
152 1 -0.000000
153 1 -0.000000
154 1 0.000000
155 1 -0.000000
156 1 -1.173694
157 1 -0.000000
158 1 -0.000000
159 1 -0.558927
160 1 -0.000000
161 1 -0.000000
162 1 -0.000000
163 1 -1.041867
164 1 -0.000000
165 1 0.000000
166 1 -0.000000
167 1 -0.000000
168 1 0.000000
169 1 -0.000000
170 1 -0.000000
171 1 -0.000000
172 1 -1.638336
173 1 -0.000000
174 1 -0.357359
175 1 -0.000000
176 1 -0.370674
177 1 0.000000
178 1 -0.000000
179 1 -0.000000
180 1 -0.000000
181 1 -0.000000
182 1 0.000000
183 1 0.000000
184 1 0.000000
185 1 -0.000000
186 1 -0.000000
187 1 0.000000
188 1 -0.000000
189 1 0.000000
190 1 -0.519401
191 1 -0.437864
192 1 -0.755937
193 1 -0.000000
194 1 -0.000000
195 1 -0.000000
196 1 -0.000000
197 1 -0.361208
198 1 -0.872824
199 1 -0.000000
200 1 -0.000000
201 1 -0.000000
202 1 -0.110621
203 1 -0.000000
204 1 -0.000000
205 1 -0.000000
206 1 -0.733408
207 1 -0.000000
208 1 0.000000
209 1 0.000000
210 1 -0.000000
211 1 -0.000000
212 1 0.000000
213 1 0.851946
214 1 -0.400841
215 1 -0.000000
216 1 -0.000000
217 1 -0.890166
218 1 0.000000
219 1 -0.000000
220 1 0.000000
221 1 0.000000
222 1 -0.000000
223 1 -0.000000
224 1 -1.375999
225 1 0.000000
226 1 -0.542978
227 1 -0.000000
228 1 0.000000
229 1 -0.000000
230 1 -0.000000
231 1 -0.000000
232 1 0.711389
233 1 0.000000
234 1 0.000000
235 1 -0.434021
236 1 -0.000000
237 1 -0.000000
238 1 0.000000
239 1 0.000000
240 1 -0.603066
241 1 -0.000000
242 1 0.220931
243 1 -0.000000
244 1 3.233911
245 1 -0.560400
246 1 -0.831895
247 1 0.000000
248 1 0.000000
249 1 0.000000
250 1 -0.452108
251 1 0.000000
252 1 0.000000
253 1 0.000000
254 1 -0.000000
255 1 0.000000
256 1 -0.000000
257 1 -0.000000
258 1 -0.000000
259 1 -0.367871
260 1 0.000000
261 1 -0.000000
262 1 -0.000000
263 1 -0.000000
264 1 4.569762
265 1 0.000000
266 1 0.000000
267 1 1.438979
268 1 -0.412447
269 1 0.000000
270 1 -0.000000
271 1 -0.000000
272 1 0.000000
273 1 -1.110761
274 1 0.000000
275 1 -2.126880
276 1 0.000000
277 1 1.310456
278 1 -0.000000
279 1 -0.000000
280 1 -0.582830
281 1 0.000000
282 1 0.000000
283 1 -0.382769
284 1 -0.000000
285 1 0.000000
286 1 0.000000
287 1 -1.225922
288 1 0.000000
289 1 -0.327324
290 1 -0.000000
291 1 -0.376870
292 1 -0.000000
293 1 -1.841776
294 1 -0.552203
295 1 -0.000000
296 1 0.000000
297 1 0.000000
298 1 0.000000
299 1 -0.000000
300 1 0.000000
301 1 0.000000
302 1 0.000000
303 1 -0.000000
304 1 -0.000000
305 1 -0.048994
306 1 -0.000000
307 1 -0.000000
308 1 -0.743501
309 1 -1.142078
310 1 -0.000000
311 1 -0.000000
312 1 -0.000000
313 1 0.000000
314 1 -0.336665
315 1 -0.000000
316 1 0.000000
317 1 -0.000000
318 1 -0.000000
319 1 0.000000
320 1 -0.000000
321 1 -0.000000
322 1 2.715061
323 1 0.000000
324 1 -0.000000
325 1 -0.347588
326 1 -0.000000
327 1 -0.000000
328 1 -0.000000
329 1 -0.000000
330 1 0.000000
331 1 -0.000000
332 1 -0.000000
333 1 -0.000000
334 1 -0.000000
335 1 0.209598
336 1 -0.000000
337 1 0.327613
338 1 -0.000000
339 1 -0.000000
340 1 -0.000000
341 1 -0.000000
342 1 0.000000
343 1 -0.000000
344 1 0.000000
345 1 -0.000000
346 1 -0.000000
347 1 -0.000000
348 1 0.000000
349 1 -0.518518
350 1 -0.000000
351 1 -0.000000
352 1 -0.273097
353 1 -0.000000
354 1 -0.000000
355 1 0.000000
356 1 -0.577765
357 1 -0.000000
358 1 -0.000000
359 1 -0.000000
360 1 3.212218
361 1 -0.000000
362 1 -0.386173
363 1 -0.000000
364 1 0.216512
365 1 -0.000000
366 1 0.000000
367 1 -0.000000
368 1 -0.670510
369 1 -1.628789
370 1 -0.727025
371 1 0.000000
372 1 -0.000000
373 1 -0.000000
374 1 0.000000
375 1 -0.000000
376 1 -0.000000
377 1 -0.000000
378 1 -0.000000
379 1 -0.000000
380 1 -0.000000
381 1 -0.000000
382 1 0.000000
383 1 -0.000000
384 1 -0.000000
385 1 -1.671482
386 1 -0.000000
387 1 -0.138512
388 1 0.320506
389 1 2.926816
390 1 0.000000
391 1 -0.000000
392 1 -0.000000
393 1 -0.727766
394 1 -0.398407
395 1 0.000000
396 1 -0.017519
397 1 -0.104692
398 1 0.060036
399 1 0.000000
400 1 -0.000000
401 1 -1.177908
402 1 -0.000000
403 1 0.000000
404 1 0.000000
405 1 -0.000000
406 1 -0.000000
407 1 -0.850967
408 1 2.010512
409 1 0.000000
410 1 -0.000000
411 1 5.437108
412 1 -1.648008
413 1 -0.000000
414 1 -0.668696
415 1 -0.000000
416 1 0.000000
417 1 -0.000000
418 1 0.000000
419 1 -0.556420
420 1 0.000000
421 1 -0.000000
422 1 0.861779
423 1 0.000000
424 1 -0.000000
425 1 0.000000
426 1 -0.000000
427 1 -0.173432
428 1 -0.000000
429 1 -0.000000
430 1 -0.000000
431 1 -0.363010
432 1 -0.641294
433 1 -0.000000
434 1 0.000000
435 1 -0.000000
436 1 -0.000000
437 1 -0.000000
438 1 -0.000000
439 1 -0.000000
440 1 -0.000000
441 1 0.000000
442 1 -0.000000
443 1 -1.888007
444 1 -0.000000
445 1 1.697325
446 1 -1.862425
447 1 -0.000000
448 1 -0.000000
449 1 -0.000000
450 1 -0.000000
451 1 -0.000000
452 1 0.000000
453 1 -0.000000
454 1 0.000000
455 1 -0.750974
456 1 -0.000000
457 1 -0.000000
458 1 -0.407079
459 1 -0.290114
460 1 -0.000000
461 1 -0.000000
462 1 -0.524567
463 1 -0.000000
464 1 0.000000
465 1 -0.720562
466 1 -0.000000
467 1 -0.000000
468 1 3.434025
469 1 -0.561538
470 1 -0.000000
471 1 -0.000909
472 1 -0.746642
473 1 -0.380959
474 1 -0.000000
475 1 -0.037698
476 1 -0.000000
477 1 0.000000
478 1 -0.695787
479 1 -1.244808
480 1 -1.166109
481 1 -0.000000
482 1 -0.000000
483 1 0.000000
484 1 -0.000000
485 1 -0.000000
486 1 -0.000000
487 1 -0.730230
488 1 -1.442853
489 1 0.000000
490 1 -0.000000
491 1 -0.539635
492 1 -1.832352
493 1 -0.659978
494 1 -0.000000
495 1 -0.502969
496 1 -0.000000
497 1 -0.000000
498 1 -0.869816
499 1 0.465898
500 1 0.887684
501 1 -0.000000
502 1 -0.000000
503 1 -0.513638
504 1 0.000000
505 1 -0.000000
506 1 -0.000000
507 1 -0.000000
508 1 -0.365361
509 1 0.000000
510 1 1.170457
511 1 -0.000000
512 1 -0.000000
513 1 -0.000000
514 1 -0.373810
515 1 -0.782560
516 1 -0.440538
517 1 -0.000000
518 1 -0.000000
519 1 -0.000000
520 1 0.000000
521 1 -0.356111
522 1 -0.000000
523 1 -0.000000
524 1 0.000000
525 1 0.000000
526 1 -0.000000
527 1 0.346925
528 1 0.000000
529 1 -1.323462
530 1 -0.000000
531 1 -0.352096
532 1 0.000000
533 1 -0.000000
534 1 0.087971
535 1 -0.435142
536 1 -0.828234
537 1 -0.000000
538 1 -0.108103
539 1 0.000000
540 1 -0.000000
541 1 -0.639481
542 1 0.000000
543 1 1.937955
544 1 -0.000000
545 1 1.026094
546 1 -0.637742
547 1 -0.000000
548 1 -0.364019
549 1 -0.000000
550 1 -0.000000
551 1 -0.000000
552 1 -1.508682
553 1 1.139955
554 1 0.000000
555 1 -0.666692
556 1 -0.000000
557 1 -0.739417
558 1 5.495314
559 1 -1.338199
560 1 -1.097972
561 1 -0.000000
562 1 0.000000
563 1 0.000000
564 1 -0.000000
565 1 -0.000000
566 1 -0.000000
567 1 -0.253333
568 1 -1.585045
569 1 -0.267526
570 1 -0.000000
571 1 -0.540599
572 1 -0.746139
573 1 -0.421606
574 1 0.000000
575 1 -0.000000
576 1 0.000000
577 1 -0.000000
578 1 -0.000000
579 1 0.000000
580 1 -1.251816
581 1 4.493212
582 1 -0.000000
583 1 0.440276
584 1 -0.000000
585 1 -0.000000
586 1 -0.498469
587 1 0.000000
588 1 0.000000
589 1 -0.774052
590 1 -1.226052
591 1 -0.000000
592 1 -1.065780
593 1 -0.000000
594 1 1.812277
595 1 0.403123
596 1 -0.672995
597 1 -0.000000
598 1 0.000000
599 1 -0.000000
600 1 -0.000000
601 1 0.000000
602 1 -0.000000
603 1 -0.000000
604 1 -0.128444
605 1 -0.000000
606 1 -0.000000
607 1 -0.667169
608 1 -0.000000
609 1 -0.641395
610 1 0.000000
611 1 0.357822
612 1 -0.000000
613 1 0.000000
614 1 -0.000000
615 1 -0.574424
616 1 1.083760
617 1 -0.000000
618 1 -0.000000
619 1 -2.181297
620 1 0.000000
621 1 -0.000000
622 1 -0.000000
623 1 -0.000000
624 1 -0.000000
625 1 0.000000
626 1 0.000000
627 1 -0.805779
628 1 -0.000000
629 1 0.000000
630 1 -0.000000
631 1 -0.000000
632 1 -0.000000
633 1 2.329241
634 1 0.000000
635 1 0.000000
636 1 -0.000000
637 1 -1.926376
638 1 0.126474
639 1 -0.000000
640 1 4.129814
641 1 -0.000000
642 1 -0.000000
643 1 0.000000
644 1 -0.400656
645 1 -0.359161
646 1 -2.120224
647 1 -0.579333
648 1 -0.000000
649 1 -0.000000
650 1 -2.208587
651 1 -0.000000
652 1 -0.000000
653 1 -1.100930
654 1 -0.000000
655 1 -2.610213
656 1 -0.000000
657 1 -0.000000
658 1 -0.000000
659 1 -0.000000
660 1 -0.000000
661 1 0.083525
662 1 -0.031193
663 1 -1.578429
664 1 0.000000
665 1 0.000000
666 1 -0.000000
667 1 -0.000000
668 1 -0.000000
669 1 -0.436197
670 1 -0.845240
671 1 -0.000000
672 1 0.000000
673 1 -0.000000
674 1 -0.410559
675 1 -0.379092
676 1 0.000000
677 1 -0.239073
678 1 -0.000000
679 1 -0.000000
680 1 -0.000000
681 1 0.086040
682 1 -0.368281
683 1 -0.373920
684 1 -0.000000
685 1 -0.000000
686 1 0.000000
687 1 0.000000
688 1 -0.000000
689 1 0.000000
690 1 0.000000
691 1 0.403662
692 1 -0.000000
693 1 -0.000000
694 1 -0.000000
695 1 0.000000
696 1 0.000000
697 1 0.000000
698 1 -0.000000
699 1 0.000000
700 1 0.000000
701 1 4.368543
702 1 -0.573093
703 1 -0.000000
704 1 -0.441869
705 1 -0.305692
706 1 -0.000000
707 1 0.000000
708 1 -0.189087
709 1 0.000000
710 1 -0.000000
711 1 -0.000000
712 1 -0.716688
713 1 -0.000000
714 1 -0.000000
715 1 -0.000000
716 1 -0.000000
717 1 0.000000
718 1 -0.000000
719 1 -2.045770
720 1 0.000000
721 1 -0.763300
722 1 -0.360829
723 1 0.000000
724 1 -0.000000
725 1 -0.263033
726 1 -0.000000
727 1 -0.000000
728 1 -0.000000
729 1 -1.179732
730 1 -0.652464
731 1 0.000000
732 1 1.993142
733 1 -0.000000
734 1 0.000000
735 1 0.000000
736 1 0.000000
737 1 -0.000000
738 1 -0.704213
739 1 -0.000000
740 1 -0.000000
741 1 -0.000000
742 1 -0.000000
743 1 -1.191123
744 1 -0.694325
745 1 -0.000000
746 1 -0.000000
747 1 -0.598252
748 1 0.000000
749 1 0.000000
750 1 -1.078940
751 1 -0.000000
752 1 -0.000000
753 1 0.000000
754 1 -0.369181
755 1 0.000000
756 1 0.000000
757 1 -0.000000
758 1 -0.000000
759 1 -0.000000
760 1 0.000000
761 1 0.000000
762 1 -3.147540
763 1 -0.406138
764 1 -0.722828
765 1 0.000000
766 1 0.000000
767 1 4.452993
768 1 3.028538
769 1 0.000000
770 1 -0.439851
771 1 0.000000
772 1 -0.265841
773 1 0.000000
774 1 0.000000
775 1 -0.000000
776 1 -0.000000
777 1 -0.000000
778 1 -0.481754
779 1 -0.369371
780 1 -0.000000
781 1 -0.000000
782 1 -0.650331
783 1 -0.000000
784 1 -0.000000
785 1 -0.000000
786 1 -0.000000
787 1 -0.000000
788 1 -0.691687
789 1 -0.651334
790 1 -0.000000
791 1 2.735472
792 1 -0.000000
793 1 4.509879
794 1 -0.544605
795 1 -0.731682
796 1 -0.000000
797 1 0.000000
798 1 -1.539590
799 1 -0.000000
0 2 -0.000000
1 2 -0.000000
2 2 -0.671569
3 2 0.000000
4 2 -0.000000
5 2 -0.000000
6 2 -3.192362
7 2 -3.176067
8 2 0.000000
9 2 -0.000000
10 2 0.000000
11 2 0.000000
12 2 -0.000000
13 2 -0.000000
14 2 0.000000
15 2 -0.229964
16 2 -0.000000
17 2 -0.000000
18 2 -0.239149
19 2 0.000000
20 2 -0.000000
21 2 -0.053019
22 2 -0.000000
23 2 0.000000
24 2 -0.000000
25 2 -0.000000
26 2 0.000000
27 2 0.000000
28 2 0.000000
29 2 -0.274217
30 2 -0.000000
31 2 0.000000
32 2 0.000000
33 2 0.000000
34 2 -0.623551
35 2 -0.000000
36 2 1.158453
37 2 -0.000000
38 2 -0.000000
39 2 -0.000000
40 2 0.000000
41 2 -0.000000
42 2 -0.000000
43 2 -0.000000
44 2 -0.267361
45 2 -0.841040
46 2 -2.021820
47 2 0.000000
48 2 3.114617
49 2 -0.000000
50 2 0.000000
51 2 -0.250806
52 2 0.000000
53 2 -0.000000
54 2 -0.220899
55 2 0.000000
56 2 0.000000
57 2 -0.000000
58 2 -0.000000
59 2 0.000000
60 2 -0.000000
61 2 -0.000000
62 2 -0.000000
63 2 0.000000
64 2 -0.247589
65 2 -0.000000
66 2 -0.000000
67 2 -1.942956
68 2 -1.057377
69 2 -0.000000
70 2 -0.000000
71 2 -0.203976
72 2 -0.000000
73 2 0.000000
74 2 -0.000000
75 2 0.000000
76 2 -0.252992
77 2 -0.000000
78 2 -0.000000
79 2 -0.000000
80 2 0.000000
81 2 -0.000000
82 2 0.000000
83 2 -0.000000
84 2 0.000000
85 2 -0.000000
86 2 -0.000000
87 2 -0.233100
88 2 0.000000
89 2 -1.957718
90 2 -0.000000
91 2 -0.000000
92 2 0.000000
93 2 -0.234753
94 2 -0.000000
95 2 3.121539
96 2 -1.063532
97 2 -0.000000
98 2 0.000000
99 2 -0.238799
100 2 -0.000000
101 2 -0.000000
102 2 -0.000000
103 2 -0.000000
104 2 -0.000000
105 2 0.000000
106 2 -0.000000
107 2 -0.281256
108 2 -0.000000
109 2 -0.221386
110 2 -0.000000
111 2 -0.000000
112 2 -0.000000
113 2 -0.000000
114 2 -0.000000
115 2 0.000000
116 2 -0.000000
117 2 -0.000000
118 2 2.369734
119 2 -0.265741
120 2 -0.000000
121 2 2.685442
122 2 -0.000000
123 2 -0.256291
124 2 0.000000
125 2 -0.000000
126 2 -1.486426
127 2 -0.000000
128 2 -0.234929
129 2 -0.000000
130 2 0.000000
131 2 -0.000000
132 2 -0.274693
133 2 -1.344783
134 2 0.000000
135 2 0.000000
136 2 2.116932
137 2 -0.281307
138 2 -0.473593
139 2 -2.745610
140 2 0.000000
141 2 0.000000
142 2 -0.000000
143 2 0.000000
144 2 -0.284341
145 2 0.000000
146 2 -0.000000
147 2 0.000000
148 2 -0.187781
149 2 0.000000
150 2 0.000000
151 2 -0.000000
152 2 -0.000000
153 2 -0.000000
154 2 0.000000
155 2 -0.000000
156 2 -0.295706
157 2 0.000000
158 2 -0.000000
159 2 -0.261538
160 2 -0.000000
161 2 -0.000000
162 2 -0.000000
163 2 -0.293743
164 2 0.000000
165 2 0.000000
166 2 0.000000
167 2 -0.000000
168 2 0.000000
169 2 -0.000000
170 2 0.000000
171 2 -0.000000
172 2 -1.484809
173 2 0.000000
174 2 -0.226743
175 2 -0.000000
176 2 -0.218554
177 2 -0.000000
178 2 0.000000
179 2 0.000000
180 2 0.000000
181 2 0.000000
182 2 0.000000
183 2 -0.000000
184 2 0.000000
185 2 -0.000000
186 2 -0.000000
187 2 -0.000000
188 2 -0.000000
189 2 -0.000000
190 2 -0.256183
191 2 -0.243482
192 2 -0.595532
193 2 -0.000000
194 2 0.000000
195 2 -0.000000
196 2 -0.000000
197 2 -0.226293
198 2 -0.233596
199 2 -0.000000
200 2 -0.000000
201 2 0.000000
202 2 3.625570
203 2 -0.000000
204 2 -0.000000
205 2 -0.000000
206 2 -0.281088
207 2 -0.000000
208 2 -0.000000
209 2 -0.000000
210 2 0.000000
211 2 0.000000
212 2 -0.000000
213 2 -2.841991
214 2 -0.239205
215 2 -0.000000
216 2 -0.000000
217 2 2.537192
218 2 -0.000000
219 2 0.000000
220 2 -0.000000
221 2 0.000000
222 2 -0.000000
223 2 -0.000000
224 2 -0.910617
225 2 -0.000000
226 2 -0.388625
227 2 -0.000000
228 2 -0.000000
229 2 -0.000000
230 2 -0.000000
231 2 -0.000000
232 2 -2.449394
233 2 0.000000
234 2 -0.000000
235 2 -0.516693
236 2 0.000000
237 2 -0.000000
238 2 0.000000
239 2 0.000000
240 2 -0.258756
241 2 0.000000
242 2 -0.094038
243 2 0.000000
244 2 -0.764941
245 2 2.195251
246 2 -0.128152
247 2 0.000000
248 2 0.000000
249 2 -0.000000
250 2 -0.249641
251 2 -0.000000
252 2 0.000000
253 2 -0.000000
254 2 -0.000000
255 2 0.000000
256 2 -0.000000
257 2 -0.000000
258 2 -0.000000
259 2 -0.225420
260 2 -0.000000
261 2 -0.000000
262 2 -0.000000
263 2 -0.000000
264 2 -1.945961
265 2 -0.000000
266 2 0.000000
267 2 1.413567
268 2 -0.248266
269 2 0.000000
270 2 -0.000000
271 2 -0.000000
272 2 0.000000
273 2 3.053579
274 2 0.000000
275 2 0.213509
276 2 -0.000000
277 2 0.548035
278 2 -0.000000
279 2 -0.000000
280 2 -0.255766
281 2 -0.000000
282 2 0.000000
283 2 -0.212737
284 2 -0.000000
285 2 0.000000
286 2 -0.000000
287 2 -1.672395
288 2 0.000000
289 2 1.648139
290 2 -0.000000
291 2 -0.223363
292 2 -0.000000
293 2 0.200101
294 2 -0.279502
295 2 0.000000
296 2 -0.000000
297 2 0.000000
298 2 -0.000000
299 2 0.000000
300 2 0.000000
301 2 0.000000
302 2 -0.000000
303 2 0.000000
304 2 -0.000000
305 2 -0.202753
306 2 0.000000
307 2 0.000000
308 2 -0.292643
309 2 -0.739805
310 2 -0.000000
311 2 -0.000000
312 2 -0.000000
313 2 0.000000
314 2 1.629588
315 2 -0.000000
316 2 -0.000000
317 2 0.000000
318 2 -0.000000
319 2 -0.000000
320 2 0.000000
321 2 -0.000000
322 2 2.162508
323 2 -0.000000
324 2 -0.000000
325 2 4.130639
326 2 0.000000
327 2 0.000000
328 2 -0.000000
329 2 -0.000000
330 2 -0.000000
331 2 -0.000000
332 2 0.000000
333 2 -0.000000
334 2 -0.000000
335 2 -1.473534
336 2 -0.000000
337 2 1.231939
338 2 -0.000000
339 2 0.000000
340 2 -0.000000
341 2 -0.000000
342 2 -0.000000
343 2 0.000000
344 2 0.000000
345 2 -0.000000
346 2 0.000000
347 2 -0.000000
348 2 0.000000
349 2 -0.263059
350 2 -0.000000
351 2 0.000000
352 2 3.349904
353 2 -0.000000
354 2 -0.000000
355 2 0.000000
356 2 -0.253897
357 2 -0.000000
358 2 -0.000000
359 2 -0.000000
360 2 -2.147694
361 2 -0.000000
362 2 -0.213246
363 2 0.000000
364 2 2.088062
365 2 0.000000
366 2 -0.000000
367 2 -0.000000
368 2 -0.260160
369 2 -1.496424
370 2 -0.406390
371 2 -0.000000
372 2 0.000000
373 2 0.000000
374 2 -0.000000
375 2 -0.000000
376 2 -0.000000
377 2 -0.000000
378 2 0.000000
379 2 -0.000000
380 2 -0.000000
381 2 -0.000000
382 2 -0.000000
383 2 -0.000000
384 2 0.000000
385 2 -0.698980
386 2 -0.000000
387 2 0.023561
388 2 -2.038625
389 2 3.657396
390 2 0.000000
391 2 0.000000
392 2 0.000000
393 2 -0.205447
394 2 -0.255222
395 2 -0.000000
396 2 -0.469669
397 2 0.009174
398 2 -0.627955
399 2 -0.000000
400 2 -0.000000
401 2 -0.428010
402 2 0.000000
403 2 -0.000000
404 2 0.000000
405 2 -0.000000
406 2 0.000000
407 2 -0.579006
408 2 2.495524
409 2 -0.000000
410 2 -0.000000
411 2 -3.714142
412 2 -0.537224
413 2 0.000000
414 2 -0.260210
415 2 -0.000000
416 2 0.000000
417 2 -0.000000
418 2 0.000000
419 2 -0.444684
420 2 0.000000
421 2 -0.000000
422 2 -0.190360
423 2 -0.000000
424 2 -0.000000
425 2 -0.000000
426 2 0.000000
427 2 -0.040136
428 2 -0.000000
429 2 0.000000
430 2 0.000000
431 2 -0.222063
432 2 -0.264285
433 2 -0.000000
434 2 -0.000000
435 2 0.000000
436 2 -0.000000
437 2 -0.000000
438 2 -0.000000
439 2 0.000000
440 2 -0.000000
441 2 0.000000
442 2 -0.000000
443 2 -1.482180
444 2 -0.000000
445 2 3.012556
446 2 4.870570
447 2 0.000000
448 2 -0.000000
449 2 -0.000000
450 2 -0.000000
451 2 -0.000000
452 2 0.000000
453 2 0.000000
454 2 -0.000000
455 2 0.032339
456 2 -0.000000
457 2 -0.000000
458 2 2.527194
459 2 3.674044
460 2 -0.000000
461 2 -0.000000
462 2 -0.262265
463 2 -0.000000
464 2 0.000000
465 2 -0.271969
466 2 -0.000000
467 2 0.000000
468 2 0.640081
469 2 -0.246768
470 2 -0.000000
471 2 -0.724204
472 2 -0.267983
473 2 -0.235971
474 2 -0.000000
475 2 -0.456946
476 2 0.000000
477 2 -0.000000
478 2 -0.266506
479 2 0.504174
480 2 -1.587169
481 2 -0.000000
482 2 -0.000000
483 2 0.000000
484 2 0.000000
485 2 0.000000
486 2 0.000000
487 2 -0.338860
488 2 -2.709204
489 2 -0.000000
490 2 0.000000
491 2 -0.264739
492 2 -0.057522
493 2 -0.348828
494 2 0.000000
495 2 -0.258626
496 2 -0.000000
497 2 -0.000000
498 2 0.056006
499 2 0.780029
500 2 0.601597
501 2 -0.000000
502 2 0.000000
503 2 -0.270048
504 2 -0.000000
505 2 -0.000000
506 2 0.000000
507 2 -0.000000
508 2 -0.215932
509 2 0.000000
510 2 -2.652726
511 2 0.000000
512 2 -0.000000
513 2 0.000000
514 2 -0.219617
515 2 -0.288811
516 2 -0.254017
517 2 -0.000000
518 2 -0.000000
519 2 -0.000000
520 2 0.000000
521 2 -0.227078
522 2 0.000000
523 2 0.000000
524 2 -0.000000
525 2 -0.000000
526 2 -0.000000
527 2 -0.307906
528 2 -0.000000
529 2 -1.860094
530 2 -0.000000
531 2 -0.228695
532 2 -0.000000
533 2 -0.000000
534 2 2.770296
535 2 -0.025033
536 2 -4.719371
537 2 -0.000000
538 2 0.806441
539 2 0.000000
540 2 -0.000000
541 2 -0.263183
542 2 0.000000
543 2 -0.534163
544 2 -0.000000
545 2 0.892701
546 2 -0.245445
547 2 -0.000000
548 2 -0.138488
549 2 -0.000000
550 2 -0.000000
551 2 0.000000
552 2 0.521848
553 2 -2.536232
554 2 0.000000
555 2 -0.129592
556 2 -0.000000
557 2 0.616939
558 2 3.530694
559 2 3.329448
560 2 -1.396847
561 2 0.000000
562 2 0.000000
563 2 0.000000
564 2 0.000000
565 2 -0.000000
566 2 0.000000
567 2 -2.033876
568 2 1.109891
569 2 -0.657796
570 2 -0.000000
571 2 -0.255857
572 2 -0.293207
573 2 -0.253355
574 2 -0.000000
575 2 -0.000000
576 2 0.000000
577 2 -0.000000
578 2 -0.000000
579 2 -0.000000
580 2 0.030349
581 2 -0.274865
582 2 -0.000000
583 2 2.562201
584 2 -0.000000
585 2 0.000000
586 2 -2.136829
587 2 -0.000000
588 2 -0.000000
589 2 -0.149755
590 2 -1.510781
591 2 -0.000000
592 2 1.021296
593 2 -0.000000
594 2 -0.749204
595 2 -3.680374
596 2 -0.254934
597 2 -0.000000
598 2 0.000000
599 2 -0.000000
600 2 0.000000
601 2 -0.000000
602 2 -0.000000
603 2 -0.000000
604 2 -0.656393
605 2 -0.000000
606 2 -0.000000
607 2 -0.254412
608 2 -0.000000
609 2 -0.258576
610 2 0.000000
611 2 -1.433437
612 2 -0.000000
613 2 0.000000
614 2 -0.000000
615 2 0.467577
616 2 2.281577
617 2 -0.000000
618 2 -0.000000
619 2 3.396874
620 2 -0.000000
621 2 0.000000
622 2 -0.000000
623 2 -0.000000
624 2 -0.000000
625 2 -0.000000
626 2 0.000000
627 2 -0.282182
628 2 -0.000000
629 2 -0.000000
630 2 -0.000000
631 2 -0.000000
632 2 -0.000000
633 2 -0.248888
634 2 -0.000000
635 2 0.000000
636 2 0.000000
637 2 -0.752491
638 2 -1.822250
639 2 -0.000000
640 2 2.910846
641 2 -0.000000
642 2 0.000000
643 2 0.000000
644 2 -0.242899
645 2 -0.218996
646 2 -2.170659
647 2 -0.254026
648 2 0.000000
649 2 -0.000000
650 2 -1.168947
651 2 -0.000000
652 2 0.000000
653 2 -0.167264
654 2 -0.000000
655 2 -0.742855
656 2 0.000000
657 2 -0.000000
658 2 -0.000000
659 2 -0.000000
660 2 -0.000000
661 2 0.725817
662 2 -0.334307
663 2 0.139804
664 2 0.000000
665 2 -0.000000
666 2 -0.000000
667 2 -0.000000
668 2 -0.000000
669 2 -0.253895
670 2 -0.248315
671 2 -0.000000
672 2 -0.000000
673 2 -0.000000
674 2 -0.254421
675 2 -0.244162
676 2 0.000000
677 2 -0.054187
678 2 0.000000
679 2 -0.000000
680 2 -0.000000
681 2 -3.616894
682 2 -0.234465
683 2 -0.244493
684 2 0.000000
685 2 0.000000
686 2 0.000000
687 2 -0.000000
688 2 -0.000000
689 2 -0.000000
690 2 -0.000000
691 2 -1.627442
692 2 -0.000000
693 2 0.000000
694 2 -0.000000
695 2 -0.000000
696 2 0.000000
697 2 -0.000000
698 2 -0.000000
699 2 -0.000000
700 2 -0.000000
701 2 -1.110543
702 2 1.652887
703 2 0.000000
704 2 -0.252749
705 2 2.120117
706 2 -0.000000
707 2 -0.000000
708 2 0.860955
709 2 -0.000000
710 2 -0.000000
711 2 -0.000000
712 2 -0.260162
713 2 -0.000000
714 2 -0.000000
715 2 -0.000000
716 2 0.000000
717 2 -0.000000
718 2 -0.000000
719 2 -1.592182
720 2 0.000000
721 2 -0.309591
722 2 -0.221764
723 2 0.000000
724 2 0.000000
725 2 1.391784
726 2 -0.000000
727 2 -0.000000
728 2 -0.000000
729 2 -0.521958
730 2 -0.239025
731 2 -0.000000
732 2 -1.658121
733 2 -0.000000
734 2 -0.000000
735 2 -0.000000
736 2 0.000000
737 2 -0.000000
738 2 -0.242931
739 2 0.000000
740 2 -0.000000
741 2 -0.000000
742 2 -0.000000
743 2 -0.280383
744 2 0.234421
745 2 0.000000
746 2 -0.000000
747 2 -0.608891
748 2 0.000000
749 2 0.000000
750 2 -0.291870
751 2 0.000000
752 2 -0.000000
753 2 0.000000
754 2 -0.243698
755 2 0.000000
756 2 0.000000
757 2 -0.000000
758 2 -0.000000
759 2 0.000000
760 2 0.000000
761 2 -0.000000
762 2 -1.108375
763 2 -0.244996
764 2 -1.166248
765 2 -0.000000
766 2 -0.000000
767 2 -2.734858
768 2 1.782910
769 2 0.000000
770 2 -0.241979
771 2 0.000000
772 2 0.227168
773 2 -0.000000
774 2 0.000000
775 2 -0.000000
776 2 -0.000000
777 2 -0.000000
778 2 -4.670161
779 2 -0.231422
780 2 0.000000
781 2 0.000000
782 2 -0.261346
783 2 0.000000
784 2 -0.000000
785 2 0.000000
786 2 -0.000000
787 2 0.000000
788 2 0.021934
789 2 -0.255262
790 2 0.000000
791 2 2.632471
792 2 0.000000
793 2 -1.034211
794 2 -0.280332
795 2 -0.379131
796 2 -0.000000
797 2 -0.000000
798 2 -2.007654
799 2 -0.000000
0 3 -0.000000
1 3 -0.000000
2 3 -0.600149
3 3 -0.000000
4 3 0.000000
5 3 -0.000000
6 3 0.797891
7 3 -1.618492
8 3 -0.000000
9 3 -0.000000
10 3 -0.000000
11 3 0.000000
12 3 -0.000000
13 3 -0.000000
14 3 -0.000000
15 3 -0.290376
16 3 -0.000000
17 3 -0.000000
18 3 -0.369509
19 3 0.000000
20 3 -0.000000
21 3 -1.112476
22 3 -0.000000
23 3 0.000000
24 3 -0.000000
25 3 0.000000
26 3 0.000000
27 3 0.000000
28 3 -0.000000
29 3 -0.411392
30 3 -0.000000
31 3 0.000000
32 3 -0.000000
33 3 0.000000
34 3 0.541857
35 3 -0.000000
36 3 3.087316
37 3 0.000000
38 3 -0.000000
39 3 0.000000
40 3 -0.000000
41 3 -0.000000
42 3 0.000000
43 3 0.000000
44 3 -0.886465
45 3 -0.404156
46 3 -1.207103
47 3 -0.000000
48 3 -1.883404
49 3 -0.000000
50 3 -0.000000
51 3 -0.286294
52 3 -0.000000
53 3 -0.000000
54 3 -0.291904
55 3 -0.000000
56 3 -0.000000
57 3 0.000000
58 3 -0.000000
59 3 0.000000
60 3 -0.000000
61 3 -0.000000
62 3 0.000000
63 3 0.000000
64 3 -0.291777
65 3 -0.000000
66 3 -0.000000
67 3 3.429240
68 3 -0.824291
69 3 0.000000
70 3 -0.000000
71 3 -2.917067
72 3 -0.000000
73 3 -0.000000
74 3 -0.000000
75 3 0.000000
76 3 -0.280295
77 3 -0.000000
78 3 -0.000000
79 3 0.000000
80 3 -0.000000
81 3 -0.000000
82 3 0.000000
83 3 -0.000000
84 3 0.000000
85 3 -0.000000
86 3 -0.000000
87 3 -0.288924
88 3 0.000000
89 3 0.741121
90 3 -0.000000
91 3 -0.000000
92 3 0.000000
93 3 0.075643
94 3 -0.000000
95 3 -2.747682
96 3 0.891829
97 3 0.000000
98 3 0.000000
99 3 -0.303360
100 3 -0.000000
101 3 -0.000000
102 3 -0.000000
103 3 -0.000000
104 3 -0.000000
105 3 -0.000000
106 3 0.000000
107 3 -0.305398
108 3 -0.000000
109 3 -0.296450
110 3 -0.000000
111 3 -0.000000
112 3 -0.000000
113 3 0.000000
114 3 0.000000
115 3 -0.000000
116 3 -0.000000
117 3 0.000000
118 3 -1.005884
119 3 -0.315568
120 3 -0.000000
121 3 -1.982215
122 3 -0.000000
123 3 -0.294343
124 3 0.000000
125 3 -0.000000
126 3 0.255631
127 3 0.000000
128 3 -0.296928
129 3 0.000000
130 3 -0.000000
131 3 -0.000000
132 3 -2.445187
133 3 3.455863
134 3 0.000000
135 3 -0.000000
136 3 -2.654836
137 3 -0.445115
138 3 1.034546
139 3 -0.319175
140 3 -0.000000
141 3 0.000000
142 3 -0.000000
143 3 0.000000
144 3 3.624669
145 3 -0.000000
146 3 -0.000000
147 3 0.000000
148 3 -0.505948
149 3 -0.000000
150 3 0.000000
151 3 -0.000000
152 3 -0.000000
153 3 -0.000000
154 3 0.000000
155 3 -0.000000
156 3 -0.481767
157 3 0.000000
158 3 -0.000000
159 3 -0.312583
160 3 -0.000000
161 3 -0.000000
162 3 -0.000000
163 3 -0.480186
164 3 0.000000
165 3 0.000000
166 3 -0.000000
167 3 -0.000000
168 3 0.000000
169 3 -0.000000
170 3 0.000000
171 3 -0.000000
172 3 -0.433565
173 3 0.000000
174 3 -0.293593
175 3 -0.000000
176 3 -0.288088
177 3 -0.000000
178 3 0.000000
179 3 0.000000
180 3 -0.000000
181 3 0.000000
182 3 0.000000
183 3 -0.000000
184 3 -0.000000
185 3 -0.000000
186 3 -0.000000
187 3 0.000000
188 3 -0.000000
189 3 0.000000
190 3 -0.304079
191 3 -0.293347
192 3 -0.766321
193 3 0.000000
194 3 -0.000000
195 3 0.000000
196 3 0.000000
197 3 -0.303825
198 3 -0.380766
199 3 0.000000
200 3 -0.000000
201 3 -0.000000
202 3 -1.380508
203 3 0.000000
204 3 -0.000000
205 3 -0.000000
206 3 -0.386204
207 3 0.000000
208 3 0.000000
209 3 0.000000
210 3 0.000000
211 3 0.000000
212 3 -0.000000
213 3 0.661765
214 3 -0.298637
215 3 -0.000000
216 3 -0.000000
217 3 3.765344
218 3 0.000000
219 3 0.000000
220 3 -0.000000
221 3 -0.000000
222 3 -0.000000
223 3 -0.000000
224 3 -0.673909
225 3 0.000000
226 3 -0.739558
227 3 -0.000000
228 3 -0.000000
229 3 -0.000000
230 3 0.000000
231 3 0.000000
232 3 0.979915
233 3 -0.000000
234 3 0.000000
235 3 -0.756802
236 3 -0.000000
237 3 -0.000000
238 3 -0.000000
239 3 -0.000000
240 3 -0.313325
241 3 0.000000
242 3 -1.884807
243 3 -0.000000
244 3 -2.824876
245 3 -1.714217
246 3 0.241807
247 3 0.000000
248 3 -0.000000
249 3 -0.000000
250 3 -0.293922
251 3 -0.000000
252 3 0.000000
253 3 0.000000
254 3 -0.000000
255 3 0.000000
256 3 0.000000
257 3 -0.000000
258 3 0.000000
259 3 -0.291594
260 3 0.000000
261 3 -0.000000
262 3 -0.000000
263 3 -0.000000
264 3 -2.899975
265 3 -0.000000
266 3 -0.000000
267 3 -1.598677
268 3 -0.295496
269 3 -0.000000
270 3 0.000000
271 3 -0.000000
272 3 -0.000000
273 3 4.342425
274 3 -0.000000
275 3 -0.667837
276 3 -0.000000
277 3 -2.412390
278 3 -0.000000
279 3 -0.000000
280 3 -0.302739
281 3 -0.000000
282 3 -0.000000
283 3 -0.285048
284 3 -0.000000
285 3 -0.000000
286 3 0.000000
287 3 -0.973470
288 3 -0.000000
289 3 -0.077799
290 3 -0.000000
291 3 -0.283098
292 3 0.000000
293 3 -0.992436
294 3 -0.323219
295 3 0.000000
296 3 0.000000
297 3 0.000000
298 3 -0.000000
299 3 -0.000000
300 3 -0.000000
301 3 -0.000000
302 3 -0.000000
303 3 -0.000000
304 3 0.000000
305 3 -0.784978
306 3 0.000000
307 3 -0.000000
308 3 1.486283
309 3 1.655355
310 3 -0.000000
311 3 -0.000000
312 3 -0.000000
313 3 -0.000000
314 3 -1.513933
315 3 -0.000000
316 3 0.000000
317 3 -0.000000
318 3 -0.000000
319 3 0.000000
320 3 0.000000
321 3 -0.000000
322 3 2.288405
323 3 0.000000
324 3 -0.000000
325 3 -0.398586
326 3 0.000000
327 3 -0.000000
328 3 -0.000000
329 3 -0.000000
330 3 0.000000
331 3 0.000000
332 3 -0.000000
333 3 0.000000
334 3 0.000000
335 3 3.171573
336 3 0.000000
337 3 0.705110
338 3 -0.000000
339 3 -0.000000
340 3 0.000000
341 3 -0.000000
342 3 -0.000000
343 3 0.000000
344 3 -0.000000
345 3 -0.000000
346 3 -0.000000
347 3 -0.000000
348 3 0.000000
349 3 -0.313425
350 3 -0.000000
351 3 -0.000000
352 3 -1.232265
353 3 -0.000000
354 3 -0.000000
355 3 0.000000
356 3 -0.321701
357 3 -0.000000
358 3 -0.000000
359 3 0.000000
360 3 2.152907
361 3 0.000000
362 3 -0.288649
363 3 -0.000000
364 3 -1.769925
365 3 -0.000000
366 3 -0.000000
367 3 0.000000
368 3 -0.343173
369 3 -0.880687
370 3 1.093106
371 3 -0.000000
372 3 -0.000000
373 3 0.000000
374 3 0.000000
375 3 0.000000
376 3 -0.000000
377 3 -0.000000
378 3 -0.000000
379 3 0.000000
380 3 -0.000000
381 3 -0.000000
382 3 -0.000000
383 3 -0.000000
384 3 -0.000000
385 3 -0.908943
386 3 -0.000000
387 3 -1.389867
388 3 -2.421498
389 3 1.412044
390 3 -0.000000
391 3 -0.000000
392 3 0.000000
393 3 -0.404022
394 3 -0.310961
395 3 0.000000
396 3 -0.299448
397 3 1.567206
398 3 1.382452
399 3 0.000000
400 3 -0.000000
401 3 -1.002650
402 3 -0.000000
403 3 -0.000000
404 3 -0.000000
405 3 -0.000000
406 3 -0.000000
407 3 -0.127522
408 3 -2.005309
409 3 -0.000000
410 3 -0.000000
411 3 0.816837
412 3 3.699878
413 3 0.000000
414 3 -0.341332
415 3 -0.000000
416 3 0.000000
417 3 0.000000
418 3 0.000000
419 3 -3.375233
420 3 0.000000
421 3 -0.000000
422 3 -3.201837
423 3 -0.000000
424 3 -0.000000
425 3 0.000000
426 3 0.000000
427 3 -0.747883
428 3 -0.000000
429 3 0.000000
430 3 0.000000
431 3 -0.291479
432 3 -0.334454
433 3 0.000000
434 3 -0.000000
435 3 -0.000000
436 3 0.000000
437 3 0.000000
438 3 -0.000000
439 3 -0.000000
440 3 0.000000
441 3 0.000000
442 3 -0.000000
443 3 2.337876
444 3 -0.000000
445 3 2.156866
446 3 -2.218639
447 3 0.000000
448 3 -0.000000
449 3 -0.000000
450 3 -0.000000
451 3 0.000000
452 3 -0.000000
453 3 0.000000
454 3 -0.000000
455 3 -0.253115
456 3 -0.000000
457 3 -0.000000
458 3 -0.269857
459 3 -0.959164
460 3 -0.000000
461 3 0.000000
462 3 -0.309742
463 3 -0.000000
464 3 -0.000000
465 3 -0.340499
466 3 -0.000000
467 3 -0.000000
468 3 -2.908269
469 3 -0.686074
470 3 0.000000
471 3 -2.343799
472 3 -0.353630
473 3 -0.301985
474 3 0.000000
475 3 1.652207
476 3 0.000000
477 3 0.000000
478 3 -0.370200
479 3 -0.725004
480 3 -0.917790
481 3 -0.000000
482 3 0.000000
483 3 0.000000
484 3 0.000000
485 3 0.000000
486 3 -0.000000
487 3 0.350853
488 3 1.020402
489 3 -0.000000
490 3 0.000000
491 3 -0.308637
492 3 -0.427073
493 3 -0.409798
494 3 -0.000000
495 3 -0.314031
496 3 -0.000000
497 3 -0.000000
498 3 -1.450995
499 3 0.500439
500 3 -0.633152
501 3 0.000000
502 3 0.000000
503 3 -0.303329
504 3 0.000000
505 3 0.000000
506 3 -0.000000
507 3 -0.000000
508 3 -0.291204
509 3 -0.000000
510 3 3.250875
511 3 -0.000000
512 3 -0.000000
513 3 -0.000000
514 3 -0.293777
515 3 -0.410855
516 3 -0.293033
517 3 -0.000000
518 3 -0.000000
519 3 -0.000000
520 3 -0.000000
521 3 -0.293510
522 3 0.000000
523 3 -0.000000
524 3 -0.000000
525 3 -0.000000
526 3 0.000000
527 3 -2.820035
528 3 -0.000000
529 3 -1.141030
530 3 0.000000
531 3 -0.300647
532 3 0.000000
533 3 -0.000000
534 3 4.488571
535 3 -0.405329
536 3 -1.557794
537 3 -0.000000
538 3 -0.970537
539 3 -0.000000
540 3 -0.000000
541 3 -0.332457
542 3 0.000000
543 3 -2.244112
544 3 -0.000000
545 3 -1.875514
546 3 -0.310169
547 3 -0.000000
548 3 -2.025505
549 3 -0.000000
550 3 0.000000
551 3 0.000000
552 3 -0.780124
553 3 -0.589994
554 3 -0.000000
555 3 1.298717
556 3 -0.000000
557 3 -0.413747
558 3 2.551266
559 3 -2.456495
560 3 -0.710683
561 3 -0.000000
562 3 0.000000
563 3 -0.000000
564 3 0.000000
565 3 -0.000000
566 3 -0.000000
567 3 -0.788400
568 3 -2.166001
569 3 1.699636
570 3 -0.000000
571 3 -0.311276
572 3 -0.419995
573 3 -0.295789
574 3 -0.000000
575 3 -0.000000
576 3 0.000000
577 3 -0.000000
578 3 -0.000000
579 3 -0.000000
580 3 -1.618977
581 3 -1.111343
582 3 -0.000000
583 3 -1.582370
584 3 -0.000000
585 3 0.000000
586 3 -0.417719
587 3 -0.000000
588 3 -0.000000
589 3 -0.337779
590 3 3.043107
591 3 -0.000000
592 3 1.148476
593 3 0.000000
594 3 1.241698
595 3 5.350449
596 3 -0.342135
597 3 0.000000
598 3 0.000000
599 3 0.000000
600 3 -0.000000
601 3 0.000000
602 3 -0.000000
603 3 -0.000000
604 3 3.912756
605 3 0.000000
606 3 0.000000
607 3 -0.334699
608 3 -0.000000
609 3 -0.332711
610 3 0.000000
611 3 -2.292901
612 3 -0.000000
613 3 -0.000000
614 3 -0.000000
615 3 -1.226329
616 3 -1.544525
617 3 0.000000
618 3 -0.000000
619 3 -0.046603
620 3 -0.000000
621 3 -0.000000
622 3 0.000000
623 3 -0.000000
624 3 -0.000000
625 3 0.000000
626 3 0.000000
627 3 -0.441975
628 3 -0.000000
629 3 0.000000
630 3 -0.000000
631 3 0.000000
632 3 0.000000
633 3 -2.513823
634 3 0.000000
635 3 -0.000000
636 3 -0.000000
637 3 -0.787888
638 3 -0.886407
639 3 0.000000
640 3 2.709212
641 3 0.000000
642 3 -0.000000
643 3 -0.000000
644 3 -0.295426
645 3 -0.297825
646 3 -2.537627
647 3 -0.309186
648 3 -0.000000
649 3 0.000000
650 3 2.418602
651 3 -0.000000
652 3 0.000000
653 3 -1.401857
654 3 -0.000000
655 3 -0.455935
656 3 0.000000
657 3 -0.000000
658 3 0.000000
659 3 -0.000000
660 3 -0.000000
661 3 -1.375375
662 3 -0.355083
663 3 -0.842133
664 3 0.000000
665 3 -0.000000
666 3 -0.000000
667 3 -0.000000
668 3 -0.000000
669 3 -0.296756
670 3 -0.386515
671 3 -0.000000
672 3 -0.000000
673 3 0.000000
674 3 -0.299132
675 3 -0.303890
676 3 0.000000
677 3 -1.506503
678 3 0.000000
679 3 0.000000
680 3 0.000000
681 3 4.793093
682 3 -0.307935
683 3 -0.298965
684 3 -0.000000
685 3 -0.000000
686 3 0.000000
687 3 0.000000
688 3 -0.000000
689 3 0.000000
690 3 0.000000
691 3 1.843599
692 3 -0.000000
693 3 -0.000000
694 3 -0.000000
695 3 -0.000000
696 3 -0.000000
697 3 -0.000000
698 3 -0.000000
699 3 -0.000000
700 3 -0.000000
701 3 -1.184073
702 3 2.200721
703 3 -0.000000
704 3 -0.295152
705 3 -0.892596
706 3 -0.000000
707 3 -0.000000
708 3 3.564508
709 3 0.000000
710 3 -0.000000
711 3 -0.000000
712 3 -0.369023
713 3 -0.000000
714 3 -0.000000
715 3 -0.000000
716 3 0.000000
717 3 -0.000000
718 3 -0.000000
719 3 4.688062
720 3 0.000000
721 3 -0.468006
722 3 -0.293211
723 3 -0.000000
724 3 0.000000
725 3 -0.740678
726 3 -0.000000
727 3 0.000000
728 3 -0.000000
729 3 -0.348030
730 3 -0.319140
731 3 0.000000
732 3 1.360152
733 3 -0.000000
734 3 0.000000
735 3 -0.000000
736 3 0.000000
737 3 0.000000
738 3 -0.341303
739 3 0.000000
740 3 -0.000000
741 3 -0.000000
742 3 -0.000000
743 3 -0.469395
744 3 -0.256168
745 3 0.000000
746 3 -0.000000
747 3 -0.338395
748 3 0.000000
749 3 0.000000
750 3 -0.480140
751 3 -0.000000
752 3 0.000000
753 3 0.000000
754 3 -0.304471
755 3 0.000000
756 3 -0.000000
757 3 0.000000
758 3 -0.000000
759 3 0.000000
760 3 -0.000000
761 3 -0.000000
762 3 0.075488
763 3 -0.295949
764 3 3.326617
765 3 0.000000
766 3 0.000000
767 3 2.219522
768 3 -2.170915
769 3 -0.000000
770 3 -0.291934
771 3 -0.000000
772 3 -0.389602
773 3 0.000000
774 3 0.000000
775 3 -0.000000
776 3 -0.000000
777 3 -0.000000
778 3 4.185246
779 3 -0.302286
780 3 0.000000
781 3 0.000000
782 3 -0.328822
783 3 0.000000
784 3 -0.000000
785 3 -0.000000
786 3 -0.000000
787 3 -0.000000
788 3 -0.187520
789 3 -0.321283
790 3 0.000000
791 3 1.419214
792 3 -0.000000
793 3 1.549000
794 3 -0.331075
795 3 -0.509255
796 3 -0.000000
797 3 -0.000000
798 3 -1.509723
799 3 -0.000000
0 4 -0.000000
1 4 -0.000000
2 4 1.008535
3 4 0.000000
4 4 -0.000000
5 4 -0.000000
6 4 -0.344661
7 4 -0.985167
8 4 -0.000000
9 4 -0.000000
10 4 0.000000
11 4 -0.000000
12 4 -0.000000
13 4 0.000000
14 4 0.000000
15 4 -0.394287
16 4 -0.000000
17 4 -0.000000
18 4 -0.371801
19 4 0.000000
20 4 -0.000000
21 4 0.388215
22 4 -0.000000
23 4 0.000000
24 4 0.000000
25 4 0.000000
26 4 -0.000000
27 4 -0.000000
28 4 -0.000000
29 4 -0.335882
30 4 -0.000000
31 4 0.000000
32 4 0.000000
33 4 0.000000
34 4 -0.736833
35 4 -0.000000
36 4 -2.603964
37 4 0.000000
38 4 -0.000000
39 4 -0.000000
40 4 -0.000000
41 4 0.000000
42 4 -0.000000
43 4 0.000000
44 4 -1.553462
45 4 0.283656
46 4 -0.162864
47 4 0.000000
48 4 1.984313
49 4 -0.000000
50 4 0.000000
51 4 -0.365171
52 4 0.000000
53 4 -0.000000
54 4 -0.226577
55 4 -0.000000
56 4 -0.000000
57 4 -0.000000
58 4 -0.000000
59 4 0.000000
60 4 -0.000000
61 4 -0.000000
62 4 -0.000000
63 4 0.000000
64 4 -0.367174
65 4 -0.000000
66 4 -0.000000
67 4 1.099818
68 4 -0.945228
69 4 -0.000000
70 4 -0.000000
71 4 -1.346388
72 4 -0.000000
73 4 -0.000000
74 4 -0.000000
75 4 0.000000
76 4 -0.583681
77 4 -0.000000
78 4 -0.000000
79 4 0.000000
80 4 0.000000
81 4 0.000000
82 4 0.000000
83 4 -0.000000
84 4 -0.000000
85 4 -0.000000
86 4 -0.000000
87 4 -0.339395
88 4 0.000000
89 4 0.056975
90 4 -0.000000
91 4 -0.000000
92 4 -0.000000
93 4 -1.159576
94 4 -0.000000
95 4 -0.106812
96 4 -1.434540
97 4 -0.000000
98 4 -0.000000
99 4 -0.336854
100 4 -0.000000
101 4 0.000000
102 4 0.000000
103 4 -0.000000
104 4 0.000000
105 4 0.000000
106 4 -0.000000
107 4 -0.402889
108 4 -0.000000
109 4 -0.246905
110 4 0.000000
111 4 -0.000000
112 4 -0.000000
113 4 -0.000000
114 4 0.000000
115 4 0.000000
116 4 0.000000
117 4 -0.000000
118 4 0.734594
119 4 -0.392195
120 4 0.000000
121 4 -0.896952
122 4 -0.000000
123 4 -0.390164
124 4 0.000000
125 4 -0.000000
126 4 -0.000274
127 4 0.000000
128 4 -0.294325
129 4 -0.000000
130 4 0.000000
131 4 -0.000000
132 4 1.903959
133 4 -0.632806
134 4 0.000000
135 4 -0.000000
136 4 1.103355
137 4 -0.351266
138 4 -1.146595
139 4 1.061813
140 4 -0.000000
141 4 0.000000
142 4 0.000000
143 4 0.000000
144 4 -2.129653
145 4 0.000000
146 4 -0.000000
147 4 0.000000
148 4 -0.158507
149 4 -0.000000
150 4 -0.000000
151 4 0.000000
152 4 -0.000000
153 4 0.000000
154 4 0.000000
155 4 -0.000000
156 4 -0.356938
157 4 0.000000
158 4 -0.000000
159 4 -0.382212
160 4 -0.000000
161 4 -0.000000
162 4 -0.000000
163 4 -0.365970
164 4 -0.000000
165 4 0.000000
166 4 -0.000000
167 4 -0.000000
168 4 0.000000
169 4 0.000000
170 4 -0.000000
171 4 -0.000000
172 4 -1.706483
173 4 0.000000
174 4 -0.240576
175 4 -0.000000
176 4 -0.229818
177 4 0.000000
178 4 -0.000000
179 4 0.000000
180 4 -0.000000
181 4 0.000000
182 4 -0.000000
183 4 -0.000000
184 4 0.000000
185 4 -0.000000
186 4 -0.000000
187 4 -0.000000
188 4 -0.000000
189 4 0.000000
190 4 -0.395418
191 4 -0.368160
192 4 -1.348030
193 4 0.000000
194 4 -0.000000
195 4 -0.000000
196 4 0.000000
197 4 -0.246640
198 4 -0.353280
199 4 0.000000
200 4 -0.000000
201 4 -0.000000
202 4 -0.736695
203 4 0.000000
204 4 -0.000000
205 4 -0.000000
206 4 -0.367330
207 4 -0.000000
208 4 0.000000
209 4 0.000000
210 4 -0.000000
211 4 0.000000
212 4 0.000000
213 4 -1.245040
214 4 -0.334391
215 4 0.000000
216 4 -0.000000
217 4 -2.412409
218 4 0.000000
219 4 0.000000
220 4 0.000000
221 4 0.000000
222 4 -0.000000
223 4 -0.000000
224 4 0.093000
225 4 0.000000
226 4 -0.556357
227 4 -0.000000
228 4 0.000000
229 4 -0.000000
230 4 -0.000000
231 4 0.000000
232 4 2.331390
233 4 -0.000000
234 4 0.000000
235 4 5.978027
236 4 -0.000000
237 4 0.000000
238 4 -0.000000
239 4 0.000000
240 4 -0.367938
241 4 0.000000
242 4 0.179184
243 4 -0.000000
244 4 1.345443
245 4 5.115157
246 4 -1.330374
247 4 0.000000
248 4 0.000000
249 4 -0.000000
250 4 -0.395928
251 4 -0.000000
252 4 -0.000000
253 4 0.000000
254 4 -0.000000
255 4 0.000000
256 4 -0.000000
257 4 -0.000000
258 4 -0.000000
259 4 -0.236139
260 4 0.000000
261 4 -0.000000
262 4 -0.000000
263 4 -0.000000
264 4 0.529903
265 4 0.000000
266 4 0.000000
267 4 1.455582
268 4 -0.368254
269 4 -0.000000
270 4 -0.000000
271 4 -0.000000
272 4 0.000000
273 4 -2.569076
274 4 -0.000000
275 4 0.691512
276 4 0.000000
277 4 -0.702631
278 4 -0.000000
279 4 -0.000000
280 4 -0.376912
281 4 0.000000
282 4 0.000000
283 4 -0.223097
284 4 -0.000000
285 4 0.000000
286 4 0.000000
287 4 -2.773020
288 4 -0.000000
289 4 -0.569105
290 4 -0.000000
291 4 -0.302929
292 4 -0.000000
293 4 0.781941
294 4 -0.381242
295 4 -0.000000
296 4 0.000000
297 4 0.000000
298 4 0.000000
299 4 0.000000
300 4 0.000000
301 4 0.000000
302 4 -0.000000
303 4 0.000000
304 4 -0.000000
305 4 -0.668356
306 4 0.000000
307 4 -0.000000
308 4 -0.655869
309 4 0.895050
310 4 -0.000000
311 4 -0.000000
312 4 -0.000000
313 4 -0.000000
314 4 0.207311
315 4 -0.000000
316 4 -0.000000
317 4 0.000000
318 4 -0.000000
319 4 0.000000
320 4 0.000000
321 4 -0.000000
322 4 2.652605
323 4 0.000000
324 4 -0.000000
325 4 -0.444150
326 4 -0.000000
327 4 -0.000000
328 4 -0.000000
329 4 -0.000000
330 4 0.000000
331 4 0.000000
332 4 -0.000000
333 4 -0.000000
334 4 -0.000000
335 4 1.665929
336 4 -0.000000
337 4 -2.967122
338 4 -0.000000
339 4 0.000000
340 4 -0.000000
341 4 -0.000000
342 4 -0.000000
343 4 -0.000000
344 4 0.000000
345 4 -0.000000
346 4 -0.000000
347 4 -0.000000
348 4 0.000000
349 4 -0.379101
350 4 0.000000
351 4 0.000000
352 4 3.214627
353 4 -0.000000
354 4 -0.000000
355 4 -0.000000
356 4 -0.373129
357 4 -0.000000
358 4 -0.000000
359 4 0.000000
360 4 3.374978
361 4 -0.000000
362 4 -0.229109
363 4 0.000000
364 4 -0.527096
365 4 -0.000000
366 4 -0.000000
367 4 0.000000
368 4 -0.365142
369 4 1.004774
370 4 -0.593230
371 4 -0.000000
372 4 0.000000
373 4 0.000000
374 4 0.000000
375 4 0.000000
376 4 -0.000000
377 4 -0.000000
378 4 -0.000000
379 4 -0.000000
380 4 -0.000000
381 4 -0.000000
382 4 -0.000000
383 4 0.000000
384 4 -0.000000
385 4 -2.006302
386 4 -0.000000
387 4 -0.420362
388 4 1.959342
389 4 1.558634
390 4 -0.000000
391 4 -0.000000
392 4 0.000000
393 4 -0.590701
394 4 -0.364196
395 4 0.000000
396 4 -0.005117
397 4 -0.930180
398 4 -1.054994
399 4 -0.000000
400 4 -0.000000
401 4 -1.545432
402 4 0.000000
403 4 0.000000
404 4 -0.000000
405 4 -0.000000
406 4 0.000000
407 4 0.558560
408 4 -0.721559
409 4 -0.000000
410 4 0.000000
411 4 -0.826086
412 4 2.360615
413 4 -0.000000
414 4 -0.378929
415 4 -0.000000
416 4 0.000000
417 4 -0.000000
418 4 -0.000000
419 4 1.073821
420 4 -0.000000
421 4 -0.000000
422 4 -0.261219
423 4 -0.000000
424 4 -0.000000
425 4 0.000000
426 4 0.000000
427 4 -0.507321
428 4 -0.000000
429 4 -0.000000
430 4 0.000000
431 4 -0.240323
432 4 -0.366019
433 4 0.000000
434 4 0.000000
435 4 0.000000
436 4 -0.000000
437 4 -0.000000
438 4 -0.000000
439 4 -0.000000
440 4 -0.000000
441 4 0.000000
442 4 -0.000000
443 4 0.515217
444 4 -0.000000
445 4 -3.216613
446 4 -0.640532
447 4 -0.000000
448 4 -0.000000
449 4 -0.000000
450 4 -0.000000
451 4 -0.000000
452 4 0.000000
453 4 0.000000
454 4 -0.000000
455 4 0.183454
456 4 -0.000000
457 4 -0.000000
458 4 -0.267171
459 4 0.096208
460 4 0.000000
461 4 -0.000000
462 4 -0.391046
463 4 -0.000000
464 4 -0.000000
465 4 -0.497890
466 4 -0.000000
467 4 -0.000000
468 4 1.414438
469 4 -0.591346
470 4 -0.000000
471 4 0.649835
472 4 -0.428336
473 4 -0.305451
474 4 -0.000000
475 4 -0.548052
476 4 0.000000
477 4 0.000000
478 4 -0.369470
479 4 0.688370
480 4 -2.677825
481 4 -0.000000
482 4 0.000000
483 4 0.000000
484 4 -0.000000
485 4 0.000000
486 4 -0.000000
487 4 -1.091446
488 4 -2.570617
489 4 -0.000000
490 4 -0.000000
491 4 -0.392436
492 4 0.264118
493 4 -0.286494
494 4 0.000000
495 4 -0.397263
496 4 -0.000000
497 4 -0.000000
498 4 -1.301316
499 4 -1.849703
500 4 -0.987916
501 4 -0.000000
502 4 -0.000000
503 4 -0.391453
504 4 -0.000000
505 4 -0.000000
506 4 0.000000
507 4 -0.000000
508 4 -0.226983
509 4 0.000000
510 4 2.236583
511 4 0.000000
512 4 -0.000000
513 4 -0.000000
514 4 -0.239293
515 4 -0.380297
516 4 -0.388938
517 4 -0.000000
518 4 -0.000000
519 4 -0.000000
520 4 -0.000000
521 4 -0.248387
522 4 0.000000
523 4 0.000000
524 4 -0.000000
525 4 -0.000000
526 4 0.000000
527 4 -0.039585
528 4 0.000000
529 4 -3.029376
530 4 -0.000000
531 4 -0.231825
532 4 -0.000000
533 4 -0.000000
534 4 -2.602392
535 4 2.056940
536 4 -0.232130
537 4 -0.000000
538 4 -0.578824
539 4 -0.000000
540 4 -0.000000
541 4 -0.351188
542 4 -0.000000
543 4 0.705945
544 4 -0.000000
545 4 -0.482995
546 4 -0.390143
547 4 -0.000000
548 4 1.560977
549 4 -0.000000
550 4 0.000000
551 4 0.000000
552 4 0.280127
553 4 0.226678
554 4 -0.000000
555 4 -1.408365
556 4 -0.000000
557 4 -0.176299
558 4 -2.776528
559 4 -3.954054
560 4 -2.412473
561 4 -0.000000
562 4 0.000000
563 4 0.000000
564 4 0.000000
565 4 -0.000000
566 4 0.000000
567 4 -0.702100
568 4 -2.633396
569 4 -0.687316
570 4 -0.000000
571 4 -0.382646
572 4 -0.353859
573 4 -0.350870
574 4 0.000000
575 4 -0.000000
576 4 0.000000
577 4 0.000000
578 4 -0.000000
579 4 -0.000000
580 4 -2.361198
581 4 -1.707993
582 4 0.000000
583 4 -0.517725
584 4 -0.000000
585 4 0.000000
586 4 -2.427363
587 4 0.000000
588 4 -0.000000
589 4 -0.512630
590 4 2.057343
591 4 -0.000000
592 4 -2.133232
593 4 0.000000
594 4 0.982093
595 4 -1.268839
596 4 -0.375912
597 4 0.000000
598 4 0.000000
599 4 0.000000
600 4 0.000000
601 4 0.000000
602 4 -0.000000
603 4 -0.000000
604 4 -1.847481
605 4 -0.000000
606 4 0.000000
607 4 -0.362517
608 4 -0.000000
609 4 -0.374831
610 4 0.000000
611 4 1.094273
612 4 -0.000000
613 4 -0.000000
614 4 -0.000000
615 4 -0.230828
616 4 0.976560
617 4 -0.000000
618 4 -0.000000
619 4 -0.202639
620 4 0.000000
621 4 0.000000
622 4 0.000000
623 4 -0.000000
624 4 -0.000000
625 4 -0.000000
626 4 -0.000000
627 4 -0.366934
628 4 -0.000000
629 4 0.000000
630 4 -0.000000
631 4 0.000000
632 4 0.000000
633 4 1.273533
634 4 0.000000
635 4 -0.000000
636 4 -0.000000
637 4 -2.271127
638 4 -2.934473
639 4 0.000000
640 4 2.936657
641 4 -0.000000
642 4 -0.000000
643 4 0.000000
644 4 -0.302165
645 4 -0.232407
646 4 1.405420
647 4 -0.382749
648 4 -0.000000
649 4 -0.000000
650 4 -4.039976
651 4 -0.000000
652 4 -0.000000
653 4 -1.885270
654 4 -0.000000
655 4 0.746987
656 4 -0.000000
657 4 -0.000000
658 4 0.000000
659 4 -0.000000
660 4 0.000000
661 4 -1.737246
662 4 0.101920
663 4 0.801044
664 4 -0.000000
665 4 -0.000000
666 4 -0.000000
667 4 -0.000000
668 4 -0.000000
669 4 -0.393267
670 4 -0.346877
671 4 -0.000000
672 4 -0.000000
673 4 0.000000
674 4 -0.375259
675 4 -0.291579
676 4 -0.000000
677 4 -0.683630
678 4 0.000000
679 4 0.000000
680 4 -0.000000
681 4 2.129315
682 4 -0.271385
683 4 -0.280095
684 4 0.000000
685 4 -0.000000
686 4 0.000000
687 4 0.000000
688 4 0.000000
689 4 0.000000
690 4 0.000000
691 4 2.388108
692 4 -0.000000
693 4 -0.000000
694 4 -0.000000
695 4 0.000000
696 4 -0.000000
697 4 -0.000000
698 4 -0.000000
699 4 -0.000000
700 4 0.000000
701 4 -0.192278
702 4 -2.359997
703 4 -0.000000
704 4 -0.399186
705 4 0.252351
706 4 -0.000000
707 4 -0.000000
708 4 -1.092936
709 4 0.000000
710 4 -0.000000
711 4 -0.000000
712 4 -0.368082
713 4 -0.000000
714 4 -0.000000
715 4 -0.000000
716 4 0.000000
717 4 -0.000000
718 4 -0.000000
719 4 0.628768
720 4 -0.000000
721 4 -0.388893
722 4 -0.233336
723 4 0.000000
724 4 -0.000000
725 4 -0.469559
726 4 -0.000000
727 4 -0.000000
728 4 -0.000000
729 4 0.127487
730 4 -0.392762
731 4 -0.000000
732 4 3.920569
733 4 -0.000000
734 4 -0.000000
735 4 -0.000000
736 4 -0.000000
737 4 -0.000000
738 4 -0.447862
739 4 0.000000
740 4 -0.000000
741 4 -0.000000
742 4 -0.000000
743 4 -0.259702
744 4 -0.896519
745 4 0.000000
746 4 -0.000000
747 4 -0.163065
748 4 0.000000
749 4 0.000000
750 4 -0.347182
751 4 0.000000
752 4 0.000000
753 4 0.000000
754 4 -0.282154
755 4 -0.000000
756 4 0.000000
757 4 -0.000000
758 4 -0.000000
759 4 -0.000000
760 4 0.000000
761 4 0.000000
762 4 1.347431
763 4 -0.328846
764 4 -1.862830
765 4 -0.000000
766 4 -0.000000
767 4 3.093918
768 4 -0.108199
769 4 0.000000
770 4 -0.376490
771 4 -0.000000
772 4 -0.582881
773 4 0.000000
774 4 0.000000
775 4 0.000000
776 4 -0.000000
777 4 -0.000000
778 4 2.507221
779 4 -0.278924
780 4 -0.000000
781 4 -0.000000
782 4 -0.366075
783 4 -0.000000
784 4 -0.000000
785 4 0.000000
786 4 -0.000000
787 4 -0.000000
788 4 -0.777214
789 4 -0.388026
790 4 -0.000000
791 4 2.089588
792 4 -0.000000
793 4 -1.774051
794 4 -0.380295
795 4 -0.422632
796 4 -0.000000
797 4 -0.000000
798 4 -2.381995
799 4 -0.000000
0 5 -0.000000
1 5 -0.000000
2 5 -0.086727
3 5 0.000000
4 5 0.000000
5 5 -0.000000
6 5 3.086030
7 5 2.928527
8 5 0.000000
9 5 -0.000000
10 5 -0.000000
11 5 -0.000000
12 5 -0.000000
13 5 -0.000000
14 5 -0.000000
15 5 -0.393513
16 5 -0.000000
17 5 0.000000
18 5 -0.520275
19 5 -0.000000
20 5 -0.000000
21 5 -1.670698
22 5 -0.000000
23 5 -0.000000
24 5 0.000000
25 5 0.000000
26 5 0.000000
27 5 -0.000000
28 5 0.000000
29 5 -0.522574
30 5 0.000000
31 5 0.000000
32 5 0.000000
33 5 -0.000000
34 5 -0.618905
35 5 -0.000000
36 5 3.607500
37 5 0.000000
38 5 -0.000000
39 5 -0.000000
40 5 -0.000000
41 5 -0.000000
42 5 0.000000
43 5 0.000000
44 5 -2.262826
45 5 -0.941993
46 5 1.926866
47 5 -0.000000
48 5 -1.643795
49 5 -0.000000
50 5 -0.000000
51 5 -0.379766
52 5 0.000000
53 5 -0.000000
54 5 -0.371338
55 5 -0.000000
56 5 -0.000000
57 5 -0.000000
58 5 -0.000000
59 5 0.000000
60 5 -0.000000
61 5 -0.000000
62 5 -0.000000
63 5 0.000000
64 5 -0.384060
65 5 -0.000000
66 5 0.000000
67 5 2.667071
68 5 0.031550
69 5 0.000000
70 5 -0.000000
71 5 6.613104
72 5 -0.000000
73 5 -0.000000
74 5 -0.000000
75 5 -0.000000
76 5 -0.502208
77 5 -0.000000
78 5 -0.000000
79 5 0.000000
80 5 0.000000
81 5 0.000000
82 5 -0.000000
83 5 -0.000000
84 5 0.000000
85 5 -0.000000
86 5 -0.000000
87 5 -0.379711
88 5 0.000000
89 5 -1.537791
90 5 -0.000000
91 5 -0.000000
92 5 0.000000
93 5 -0.711158
94 5 -0.000000
95 5 0.869353
96 5 -0.266786
97 5 0.000000
98 5 0.000000
99 5 -0.380710
100 5 -0.000000
101 5 -0.000000
102 5 -0.000000
103 5 -0.000000
104 5 -0.000000
105 5 0.000000
106 5 0.000000
107 5 -0.388996
108 5 -0.000000
109 5 -0.379246
110 5 0.000000
111 5 -0.000000
112 5 -0.000000
113 5 -0.000000
114 5 0.000000
115 5 -0.000000
116 5 0.000000
117 5 -0.000000
118 5 -3.307740
119 5 -0.384505
120 5 -0.000000
121 5 -1.173531
122 5 -0.000000
123 5 -0.387203
124 5 0.000000
125 5 -0.000000
126 5 -1.498586
127 5 0.000000
128 5 -0.374220
129 5 -0.000000
130 5 -0.000000
131 5 -0.000000
132 5 0.092700
133 5 -3.935172
134 5 -0.000000
135 5 0.000000
136 5 -1.354737
137 5 -0.581553
138 5 -0.324588
139 5 -0.690324
140 5 -0.000000
141 5 0.000000
142 5 -0.000000
143 5 -0.000000
144 5 -3.078911
145 5 0.000000
146 5 -0.000000
147 5 -0.000000
148 5 -0.463105
149 5 -0.000000
150 5 -0.000000
151 5 -0.000000
152 5 -0.000000
153 5 -0.000000
154 5 -0.000000
155 5 -0.000000
156 5 -0.605885
157 5 -0.000000
158 5 0.000000
159 5 -0.375075
160 5 -0.000000
161 5 -0.000000
162 5 -0.000000
163 5 -0.596797
164 5 -0.000000
165 5 0.000000
166 5 0.000000
167 5 -0.000000
168 5 0.000000
169 5 -0.000000
170 5 -0.000000
171 5 0.000000
172 5 3.778448
173 5 0.000000
174 5 -0.386859
175 5 -0.000000
176 5 -0.373732
177 5 0.000000
178 5 0.000000
179 5 -0.000000
180 5 0.000000
181 5 0.000000
182 5 -0.000000
183 5 -0.000000
184 5 0.000000
185 5 -0.000000
186 5 0.000000
187 5 0.000000
188 5 -0.000000
189 5 0.000000
190 5 -0.378145
191 5 -0.383904
192 5 2.224602
193 5 -0.000000
194 5 -0.000000
195 5 -0.000000
196 5 0.000000
197 5 -0.381171
198 5 -0.515872
199 5 0.000000
200 5 -0.000000
201 5 0.000000
202 5 3.409285
203 5 0.000000
204 5 -0.000000
205 5 0.000000
206 5 -0.509865
207 5 -0.000000
208 5 0.000000
209 5 -0.000000
210 5 -0.000000
211 5 0.000000
212 5 -0.000000
213 5 0.516117
214 5 -0.385597
215 5 -0.000000
216 5 -0.000000
217 5 -0.075459
218 5 0.000000
219 5 -0.000000
220 5 -0.000000
221 5 0.000000
222 5 -0.000000
223 5 -0.000000
224 5 4.110543
225 5 -0.000000
226 5 -0.692585
227 5 -0.000000
228 5 -0.000000
229 5 -0.000000
230 5 -0.000000
231 5 -0.000000
232 5 -1.822480
233 5 0.000000
234 5 0.000000
235 5 -0.436519
236 5 0.000000
237 5 0.000000
238 5 0.000000
239 5 0.000000
240 5 -0.400744
241 5 -0.000000
242 5 -1.433974
243 5 -0.000000
244 5 0.877867
245 5 0.119885
246 5 -0.123163
247 5 -0.000000
248 5 0.000000
249 5 -0.000000
250 5 -0.389174
251 5 -0.000000
252 5 0.000000
253 5 0.000000
254 5 -0.000000
255 5 -0.000000
256 5 0.000000
257 5 -0.000000
258 5 0.000000
259 5 -0.378066
260 5 0.000000
261 5 -0.000000
262 5 -0.000000
263 5 -0.000000
264 5 2.202583
265 5 0.000000
266 5 0.000000
267 5 -0.935186
268 5 -0.384437
269 5 -0.000000
270 5 0.000000
271 5 -0.000000
272 5 -0.000000
273 5 0.046344
274 5 -0.000000
275 5 -0.186351
276 5 0.000000
277 5 0.487854
278 5 -0.000000
279 5 -0.000000
280 5 -0.394918
281 5 -0.000000
282 5 -0.000000
283 5 -0.375397
284 5 -0.000000
285 5 0.000000
286 5 0.000000
287 5 -1.184654
288 5 0.000000
289 5 -0.223384
290 5 -0.000000
291 5 -0.378463
292 5 0.000000
293 5 0.175451
294 5 -0.386064
295 5 -0.000000
296 5 0.000000
297 5 0.000000
298 5 -0.000000
299 5 -0.000000
300 5 0.000000
301 5 0.000000
302 5 0.000000
303 5 0.000000
304 5 0.000000
305 5 -0.894326
306 5 0.000000
307 5 -0.000000
308 5 1.724595
309 5 1.706836
310 5 -0.000000
311 5 -0.000000
312 5 -0.000000
313 5 0.000000
314 5 -2.668022
315 5 0.000000
316 5 0.000000
317 5 -0.000000
318 5 -0.000000
319 5 -0.000000
320 5 -0.000000
321 5 -0.000000
322 5 2.435915
323 5 0.000000
324 5 -0.000000
325 5 3.572349
326 5 0.000000
327 5 -0.000000
328 5 -0.000000
329 5 -0.000000
330 5 -0.000000
331 5 -0.000000
332 5 0.000000
333 5 0.000000
334 5 -0.000000
335 5 -2.484900
336 5 0.000000
337 5 0.099208
338 5 0.000000
339 5 0.000000
340 5 0.000000
341 5 -0.000000
342 5 -0.000000
343 5 -0.000000
344 5 0.000000
345 5 0.000000
346 5 -0.000000
347 5 -0.000000
348 5 0.000000
349 5 -0.386001
350 5 -0.000000
351 5 0.000000
352 5 0.667017
353 5 0.000000
354 5 0.000000
355 5 -0.000000
356 5 -0.397002
357 5 -0.000000
358 5 -0.000000
359 5 0.000000
360 5 -3.100124
361 5 0.000000
362 5 -0.374727
363 5 0.000000
364 5 -1.260300
365 5 -0.000000
366 5 0.000000
367 5 -0.000000
368 5 -0.455756
369 5 -0.186900
370 5 1.138576
371 5 0.000000
372 5 -0.000000
373 5 -0.000000
374 5 -0.000000
375 5 -0.000000
376 5 -0.000000
377 5 -0.000000
378 5 0.000000
379 5 -0.000000
380 5 -0.000000
381 5 -0.000000
382 5 0.000000
383 5 -0.000000
384 5 -0.000000
385 5 3.831263
386 5 -0.000000
387 5 0.910644
388 5 0.442568
389 5 -1.046248
390 5 0.000000
391 5 -0.000000
392 5 0.000000
393 5 -0.571959
394 5 -0.382512
395 5 0.000000
396 5 -0.997226
397 5 5.132593
398 5 -0.272593
399 5 0.000000
400 5 -0.000000
401 5 2.342574
402 5 -0.000000
403 5 -0.000000
404 5 0.000000
405 5 -0.000000
406 5 -0.000000
407 5 -0.710476
408 5 -1.287957
409 5 -0.000000
410 5 0.000000
411 5 0.847387
412 5 1.752266
413 5 -0.000000
414 5 -0.454207
415 5 -0.000000
416 5 0.000000
417 5 -0.000000
418 5 -0.000000
419 5 3.777575
420 5 0.000000
421 5 -0.000000
422 5 -1.034866
423 5 0.000000
424 5 -0.000000
425 5 0.000000
426 5 -0.000000
427 5 -0.888557
428 5 0.000000
429 5 -0.000000
430 5 0.000000
431 5 -0.377543
432 5 -0.428203
433 5 -0.000000
434 5 -0.000000
435 5 0.000000
436 5 0.000000
437 5 0.000000
438 5 -0.000000
439 5 -0.000000
440 5 -0.000000
441 5 0.000000
442 5 -0.000000
443 5 0.083085
444 5 -0.000000
445 5 -2.258126
446 5 0.457227
447 5 -0.000000
448 5 -0.000000
449 5 -0.000000
450 5 -0.000000
451 5 0.000000
452 5 0.000000
453 5 -0.000000
454 5 0.000000
455 5 -0.497105
456 5 -0.000000
457 5 0.000000
458 5 1.901759
459 5 0.449866
460 5 0.000000
461 5 0.000000
462 5 -0.379082
463 5 -0.000000
464 5 -0.000000
465 5 -0.486385
466 5 0.000000
467 5 -0.000000
468 5 -0.292761
469 5 0.247359
470 5 0.000000
471 5 -1.555566
472 5 -0.545960
473 5 -0.369233
474 5 -0.000000
475 5 -1.755192
476 5 0.000000
477 5 0.000000
478 5 -0.478975
479 5 -0.202733
480 5 -1.101484
481 5 -0.000000
482 5 0.000000
483 5 -0.000000
484 5 0.000000
485 5 -0.000000
486 5 -0.000000
487 5 -0.970558
488 5 -2.391203
489 5 -0.000000
490 5 0.000000
491 5 -0.384077
492 5 -0.144570
493 5 -0.555392
494 5 -0.000000
495 5 -0.386189
496 5 0.000000
497 5 -0.000000
498 5 0.395700
499 5 -1.972679
500 5 -1.266419
501 5 0.000000
502 5 -0.000000
503 5 -0.382609
504 5 -0.000000
505 5 0.000000
506 5 -0.000000
507 5 -0.000000
508 5 -0.380294
509 5 -0.000000
510 5 -3.045629
511 5 -0.000000
512 5 -0.000000
513 5 -0.000000
514 5 -0.379120
515 5 -0.526926
516 5 -0.387819
517 5 0.000000
518 5 -0.000000
519 5 -0.000000
520 5 0.000000
521 5 -0.375819
522 5 0.000000
523 5 -0.000000
524 5 0.000000
525 5 -0.000000
526 5 -0.000000
527 5 -1.063613
528 5 0.000000
529 5 -1.314461
530 5 0.000000
531 5 -0.376542
532 5 0.000000
533 5 -0.000000
534 5 0.320725
535 5 0.031469
536 5 1.013524
537 5 -0.000000
538 5 -1.217636
539 5 0.000000
540 5 -0.000000
541 5 -0.421472
542 5 -0.000000
543 5 1.110050
544 5 -0.000000
545 5 0.770508
546 5 -0.407791
547 5 -0.000000
548 5 -0.669069
549 5 -0.000000
550 5 -0.000000
551 5 -0.000000
552 5 0.036515
553 5 0.473951
554 5 -0.000000
555 5 -1.220969
556 5 -0.000000
557 5 -2.472834
558 5 -3.698991
559 5 -1.288712
560 5 -0.843212
561 5 0.000000
562 5 -0.000000
563 5 -0.000000
564 5 0.000000
565 5 -0.000000
566 5 0.000000
567 5 2.173228
568 5 6.500564
569 5 -1.655520
570 5 -0.000000
571 5 -0.386124
572 5 -0.501872
573 5 -0.383928
574 5 0.000000
575 5 -0.000000
576 5 0.000000
577 5 -0.000000
578 5 -0.000000
579 5 -0.000000
580 5 1.787671
581 5 2.561788
582 5 -0.000000
583 5 0.726537
584 5 0.000000
585 5 0.000000
586 5 5.123208
587 5 0.000000
588 5 -0.000000
589 5 -0.545703
590 5 2.062093
591 5 -0.000000
592 5 -0.823061
593 5 -0.000000
594 5 -1.469527
595 5 3.063567
596 5 -0.446494
597 5 0.000000
598 5 0.000000
599 5 0.000000
600 5 0.000000
601 5 0.000000
602 5 -0.000000
603 5 -0.000000
604 5 -2.471873
605 5 -0.000000
606 5 0.000000
607 5 -0.453831
608 5 -0.000000
609 5 -0.433421
610 5 -0.000000
611 5 -0.342067
612 5 -0.000000
613 5 0.000000
614 5 -0.000000
615 5 -1.041916
616 5 2.791970
617 5 -0.000000
618 5 -0.000000
619 5 0.546411
620 5 -0.000000
621 5 0.000000
622 5 0.000000
623 5 -0.000000
624 5 -0.000000
625 5 -0.000000
626 5 0.000000
627 5 -0.562945
628 5 -0.000000
629 5 0.000000
630 5 -0.000000
631 5 0.000000
632 5 -0.000000
633 5 0.779187
634 5 -0.000000
635 5 -0.000000
636 5 0.000000
637 5 4.352109
638 5 5.447690
639 5 0.000000
640 5 2.282198
641 5 -0.000000
642 5 0.000000
643 5 -0.000000
644 5 -0.373254
645 5 -0.377736
646 5 1.806130
647 5 -0.388098
648 5 -0.000000
649 5 0.000000
650 5 -1.632221
651 5 -0.000000
652 5 -0.000000
653 5 1.053804
654 5 -0.000000
655 5 -0.232965
656 5 -0.000000
657 5 0.000000
658 5 0.000000
659 5 -0.000000
660 5 -0.000000
661 5 2.290587
662 5 -0.897511
663 5 0.020404
664 5 -0.000000
665 5 -0.000000
666 5 -0.000000
667 5 0.000000
668 5 -0.000000
669 5 -0.392965
670 5 -0.511998
671 5 -0.000000
672 5 -0.000000
673 5 -0.000000
674 5 -0.384548
675 5 -0.378771
676 5 -0.000000
677 5 -1.313517
678 5 0.000000
679 5 0.000000
680 5 -0.000000
681 5 -2.942924
682 5 -0.373476
683 5 -0.366832
684 5 -0.000000
685 5 0.000000
686 5 0.000000
687 5 0.000000
688 5 0.000000
689 5 -0.000000
690 5 -0.000000
691 5 0.976694
692 5 -0.000000
693 5 0.000000
694 5 -0.000000
695 5 -0.000000
696 5 0.000000
697 5 0.000000
698 5 -0.000000
699 5 -0.000000
700 5 0.000000
701 5 -1.207899
702 5 -1.270861
703 5 -0.000000
704 5 -0.390559
705 5 -1.443895
706 5 -0.000000
707 5 -0.000000
708 5 -0.726022
709 5 -0.000000
710 5 0.000000
711 5 -0.000000
712 5 -0.496611
713 5 -0.000000
714 5 -0.000000
715 5 -0.000000
716 5 -0.000000
717 5 -0.000000
718 5 -0.000000
719 5 3.095794
720 5 -0.000000
721 5 -0.453827
722 5 -0.382119
723 5 -0.000000
724 5 0.000000
725 5 -0.147070
726 5 -0.000000
727 5 0.000000
728 5 -0.000000
729 5 -1.131607
730 5 -0.409581
731 5 0.000000
732 5 -3.749171
733 5 -0.000000
734 5 -0.000000
735 5 0.000000
736 5 -0.000000
737 5 -0.000000
738 5 -0.531887
739 5 -0.000000
740 5 -0.000000
741 5 -0.000000
742 5 -0.000000
743 5 -0.578605
744 5 -0.499920
745 5 -0.000000
746 5 -0.000000
747 5 -0.782392
748 5 0.000000
749 5 0.000000
750 5 -0.586387
751 5 -0.000000
752 5 0.000000
753 5 -0.000000
754 5 -0.370566
755 5 0.000000
756 5 0.000000
757 5 0.000000
758 5 0.000000
759 5 0.000000
760 5 -0.000000
761 5 -0.000000
762 5 0.151060
763 5 -0.384063
764 5 -4.251395
765 5 0.000000
766 5 0.000000
767 5 -3.134429
768 5 -2.385369
769 5 0.000000
770 5 -0.386891
771 5 0.000000
772 5 0.866639
773 5 -0.000000
774 5 0.000000
775 5 0.000000
776 5 -0.000000
777 5 0.000000
778 5 3.019425
779 5 -0.369827
780 5 0.000000
781 5 -0.000000
782 5 -0.430220
783 5 -0.000000
784 5 -0.000000
785 5 0.000000
786 5 -0.000000
787 5 -0.000000
788 5 -0.433742
789 5 -0.404638
790 5 -0.000000
791 5 1.964980
792 5 -0.000000
793 5 -3.777675
794 5 -0.382908
795 5 -0.545111
796 5 -0.000000
797 5 -0.000000
798 5 -2.585507
799 5 -0.000000
0 6 -0.000000
1 6 -0.000000
2 6 -0.415673
3 6 -0.000000
4 6 -0.000000
5 6 -0.000000
6 6 0.747683
7 6 3.637205
8 6 0.000000
9 6 -0.000000
10 6 -0.000000
11 6 0.000000
12 6 -0.000000
13 6 0.000000
14 6 0.000000
15 6 -0.360703
16 6 -0.000000
17 6 -0.000000
18 6 -0.382405
19 6 0.000000
20 6 -0.000000
21 6 1.635142
22 6 -0.000000
23 6 -0.000000
24 6 -0.000000
25 6 0.000000
26 6 0.000000
27 6 -0.000000
28 6 0.000000
29 6 -0.409725
30 6 -0.000000
31 6 -0.000000
32 6 -0.000000
33 6 0.000000
34 6 -0.150774
35 6 -0.000000
36 6 -0.746065
37 6 0.000000
38 6 -0.000000
39 6 -0.000000
40 6 -0.000000
41 6 0.000000
42 6 0.000000
43 6 -0.000000
44 6 0.544891
45 6 0.056583
46 6 2.154682
47 6 -0.000000
48 6 0.862950
49 6 0.000000
50 6 0.000000
51 6 -0.361946
52 6 -0.000000
53 6 -0.000000
54 6 -0.408628
55 6 0.000000
56 6 0.000000
57 6 0.000000
58 6 -0.000000
59 6 0.000000
60 6 -0.000000
61 6 -0.000000
62 6 -0.000000
63 6 -0.000000
64 6 -0.355909
65 6 -0.000000
66 6 0.000000
67 6 -1.953034
68 6 -0.272397
69 6 -0.000000
70 6 -0.000000
71 6 0.539945
72 6 -0.000000
73 6 -0.000000
74 6 -0.000000
75 6 -0.000000
76 6 -0.509712
77 6 -0.000000
78 6 0.000000
79 6 0.000000
80 6 0.000000
81 6 -0.000000
82 6 0.000000
83 6 -0.000000
84 6 -0.000000
85 6 -0.000000
86 6 -0.000000
87 6 -0.371725
88 6 0.000000
89 6 2.646533
90 6 -0.000000
91 6 -0.000000
92 6 -0.000000
93 6 2.417587
94 6 -0.000000
95 6 -2.953670
96 6 0.472896
97 6 -0.000000
98 6 -0.000000
99 6 -0.356603
100 6 -0.000000
101 6 -0.000000
102 6 -0.000000
103 6 -0.000000
104 6 0.000000
105 6 0.000000
106 6 0.000000
107 6 -0.368533
108 6 -0.000000
109 6 -0.390528
110 6 0.000000
111 6 -0.000000
112 6 -0.000000
113 6 0.000000
114 6 0.000000
115 6 -0.000000
116 6 0.000000
117 6 -0.000000
118 6 -0.697928
119 6 -0.361393
120 6 0.000000
121 6 -0.429781
122 6 -0.000000
123 6 -0.351494
124 6 -0.000000
125 6 -0.000000
126 6 2.125749
127 6 -0.000000
128 6 -0.381425
129 6 0.000000
130 6 -0.000000
131 6 -0.000000
132 6 -0.789442
133 6 1.078377
134 6 0.000000
135 6 -0.000000
136 6 -1.699498
137 6 -0.417492
138 6 -0.978094
139 6 2.307568
140 6 0.000000
141 6 0.000000
142 6 -0.000000
143 6 -0.000000
144 6 0.273189
145 6 0.000000
146 6 -0.000000
147 6 -0.000000
148 6 -0.261817
149 6 0.000000
150 6 0.000000
151 6 -0.000000
152 6 -0.000000
153 6 0.000000
154 6 -0.000000
155 6 -0.000000
156 6 -0.421020
157 6 0.000000
158 6 0.000000
159 6 -0.376764
160 6 -0.000000
161 6 -0.000000
162 6 -0.000000
163 6 -0.400865
164 6 -0.000000
165 6 0.000000
166 6 -0.000000
167 6 -0.000000
168 6 -0.000000
169 6 -0.000000
170 6 0.000000
171 6 0.000000
172 6 2.285426
173 6 0.000000
174 6 -0.391205
175 6 -0.000000
176 6 -0.409452
177 6 0.000000
178 6 0.000000
179 6 0.000000
180 6 -0.000000
181 6 0.000000
182 6 0.000000
183 6 -0.000000
184 6 0.000000
185 6 -0.000000
186 6 -0.000000
187 6 -0.000000
188 6 -0.000000
189 6 0.000000
190 6 -0.369269
191 6 -0.353456
192 6 0.675999
193 6 -0.000000
194 6 0.000000
195 6 -0.000000
196 6 0.000000
197 6 -0.388510
198 6 -0.377163
199 6 0.000000
200 6 -0.000000
201 6 0.000000
202 6 -0.735369
203 6 -0.000000
204 6 -0.000000
205 6 -0.000000
206 6 -0.360675
207 6 -0.000000
208 6 0.000000
209 6 -0.000000
210 6 0.000000
211 6 0.000000
212 6 0.000000
213 6 -0.775785
214 6 -0.354775
215 6 0.000000
216 6 -0.000000
217 6 -2.102390
218 6 0.000000
219 6 -0.000000
220 6 -0.000000
221 6 0.000000
222 6 -0.000000
223 6 0.000000
224 6 -1.476208
225 6 0.000000
226 6 -0.327865
227 6 -0.000000
228 6 0.000000
229 6 -0.000000
230 6 -0.000000
231 6 -0.000000
232 6 1.801054
233 6 -0.000000
234 6 -0.000000
235 6 -2.368500
236 6 -0.000000
237 6 0.000000
238 6 0.000000
239 6 -0.000000
240 6 -0.387383
241 6 0.000000
242 6 -0.120056
243 6 -0.000000
244 6 -0.912043
245 6 -3.057006
246 6 0.126463
247 6 0.000000
248 6 0.000000
249 6 -0.000000
250 6 -0.353263
251 6 -0.000000
252 6 0.000000
253 6 0.000000
254 6 -0.000000
255 6 0.000000
256 6 -0.000000
257 6 -0.000000
258 6 0.000000
259 6 -0.398758
260 6 -0.000000
261 6 -0.000000
262 6 -0.000000
263 6 -0.000000
264 6 1.374394
265 6 0.000000
266 6 -0.000000
267 6 -0.650057
268 6 -0.357317
269 6 -0.000000
270 6 -0.000000
271 6 -0.000000
272 6 -0.000000
273 6 -1.790151
274 6 -0.000000
275 6 0.327160
276 6 0.000000
277 6 -0.115243
278 6 -0.000000
279 6 -0.000000
280 6 -0.380974
281 6 -0.000000
282 6 0.000000
283 6 -0.408115
284 6 0.000000
285 6 0.000000
286 6 -0.000000
287 6 -0.634937
288 6 -0.000000
289 6 2.972200
290 6 -0.000000
291 6 -0.384439
292 6 0.000000
293 6 0.720968
294 6 -0.380107
295 6 -0.000000
296 6 0.000000
297 6 0.000000
298 6 -0.000000
299 6 -0.000000
300 6 0.000000
301 6 0.000000
302 6 -0.000000
303 6 -0.000000
304 6 0.000000
305 6 -0.402903
306 6 -0.000000
307 6 0.000000
308 6 -0.723493
309 6 -1.256649
310 6 -0.000000
311 6 -0.000000
312 6 -0.000000
313 6 0.000000
314 6 -1.600849
315 6 -0.000000
316 6 -0.000000
317 6 0.000000
318 6 -0.000000
319 6 -0.000000
320 6 0.000000
321 6 -0.000000
322 6 1.794514
323 6 0.000000
324 6 -0.000000
325 6 -0.711044
326 6 0.000000
327 6 -0.000000
328 6 -0.000000
329 6 -0.000000
330 6 -0.000000
331 6 -0.000000
332 6 -0.000000
333 6 0.000000
334 6 -0.000000
335 6 0.592053
336 6 0.000000
337 6 -1.013255
338 6 -0.000000
339 6 -0.000000
340 6 -0.000000
341 6 -0.000000
342 6 -0.000000
343 6 -0.000000
344 6 0.000000
345 6 -0.000000
346 6 -0.000000
347 6 -0.000000
348 6 0.000000
349 6 -0.383172
350 6 0.000000
351 6 -0.000000
352 6 -1.771768
353 6 -0.000000
354 6 -0.000000
355 6 0.000000
356 6 -0.389575
357 6 -0.000000
358 6 -0.000000
359 6 0.000000
360 6 1.564454
361 6 -0.000000
362 6 -0.401215
363 6 0.000000
364 6 -0.505126
365 6 0.000000
366 6 -0.000000
367 6 -0.000000
368 6 -0.370729
369 6 -2.030047
370 6 -0.622053
371 6 -0.000000
372 6 0.000000
373 6 0.000000
374 6 0.000000
375 6 -0.000000
376 6 -0.000000
377 6 -0.000000
378 6 -0.000000
379 6 -0.000000
380 6 -0.000000
381 6 -0.000000
382 6 -0.000000
383 6 -0.000000
384 6 -0.000000
385 6 0.964094
386 6 -0.000000
387 6 -1.207492
388 6 -0.337201
389 6 -1.282967
390 6 -0.000000
391 6 0.000000
392 6 0.000000
393 6 -0.423071
394 6 -0.363874
395 6 0.000000
396 6 0.221918
397 6 -2.389401
398 6 -1.099693
399 6 0.000000
400 6 -0.000000
401 6 0.312566
402 6 -0.000000
403 6 -0.000000
404 6 0.000000
405 6 -0.000000
406 6 0.000000
407 6 -0.005395
408 6 -0.896903
409 6 -0.000000
410 6 0.000000
411 6 0.202291
412 6 -2.472142
413 6 0.000000
414 6 -0.377603
415 6 -0.000000
416 6 0.000000
417 6 -0.000000
418 6 0.000000
419 6 -3.116213
420 6 -0.000000
421 6 -0.000000
422 6 0.032735
423 6 -0.000000
424 6 -0.000000
425 6 0.000000
426 6 0.000000
427 6 -0.367614
428 6 -0.000000
429 6 -0.000000
430 6 -0.000000
431 6 -0.401495
432 6 -0.382050
433 6 -0.000000
434 6 -0.000000
435 6 0.000000
436 6 -0.000000
437 6 0.000000
438 6 -0.000000
439 6 -0.000000
440 6 0.000000
441 6 0.000000
442 6 -0.000000
443 6 0.036828
444 6 -0.000000
445 6 -1.669779
446 6 -2.199664
447 6 -0.000000
448 6 -0.000000
449 6 -0.000000
450 6 -0.000000
451 6 0.000000
452 6 0.000000
453 6 0.000000
454 6 -0.000000
455 6 -0.826110
456 6 -0.000000
457 6 -0.000000
458 6 -0.204228
459 6 -1.659139
460 6 0.000000
461 6 -0.000000
462 6 -0.367446
463 6 -0.000000
464 6 -0.000000
465 6 -0.512562
466 6 0.000000
467 6 -0.000000
468 6 -1.832438
469 6 -0.623755
470 6 -0.000000
471 6 0.022702
472 6 -0.439117
473 6 -0.373874
474 6 0.000000
475 6 0.152931
476 6 -0.000000
477 6 -0.000000
478 6 -0.376945
479 6 0.658716
480 6 -0.647169
481 6 -0.000000
482 6 -0.000000
483 6 0.000000
484 6 0.000000
485 6 0.000000
486 6 0.000000
487 6 -0.520506
488 6 3.219060
489 6 0.000000
490 6 0.000000
491 6 -0.361229
492 6 -0.334223
493 6 -0.351259
494 6 0.000000
495 6 -0.368325
496 6 -0.000000
497 6 -0.000000
498 6 -0.863233
499 6 -0.103061
500 6 0.352493
501 6 -0.000000
502 6 0.000000
503 6 -0.380882
504 6 -0.000000
505 6 -0.000000
506 6 0.000000
507 6 0.000000
508 6 -0.405054
509 6 0.000000
510 6 3.140159
511 6 0.000000
512 6 -0.000000
513 6 -0.000000
514 6 -0.397704
515 6 -0.393990
516 6 -0.350956
517 6 -0.000000
518 6 -0.000000
519 6 -0.000000
520 6 -0.000000
521 6 -0.401555
522 6 0.000000
523 6 0.000000
524 6 -0.000000
525 6 -0.000000
526 6 -0.000000
527 6 -0.145433
528 6 0.000000
529 6 -0.641196
530 6 0.000000
531 6 -0.389937
532 6 0.000000
533 6 -0.000000
534 6 -2.746396
535 6 -1.282639
536 6 2.213344
537 6 -0.000000
538 6 -0.249787
539 6 0.000000
540 6 -0.000000
541 6 -0.374535
542 6 0.000000
543 6 -1.578122
544 6 -0.000000
545 6 -0.660999
546 6 -0.410858
547 6 -0.000000
548 6 4.071697
549 6 -0.000000
550 6 0.000000
551 6 -0.000000
552 6 0.543900
553 6 -1.056128
554 6 -0.000000
555 6 -0.044361
556 6 -0.000000
557 6 3.501222
558 6 -3.944379
559 6 3.532969
560 6 -0.677061
561 6 0.000000
562 6 0.000000
563 6 0.000000
564 6 -0.000000
565 6 -0.000000
566 6 0.000000
567 6 1.028076
568 6 3.558585
569 6 0.503565
570 6 -0.000000
571 6 -0.377367
572 6 -0.377068
573 6 -0.362678
574 6 0.000000
575 6 -0.000000
576 6 0.000000
577 6 0.000000
578 6 -0.000000
579 6 -0.000000
580 6 0.396116
581 6 0.959096
582 6 0.000000
583 6 -0.634300
584 6 -0.000000
585 6 -0.000000
586 6 3.411712
587 6 0.000000
588 6 0.000000
589 6 -0.480269
590 6 -1.578145
591 6 -0.000000
592 6 -0.703140
593 6 -0.000000
594 6 0.619438
595 6 -1.104132
596 6 -0.369734
597 6 -0.000000
598 6 -0.000000
599 6 -0.000000
600 6 -0.000000
601 6 0.000000
602 6 -0.000000
603 6 0.000000
604 6 -0.267897
605 6 -0.000000
606 6 -0.000000
607 6 -0.376858
608 6 -0.000000
609 6 -0.374006
610 6 -0.000000
611 6 0.352841
612 6 -0.000000
613 6 -0.000000
614 6 -0.000000
615 6 -0.534820
616 6 -1.964916
617 6 -0.000000
618 6 -0.000000
619 6 2.671959
620 6 0.000000
621 6 -0.000000
622 6 0.000000
623 6 -0.000000
624 6 -0.000000
625 6 0.000000
626 6 0.000000
627 6 -0.410452
628 6 -0.000000
629 6 0.000000
630 6 -0.000000
631 6 -0.000000
632 6 -0.000000
633 6 -0.488020
634 6 0.000000
635 6 -0.000000
636 6 0.000000
637 6 2.004416
638 6 2.334764
639 6 -0.000000
640 6 2.350075
641 6 0.000000
642 6 -0.000000
643 6 0.000000
644 6 -0.367222
645 6 -0.400365
646 6 -2.675937
647 6 -0.394518
648 6 -0.000000
649 6 -0.000000
650 6 5.262729
651 6 -0.000000
652 6 0.000000
653 6 0.265861
654 6 -0.000000
655 6 -0.666276
656 6 0.000000
657 6 -0.000000
658 6 -0.000000
659 6 -0.000000
660 6 -0.000000
661 6 0.232010
662 6 0.037463
663 6 0.482787
664 6 -0.000000
665 6 -0.000000
666 6 -0.000000
667 6 0.000000
668 6 -0.000000
669 6 -0.361302
670 6 -0.385938
671 6 -0.000000
672 6 -0.000000
673 6 -0.000000
674 6 -0.351390
675 6 -0.366384
676 6 0.000000
677 6 -0.434230
678 6 0.000000
679 6 0.000000
680 6 -0.000000
681 6 1.997481
682 6 -0.384398
683 6 -0.376968
684 6 -0.000000
685 6 0.000000
686 6 0.000000
687 6 0.000000
688 6 0.000000
689 6 -0.000000
690 6 -0.000000
691 6 -1.997934
692 6 -0.000000
693 6 0.000000
694 6 -0.000000
695 6 -0.000000
696 6 0.000000
697 6 0.000000
698 6 -0.000000
699 6 -0.000000
700 6 -0.000000
701 6 -0.419420
702 6 -0.953722
703 6 -0.000000
704 6 -0.360487
705 6 -1.549659
706 6 -0.000000
707 6 0.000000
708 6 -0.521725
709 6 -0.000000
710 6 0.000000
711 6 -0.000000
712 6 -0.374711
713 6 -0.000000
714 6 -0.000000
715 6 -0.000000
716 6 0.000000
717 6 -0.000000
718 6 -0.000000
719 6 -2.781825
720 6 0.000000
721 6 -0.388163
722 6 -0.402090
723 6 0.000000
724 6 0.000000
725 6 -0.738369
726 6 -0.000000
727 6 -0.000000
728 6 -0.000000
729 6 -0.278245
730 6 -0.408992
731 6 0.000000
732 6 -1.391875
733 6 -0.000000
734 6 -0.000000
735 6 -0.000000
736 6 0.000000
737 6 -0.000000
738 6 -0.399672
739 6 -0.000000
740 6 -0.000000
741 6 -0.000000
742 6 0.000000
743 6 -0.380536
744 6 -0.700907
745 6 0.000000
746 6 -0.000000
747 6 -0.239723
748 6 0.000000
749 6 0.000000
750 6 -0.398744
751 6 -0.000000
752 6 -0.000000
753 6 -0.000000
754 6 -0.369370
755 6 -0.000000
756 6 0.000000
757 6 -0.000000
758 6 -0.000000
759 6 0.000000
760 6 0.000000
761 6 0.000000
762 6 -1.303919
763 6 -0.362729
764 6 2.184579
765 6 0.000000
766 6 0.000000
767 6 1.477096
768 6 -0.465406
769 6 0.000000
770 6 -0.358504
771 6 0.000000
772 6 -0.318042
773 6 -0.000000
774 6 -0.000000
775 6 0.000000
776 6 -0.000000
777 6 -0.000000
778 6 -3.425108
779 6 -0.377717
780 6 -0.000000
781 6 -0.000000
782 6 -0.399134
783 6 -0.000000
784 6 -0.000000
785 6 -0.000000
786 6 -0.000000
787 6 -0.000000
788 6 -0.664127
789 6 -0.406640
790 6 -0.000000
791 6 2.587164
792 6 -0.000000
793 6 0.053755
794 6 -0.374741
795 6 -0.375427
796 6 -0.000000
797 6 0.000000
798 6 3.605500
799 6 -0.000000
0 7 -0.000000
1 7 -0.000000
2 7 0.487739
3 7 -0.000000
4 7 -0.000000
5 7 -0.000000
6 7 -0.278471
7 7 -0.131245
8 7 0.000000
9 7 -0.000000
10 7 0.000000
11 7 -0.000000
12 7 0.000000
13 7 -0.000000
14 7 -0.000000
15 7 -0.525233
16 7 0.000000
17 7 -0.000000
18 7 -0.707316
19 7 0.000000
20 7 -0.000000
21 7 -1.361355
22 7 -0.000000
23 7 -0.000000
24 7 0.000000
25 7 0.000000
26 7 -0.000000
27 7 0.000000
28 7 0.000000
29 7 -0.745274
30 7 -0.000000
31 7 0.000000
32 7 0.000000
33 7 -0.000000
34 7 -0.456583
35 7 -0.000000
36 7 -2.274348
37 7 -0.000000
38 7 -0.000000
39 7 0.000000
40 7 0.000000
41 7 0.000000
42 7 -0.000000
43 7 -0.000000
44 7 0.989742
45 7 -0.464586
46 7 -0.729790
47 7 -0.000000
48 7 -3.027172
49 7 0.000000
50 7 -0.000000
51 7 -0.529324
52 7 0.000000
53 7 -0.000000
54 7 -0.561109
55 7 0.000000
56 7 0.000000
57 7 0.000000
58 7 -0.000000
59 7 0.000000
60 7 -0.000000
61 7 -0.000000
62 7 -0.000000
63 7 0.000000
64 7 -0.530650
65 7 -0.000000
66 7 -0.000000
67 7 -0.629596
68 7 6.593499
69 7 -0.000000
70 7 -0.000000
71 7 0.417104
72 7 -0.000000
73 7 -0.000000
74 7 0.000000
75 7 -0.000000
76 7 -0.584996
77 7 -0.000000
78 7 -0.000000
79 7 0.000000
80 7 -0.000000
81 7 0.000000
82 7 -0.000000
83 7 -0.000000
84 7 -0.000000
85 7 -0.000000
86 7 -0.000000
87 7 -0.518139
88 7 0.000000
89 7 -0.242067
90 7 -0.000000
91 7 -0.000000
92 7 0.000000
93 7 -1.209773
94 7 -0.000000
95 7 0.320764
96 7 -0.325554
97 7 -0.000000
98 7 -0.000000
99 7 -0.547794
100 7 -0.000000
101 7 -0.000000
102 7 0.000000
103 7 -0.000000
104 7 -0.000000
105 7 -0.000000
106 7 0.000000
107 7 -0.534944
108 7 -0.000000
109 7 -0.575595
110 7 -0.000000
111 7 -0.000000
112 7 -0.000000
113 7 -0.000000
114 7 0.000000
115 7 0.000000
116 7 0.000000
117 7 -0.000000
118 7 -0.512610
119 7 -0.544176
120 7 -0.000000
121 7 -0.080858
122 7 -0.000000
123 7 -0.533593
124 7 -0.000000
125 7 -0.000000
126 7 -0.106376
127 7 -0.000000
128 7 -0.544713
129 7 0.000000
130 7 0.000000
131 7 -0.000000
132 7 0.748169
133 7 -1.102639
134 7 -0.000000
135 7 -0.000000
136 7 1.697567
137 7 -0.864474
138 7 1.493100
139 7 -0.417226
140 7 0.000000
141 7 0.000000
142 7 -0.000000
143 7 -0.000000
144 7 -0.370155
145 7 0.000000
146 7 0.000000
147 7 0.000000
148 7 -1.097056
149 7 0.000000
150 7 -0.000000
151 7 -0.000000
152 7 -0.000000
153 7 -0.000000
154 7 -0.000000
155 7 -0.000000
156 7 -0.842398
157 7 0.000000
158 7 0.000000
159 7 -0.543942
160 7 -0.000000
161 7 -0.000000
162 7 -0.000000
163 7 -0.880030
164 7 -0.000000
165 7 0.000000
166 7 -0.000000
167 7 -0.000000
168 7 0.000000
169 7 0.000000
170 7 0.000000
171 7 0.000000
172 7 1.261013
173 7 0.000000
174 7 -0.565663
175 7 -0.000000
176 7 -0.572730
177 7 -0.000000
178 7 0.000000
179 7 0.000000
180 7 -0.000000
181 7 0.000000
182 7 0.000000
183 7 -0.000000
184 7 0.000000
185 7 -0.000000
186 7 -0.000000
187 7 0.000000
188 7 -0.000000
189 7 -0.000000
190 7 -0.532922
191 7 -0.533209
192 7 0.291991
193 7 0.000000
194 7 -0.000000
195 7 -0.000000
196 7 0.000000
197 7 -0.553477
198 7 -0.715421
199 7 -0.000000
200 7 -0.000000
201 7 0.000000
202 7 0.102550
203 7 0.000000
204 7 -0.000000
205 7 -0.000000
206 7 -0.700351
207 7 0.000000
208 7 0.000000
209 7 -0.000000
210 7 0.000000
211 7 0.000000
212 7 0.000000
213 7 0.238971
214 7 -0.532481
215 7 0.000000
216 7 -0.000000
217 7 2.714178
218 7 -0.000000
219 7 0.000000
220 7 -0.000000
221 7 0.000000
222 7 -0.000000
223 7 0.000000
224 7 0.421643
225 7 -0.000000
226 7 -0.921479
227 7 -0.000000
228 7 -0.000000
229 7 -0.000000
230 7 -0.000000
231 7 0.000000
232 7 1.342134
233 7 -0.000000
234 7 -0.000000
235 7 -0.544337
236 7 -0.000000
237 7 -0.000000
238 7 -0.000000
239 7 -0.000000
240 7 -0.562961
241 7 -0.000000
242 7 0.427600
243 7 0.000000
244 7 1.488521
245 7 0.496338
246 7 -0.271422
247 7 -0.000000
248 7 -0.000000
249 7 -0.000000
250 7 -0.523572
251 7 0.000000
252 7 -0.000000
253 7 -0.000000
254 7 -0.000000
255 7 -0.000000
256 7 -0.000000
257 7 -0.000000
258 7 0.000000
259 7 -0.566601
260 7 -0.000000
261 7 -0.000000
262 7 -0.000000
263 7 -0.000000
264 7 -0.214437
265 7 0.000000
266 7 -0.000000
267 7 -0.253392
268 7 -0.540766
269 7 -0.000000
270 7 0.000000
271 7 -0.000000
272 7 -0.000000
273 7 2.214099
274 7 -0.000000
275 7 -0.510726
276 7 -0.000000
277 7 0.675954
278 7 -0.000000
279 7 -0.000000
280 7 -0.556328
281 7 0.000000
282 7 0.000000
283 7 -0.581876
284 7 -0.000000
285 7 -0.000000
286 7 0.000000
287 7 3.193944
288 7 0.000000
289 7 -0.858402
290 7 -0.000000
291 7 -0.534542
292 7 -0.000000
293 7 -1.119092
294 7 -0.554414
295 7 -0.000000
296 7 0.000000
297 7 0.000000
298 7 -0.000000
299 7 -0.000000
300 7 -0.000000
301 7 0.000000
302 7 -0.000000
303 7 0.000000
304 7 -0.000000
305 7 -0.613136
306 7 0.000000
307 7 -0.000000
308 7 -1.105369
309 7 -0.874501
310 7 -0.000000
311 7 -0.000000
312 7 -0.000000
313 7 0.000000
314 7 0.605470
315 7 0.000000
316 7 -0.000000
317 7 0.000000
318 7 -0.000000
319 7 -0.000000
320 7 0.000000
321 7 -0.000000
322 7 2.482992
323 7 0.000000
324 7 -0.000000
325 7 -2.031119
326 7 0.000000
327 7 0.000000
328 7 -0.000000
329 7 -0.000000
330 7 0.000000
331 7 0.000000
332 7 0.000000
333 7 0.000000
334 7 -0.000000
335 7 2.218833
336 7 0.000000
337 7 -2.436116
338 7 -0.000000
339 7 0.000000
340 7 0.000000
341 7 -0.000000
342 7 -0.000000
343 7 -0.000000
344 7 -0.000000
345 7 -0.000000
346 7 0.000000
347 7 -0.000000
348 7 0.000000
349 7 -0.536362
350 7 -0.000000
351 7 0.000000
352 7 -1.813087
353 7 -0.000000
354 7 0.000000
355 7 0.000000
356 7 -0.564091
357 7 -0.000000
358 7 -0.000000
359 7 0.000000
360 7 1.004340
361 7 -0.000000
362 7 -0.582328
363 7 -0.000000
364 7 0.282124
365 7 -0.000000
366 7 0.000000
367 7 0.000000
368 7 -0.624103
369 7 0.311524
370 7 -1.025412
371 7 0.000000
372 7 -0.000000
373 7 -0.000000
374 7 -0.000000
375 7 -0.000000
376 7 -0.000000
377 7 -0.000000
378 7 -0.000000
379 7 -0.000000
380 7 -0.000000
381 7 -0.000000
382 7 -0.000000
383 7 -0.000000
384 7 -0.000000
385 7 1.531050
386 7 -0.000000
387 7 2.448297
388 7 -0.385311
389 7 3.249676
390 7 0.000000
391 7 -0.000000
392 7 0.000000
393 7 -0.597241
394 7 -0.526824
395 7 -0.000000
396 7 -0.346729
397 7 -1.727088
398 7 1.667323
399 7 -0.000000
400 7 -0.000000
401 7 1.008634
402 7 0.000000
403 7 0.000000
404 7 -0.000000
405 7 -0.000000
406 7 0.000000
407 7 -0.597503
408 7 1.665997
409 7 -0.000000
410 7 0.000000
411 7 1.607728
412 7 -2.679142
413 7 -0.000000
414 7 -0.595649
415 7 -0.000000
416 7 0.000000
417 7 0.000000
418 7 0.000000
419 7 3.714761
420 7 0.000000
421 7 -0.000000
422 7 0.173618
423 7 -0.000000
424 7 -0.000000
425 7 0.000000
426 7 0.000000
427 7 -0.575474
428 7 -0.000000
429 7 -0.000000
430 7 0.000000
431 7 -0.555284
432 7 -0.588646
433 7 -0.000000
434 7 -0.000000
435 7 0.000000
436 7 -0.000000
437 7 0.000000
438 7 -0.000000
439 7 -0.000000
440 7 0.000000
441 7 0.000000
442 7 -0.000000
443 7 1.306308
444 7 -0.000000
445 7 -1.684785
446 7 -0.231670
447 7 0.000000
448 7 -0.000000
449 7 -0.000000
450 7 0.000000
451 7 -0.000000
452 7 -0.000000
453 7 0.000000
454 7 -0.000000
455 7 -0.803864
456 7 -0.000000
457 7 -0.000000
458 7 -1.382483
459 7 4.266896
460 7 0.000000
461 7 -0.000000
462 7 -0.534901
463 7 -0.000000
464 7 -0.000000
465 7 -0.595082
466 7 -0.000000
467 7 -0.000000
468 7 -0.195903
469 7 -0.433909
470 7 0.000000
471 7 1.133467
472 7 -0.581280
473 7 -0.542377
474 7 -0.000000
475 7 -0.764817
476 7 0.000000
477 7 0.000000
478 7 -0.656465
479 7 -1.503558
480 7 3.022259
481 7 -0.000000
482 7 -0.000000
483 7 0.000000
484 7 0.000000
485 7 0.000000
486 7 -0.000000
487 7 -0.214166
488 7 2.000738
489 7 -0.000000
490 7 0.000000
491 7 -0.543557
492 7 -0.794123
493 7 -0.717383
494 7 0.000000
495 7 -0.548357
496 7 -0.000000
497 7 -0.000000
498 7 0.460134
499 7 -1.508146
500 7 -1.576787
501 7 0.000000
502 7 0.000000
503 7 -0.544776
504 7 -0.000000
505 7 -0.000000
506 7 -0.000000
507 7 -0.000000
508 7 -0.562052
509 7 0.000000
510 7 0.298228
511 7 -0.000000
512 7 -0.000000
513 7 -0.000000
514 7 -0.569677
515 7 -0.656636
516 7 -0.527767
517 7 0.000000
518 7 -0.000000
519 7 -0.000000
520 7 -0.000000
521 7 -0.555387
522 7 -0.000000
523 7 -0.000000
524 7 -0.000000
525 7 -0.000000
526 7 -0.000000
527 7 -0.510428
528 7 0.000000
529 7 3.694086
530 7 -0.000000
531 7 -0.565224
532 7 -0.000000
533 7 -0.000000
534 7 3.480315
535 7 0.047721
536 7 0.386977
537 7 -0.000000
538 7 -0.956322
539 7 0.000000
540 7 -0.000000
541 7 -0.587153
542 7 0.000000
543 7 0.842372
544 7 -0.000000
545 7 -0.042385
546 7 -0.558323
547 7 -0.000000
548 7 0.910872
549 7 -0.000000
550 7 0.000000
551 7 0.000000
552 7 -1.552903
553 7 2.822188
554 7 -0.000000
555 7 -1.254392
556 7 -0.000000
557 7 -1.693072
558 7 -0.080423
559 7 0.097265
560 7 2.749495
561 7 0.000000
562 7 -0.000000
563 7 0.000000
564 7 -0.000000
565 7 -0.000000
566 7 0.000000
567 7 -0.912165
568 7 0.228168
569 7 -0.705304
570 7 -0.000000
571 7 -0.543318
572 7 -0.694630
573 7 -0.525757
574 7 0.000000
575 7 -0.000000
576 7 -0.000000
577 7 0.000000
578 7 -0.000000
579 7 -0.000000
580 7 1.003215
581 7 -1.805645
582 7 -0.000000
583 7 -0.742560
584 7 -0.000000
585 7 -0.000000
586 7 1.529443
587 7 0.000000
588 7 0.000000
589 7 -0.768447
590 7 -1.634429
591 7 -0.000000
592 7 0.986823
593 7 0.000000
594 7 0.103091
595 7 -2.682225
596 7 -0.608446
597 7 0.000000
598 7 -0.000000
599 7 0.000000
600 7 0.000000
601 7 -0.000000
602 7 -0.000000
603 7 -0.000000
604 7 1.362992
605 7 -0.000000
606 7 0.000000
607 7 -0.626382
608 7 -0.000000
609 7 -0.600171
610 7 0.000000
611 7 -0.224709
612 7 -0.000000
613 7 0.000000
614 7 -0.000000
615 7 6.506500
616 7 -0.312559
617 7 0.000000
618 7 0.000000
619 7 1.006593
620 7 -0.000000
621 7 0.000000
622 7 0.000000
623 7 -0.000000
624 7 -0.000000
625 7 0.000000
626 7 -0.000000
627 7 -0.660354
628 7 -0.000000
629 7 0.000000
630 7 -0.000000
631 7 -0.000000
632 7 -0.000000
633 7 0.961606
634 7 0.000000
635 7 -0.000000
636 7 -0.000000
637 7 1.306043
638 7 1.186918
639 7 0.000000
640 7 2.812655
641 7 -0.000000
642 7 0.000000
643 7 0.000000
644 7 -0.534748
645 7 -0.565567
646 7 0.139375
647 7 -0.550798
648 7 0.000000
649 7 -0.000000
650 7 2.380909
651 7 -0.000000
652 7 0.000000
653 7 0.576111
654 7 -0.000000
655 7 0.684460
656 7 -0.000000
657 7 -0.000000
658 7 -0.000000
659 7 -0.000000
660 7 0.000000
661 7 -1.634175
662 7 -1.501818
663 7 -1.060300
664 7 0.000000
665 7 0.000000
666 7 -0.000000
667 7 0.000000
668 7 -0.000000
669 7 -0.537957
670 7 -0.696880
671 7 -0.000000
672 7 -0.000000
673 7 0.000000
674 7 -0.537078
675 7 -0.539787
676 7 0.000000
677 7 -0.124925
678 7 0.000000
679 7 0.000000
680 7 0.000000
681 7 3.030419
682 7 -0.550628
683 7 -0.536473
684 7 0.000000
685 7 -0.000000
686 7 0.000000
687 7 0.000000
688 7 0.000000
689 7 0.000000
690 7 -0.000000
691 7 -0.922114
692 7 -0.000000
693 7 -0.000000
694 7 -0.000000
695 7 0.000000
696 7 0.000000
697 7 0.000000
698 7 -0.000000
699 7 -0.000000
700 7 0.000000
701 7 -0.121997
702 7 1.362327
703 7 -0.000000
704 7 -0.538877
705 7 1.323550
706 7 -0.000000
707 7 -0.000000
708 7 0.318782
709 7 0.000000
710 7 -0.000000
711 7 -0.000000
712 7 -0.663559
713 7 -0.000000
714 7 -0.000000
715 7 -0.000000
716 7 0.000000
717 7 -0.000000
718 7 -0.000000
719 7 -3.698240
720 7 0.000000
721 7 -0.688181
722 7 -0.567822
723 7 0.000000
724 7 0.000000
725 7 1.344179
726 7 -0.000000
727 7 -0.000000
728 7 -0.000000
729 7 -0.538137
730 7 -0.568221
731 7 0.000000
732 7 0.592818
733 7 -0.000000
734 7 0.000000
735 7 -0.000000
736 7 -0.000000
737 7 -0.000000
738 7 -0.589778
739 7 0.000000
740 7 -0.000000
741 7 -0.000000
742 7 0.000000
743 7 -0.925642
744 7 -0.712817
745 7 -0.000000
746 7 -0.000000
747 7 -0.755181
748 7 0.000000
749 7 -0.000000
750 7 -0.873410
751 7 -0.000000
752 7 0.000000
753 7 -0.000000
754 7 -0.534831
755 7 -0.000000
756 7 0.000000
757 7 0.000000
758 7 -0.000000
759 7 -0.000000
760 7 0.000000
761 7 0.000000
762 7 1.650722
763 7 -0.526093
764 7 -2.350291
765 7 0.000000
766 7 0.000000
767 7 0.644698
768 7 0.040604
769 7 -0.000000
770 7 -0.531035
771 7 0.000000
772 7 -0.969394
773 7 -0.000000
774 7 -0.000000
775 7 -0.000000
776 7 -0.000000
777 7 0.000000
778 7 -2.200559
779 7 -0.551826
780 7 0.000000
781 7 0.000000
782 7 -0.578236
783 7 -0.000000
784 7 -0.000000
785 7 0.000000
786 7 -0.000000
787 7 0.000000
788 7 -0.855285
789 7 -0.570150
790 7 0.000000
791 7 0.918068
792 7 -0.000000
793 7 1.875330
794 7 -0.557652
795 7 -0.676153
796 7 -0.000000
797 7 -0.000000
798 7 0.833948
799 7 -0.000000
0 8 -0.000000
1 8 -0.000000
2 8 1.336682
3 8 0.000000
4 8 -0.000000
5 8 -0.000000
6 8 0.757892
7 8 0.077351
8 8 -0.000000
9 8 -0.000000
10 8 0.000000
11 8 0.000000
12 8 -0.000000
13 8 -0.000000
14 8 -0.000000
15 8 -0.025610
16 8 -0.000000
17 8 -0.000000
18 8 0.211984
19 8 -0.000000
20 8 -0.000000
21 8 -1.572524
22 8 -0.000000
23 8 -0.000000
24 8 0.000000
25 8 -0.000000
26 8 -0.000000
27 8 0.000000
28 8 0.000000
29 8 0.274631
30 8 -0.000000
31 8 0.000000
32 8 -0.000000
33 8 -0.000000
34 8 0.169015
35 8 -0.000000
36 8 -2.021794
37 8 0.000000
38 8 0.000000
39 8 0.000000
40 8 -0.000000
41 8 0.000000
42 8 0.000000
43 8 0.000000
