0 0 -0.414747
1 0 -0.299064
2 0 -0.261554
3 0 0.306991
4 0 0.127123
5 0 -0.336657
6 0 0.067551
7 0 -0.380711
8 0 0.000000
9 0 0.081357
10 0 0.073265
11 0 -0.459939
12 0 -0.341903
13 0 -0.475058
14 0 -0.614354
15 0 -1.196172
16 0 0.531190
17 0 0.000000
18 0 0.300222
19 0 0.000000
20 0 0.000000
21 0 -0.000000
22 0 -0.125533
23 0 -0.119493
24 0 0.002705
25 0 0.000000
26 0 0.000000
27 0 -0.130660
28 0 -0.205053
29 0 0.619615
30 0 -0.497697
31 0 0.993967
32 0 -0.069670
33 0 0.189956
34 0 -0.000000
35 0 0.471057
36 0 0.073041
37 0 0.597059
38 0 -0.000000
39 0 -0.000000
40 0 -0.288253
41 0 0.373083
42 0 0.259563
43 0 -0.239990
44 0 0.103453
45 0 -0.698773
46 0 -0.000000
47 0 -0.295135
48 0 -0.283713
49 0 -0.718280
50 0 -0.662859
51 0 0.000000
52 0 -0.682106
53 0 -0.098181
54 0 -0.881219
55 0 0.000000
56 0 -0.151161
57 0 0.626778
58 0 -0.034536
59 0 0.000000
60 0 0.335954
61 0 0.270797
62 0 0.534124
63 0 -0.000000
64 0 0.263803
65 0 0.071178
66 0 -0.599645
67 0 -0.490354
68 0 -0.304992
69 0 0.286614
70 0 -0.309819
71 0 0.468452
72 0 -0.530985
73 0 0.298106
74 0 -0.000000
75 0 0.287770
76 0 0.389041
77 0 -0.510240
78 0 -0.586050
79 0 0.508839
80 0 -0.117083
81 0 -0.000000
82 0 0.000000
83 0 -0.788126
84 0 -0.000000
85 0 0.309176
86 0 -0.255262
87 0 0.742026
88 0 0.000000
89 0 -0.214260
90 0 -0.221071
91 0 -0.393014
92 0 -0.000000
93 0 -0.189625
94 0 -0.021476
95 0 -0.019085
96 0 -0.835068
97 0 -0.635140
98 0 -0.000000
99 0 -0.306685
100 0 0.062777
101 0 -0.305290
102 0 -0.418692
103 0 0.164609
104 0 -0.388773
105 0 0.732956
106 0 -0.073739
107 0 -0.157172
108 0 0.832066
109 0 -0.085617
110 0 -0.301750
111 0 -0.145917
112 0 -0.739767
113 0 -0.149168
114 0 -0.702698
115 0 -0.039514
116 0 0.016216
117 0 -0.593552
118 0 0.530667
119 0 0.000000
120 0 -0.000000
121 0 0.137073
122 0 0.596563
123 0 -0.424772
124 0 -0.211062
125 0 0.000660
126 0 -0.357700
127 0 -0.323247
128 0 -0.130127
129 0 0.003579
130 0 -0.269973
131 0 -0.497497
132 0 0.336567
133 0 0.500533
134 0 -0.000000
135 0 0.378134
136 0 -0.314159
137 0 -0.333948
138 0 -0.037322
139 0 -0.137226
140 0 0.074891
141 0 -0.324069
142 0 -0.156049
143 0 -0.040534
144 0 -0.138399
145 0 0.037857
146 0 -0.523822
147 0 -0.000000
148 0 0.100358
149 0 -0.093053
150 0 -0.052989
151 0 0.019501
152 0 -0.077444
153 0 -0.000000
154 0 0.587749
155 0 0.565298
156 0 -0.000000
157 0 -0.505456
158 0 -0.344625
159 0 -0.052025
160 0 0.218307
161 0 0.183733
162 0 -0.687845
163 0 -0.629612
164 0 0.006252
165 0 0.564882
166 0 0.106706
167 0 -0.234866
168 0 -0.354954
169 0 -0.697453
170 0 -0.283494
171 0 1.166146
172 0 -0.081034
173 0 0.224198
174 0 -0.234774
175 0 -0.150031
176 0 0.225364
177 0 0.196503
178 0 0.276079
179 0 -0.465449
180 0 -0.000000
181 0 0.335625
182 0 -0.412218
183 0 -0.107608
184 0 -0.000000
185 0 -0.170578
186 0 -1.069525
187 0 -0.447637
188 0 -0.000000
189 0 -0.284877
190 0 0.182683
191 0 -0.327568
192 0 0.281215
193 0 -0.033946
194 0 0.046658
195 0 -0.408232
196 0 0.555790
197 0 -0.000000
198 0 -0.154416
199 0 0.263106
200 0 -0.174417
201 0 -0.106410
202 0 0.000000
203 0 -0.524871
204 0 -0.140182
205 0 -0.749703
206 0 0.217137
207 0 0.227452
208 0 -0.662507
209 0 -0.195112
210 0 0.395625
211 0 -0.136417
212 0 0.115115
213 0 -0.261203
214 0 -0.370812
215 0 -0.000000
216 0 0.226618
217 0 0.000000
218 0 -0.908750
219 0 -0.271026
220 0 0.244858
221 0 0.172565
222 0 -0.551359
223 0 -0.000000
224 0 -0.739789
225 0 -0.552214
226 0 -0.398552
227 0 0.028403
228 0 -0.000000
229 0 -0.221376
230 0 -0.788987
231 0 0.017889
232 0 -0.226755
233 0 -0.159737
234 0 -0.264228
235 0 -0.268802
236 0 -0.941244
237 0 -0.065124
238 0 -0.120736
239 0 -0.188719
240 0 -0.309284
241 0 -0.112709
242 0 0.281247
243 0 0.000000
244 0 -0.090315
245 0 0.561171
246 0 -0.391636
247 0 -0.515890
248 0 -0.204776
249 0 -0.082429
250 0 0.112839
251 0 -0.085961
252 0 -0.000000
253 0 0.709393
254 0 0.184093
255 0 -0.261262
256 0 -0.000000
257 0 -0.123447
258 0 -0.000000
259 0 -0.041540
260 0 -1.240731
261 0 -0.000000
262 0 0.681704
263 0 -0.298291
264 0 -0.014366
265 0 -0.403672
266 0 0.000000
267 0 -0.287735
268 0 0.002258
269 0 -0.254206
270 0 -0.450411
271 0 0.000000
272 0 -0.775936
273 0 -0.373155
274 0 -0.191353
275 0 -0.000000
276 0 -0.311630
277 0 0.000000
278 0 -0.282172
279 0 -0.801144
280 0 -0.006239
281 0 -0.522374
282 0 0.000000
283 0 0.756335
284 0 -0.069400
285 0 -0.089872
286 0 -0.000000
287 0 -0.090129
288 0 -0.678167
289 0 0.064606
290 0 -0.542170
291 0 -0.134605
292 0 -0.796029
293 0 -0.283946
294 0 -0.406833
295 0 -0.461995
296 0 -0.040484
297 0 -0.000000
298 0 -0.909302
299 0 -0.366809
300 0 -0.400991
301 0 0.145690
302 0 -0.198150
303 0 -0.180115
304 0 0.653942
305 0 0.232852
306 0 0.158941
307 0 0.885517
308 0 -0.376489
309 0 -0.440848
310 0 -0.508855
311 0 -0.242789
312 0 -0.487916
313 0 0.263679
314 0 0.000000
315 0 -0.748945
316 0 0.013501
317 0 0.195192
318 0 -0.623441
319 0 -0.369165
320 0 -0.290660
321 0 -0.305093
322 0 -0.051397
323 0 -0.000000
324 0 -0.109194
325 0 -0.050261
326 0 -0.083379
327 0 -0.506680
328 0 -0.348507
329 0 -0.292917
330 0 -0.000000
331 0 -0.152919
332 0 0.043296
333 0 -0.769737
334 0 -0.458453
335 0 -0.275176
336 0 -0.142946
337 0 -0.076401
338 0 -0.271747
339 0 0.066891
340 0 -0.244858
341 0 0.374588
342 0 0.000000
343 0 -0.000000
344 0 -1.032252
345 0 -0.000000
346 0 -0.106214
347 0 0.219177
348 0 0.188929
349 0 -0.245690
350 0 0.281484
351 0 -0.725249
352 0 -0.293829
353 0 -0.451812
354 0 -0.331201
355 0 -0.340042
356 0 -0.868139
357 0 -0.728214
358 0 -0.000000
359 0 -0.611310
360 0 -0.283257
361 0 -0.067607
362 0 -0.025664
363 0 -0.123579
364 0 -0.443778
365 0 -0.000000
366 0 -0.000000
367 0 -0.000000
368 0 -0.965911
369 0 -0.000000
370 0 -0.000000
371 0 -0.450808
372 0 0.300148
373 0 0.000000
374 0 0.011166
375 0 0.281797
376 0 -0.389053
377 0 -0.171027
378 0 0.270230
379 0 -0.164907
380 0 -0.714695
381 0 0.566018
382 0 -0.277285
383 0 -0.321124
384 0 -0.546186
385 0 0.497764
386 0 -0.819958
387 0 -0.167928
388 0 0.421718
389 0 -0.128705
390 0 -0.591212
391 0 0.296520
392 0 -0.000000
393 0 -0.198413
394 0 -0.088801
395 0 -0.404257
396 0 0.424346
397 0 0.048750
398 0 -0.000000
399 0 0.058706
400 0 -0.639362
401 0 0.000000
402 0 -0.259854
403 0 0.589808
404 0 -0.702224
405 0 0.899197
406 0 0.015015
407 0 -0.620867
408 0 -0.333375
409 0 0.032652
410 0 -0.563997
411 0 0.402833
412 0 0.000000
413 0 0.606366
414 0 0.519510
415 0 0.000000
416 0 0.068808
417 0 -0.000000
418 0 0.560173
419 0 0.993223
420 0 0.149123
421 0 0.181485
422 0 -0.197055
423 0 -0.000000
424 0 0.389758
425 0 0.152510
426 0 -0.261321
427 0 -0.843202
428 0 0.349556
429 0 0.000000
430 0 -0.023036
431 0 0.873033
432 0 -0.326680
433 0 -0.039459
434 0 0.398406
435 0 -0.000000
436 0 0.220095
437 0 -0.580355
438 0 0.000000
439 0 0.540964
440 0 -0.351730
441 0 -0.257564
442 0 -0.000000
443 0 -0.377022
444 0 -0.167290
445 0 -0.568230
446 0 -0.036935
447 0 0.478071
448 0 -0.400689
449 0 0.130829
450 0 -0.479372
451 0 -0.338194
452 0 0.050016
453 0 -0.443103
454 0 -0.245580
455 0 -0.000000
456 0 -0.066918
457 0 -0.445010
458 0 -0.000000
459 0 0.007136
460 0 -0.152169
461 0 0.000000
462 0 -0.046870
463 0 -0.450514
464 0 0.000000
465 0 -1.103378
466 0 -0.820127
467 0 -0.564303
468 0 -0.027009
469 0 -0.600972
470 0 -0.000000
471 0 0.097786
472 0 0.346176
473 0 -0.493434
474 0 0.433001
475 0 -0.275191
476 0 -0.308964
477 0 -0.801216
478 0 -0.299686
479 0 0.260940
480 0 0.264831
481 0 -0.142517
482 0 -0.196180
483 0 0.026065
484 0 -0.208510
485 0 -0.028634
486 0 0.475432
487 0 -0.153392
488 0 -0.084865
489 0 0.000000
490 0 0.000000
491 0 -0.088524
492 0 -0.649372
493 0 -0.263119
494 0 -0.731563
495 0 -0.327414
496 0 -0.594734
497 0 -0.049753
498 0 0.190160
499 0 0.407252
500 0 -0.341189
501 0 0.542362
502 0 0.763873
503 0 -0.156909
504 0 -0.213132
505 0 0.139002
506 0 -0.000000
507 0 -0.073829
508 0 -0.785266
509 0 0.000000
510 0 0.070518
511 0 -0.030987
512 0 -0.184178
513 0 0.338196
514 0 0.334459
515 0 -0.242184
516 0 -0.555709
517 0 0.099880
518 0 -0.201344
519 0 -0.690788
520 0 0.055214
521 0 -0.164929
522 0 -0.000000
523 0 -0.597116
524 0 -0.179796
525 0 -0.972205
526 0 -0.185151
527 0 0.000000
528 0 -0.805710
529 0 -0.123971
530 0 -0.448983
531 0 -0.699641
532 0 0.240797
533 0 -0.593705
534 0 -0.114899
535 0 -0.515119
536 0 0.132878
537 0 -0.384331
538 0 0.000000
539 0 -0.161813
540 0 -0.190365
541 0 -0.168097
542 0 -0.056941
543 0 0.146382
544 0 0.102371
545 0 -0.694004
546 0 -0.226019
547 0 -0.209736
548 0 0.319458
549 0 -0.455574
550 0 -0.069952
551 0 -0.183054
552 0 0.231010
553 0 0.142274
554 0 -0.218414
555 0 0.327533
556 0 -1.107253
557 0 -0.000000
558 0 -0.449132
559 0 -0.154944
560 0 0.006464
561 0 -0.013704
562 0 -0.052420
563 0 0.689166
564 0 0.171090
565 0 -0.086580
566 0 0.000000
567 0 0.027178
568 0 0.166129
569 0 -0.131992
570 0 0.695473
571 0 0.389858
572 0 0.000000
573 0 -0.211194
574 0 -0.564343
575 0 -0.312073
576 0 -0.028371
577 0 -0.490817
578 0 -0.019479
579 0 0.660400
580 0 -0.345463
581 0 -0.336438
582 0 -0.000000
583 0 0.059476
584 0 -0.433002
585 0 0.000000
586 0 0.188514
587 0 -0.149795
588 0 -0.300194
589 0 1.029984
590 0 0.034708
591 0 -0.000402
592 0 -0.297194
593 0 0.706341
594 0 -0.219194
595 0 0.000000
596 0 0.321841
597 0 0.156714
598 0 0.001009
599 0 -0.441163
600 0 -0.337258
601 0 -0.808481
602 0 -0.343322
603 0 -0.239349
604 0 -0.000000
605 0 -0.497695
606 0 -0.488469
607 0 -0.073508
608 0 -0.155965
609 0 0.000000
610 0 -0.224130
611 0 -0.519264
612 0 0.110748
613 0 -0.287113
614 0 -0.257753
615 0 -0.284978
616 0 -0.301701
617 0 -0.154266
618 0 -0.176634
619 0 0.000000
620 0 -0.215672
621 0 0.265960
622 0 0.000000
623 0 -0.155285
624 0 0.195205
625 0 -0.711328
626 0 0.014061
627 0 -0.000000
628 0 0.020102
629 0 -0.923312
630 0 0.226116
631 0 -0.258969
632 0 -0.098096
633 0 -0.273435
634 0 0.208361
635 0 -0.260812
636 0 0.615205
637 0 0.176061
638 0 -0.010121
639 0 -0.541512
640 0 -0.099316
641 0 -0.200294
642 0 0.212825
643 0 -0.628740
644 0 0.777427
645 0 0.026995
646 0 0.121789
647 0 -0.150177
648 0 -0.337057
649 0 -0.719790
650 0 -0.300851
651 0 0.068748
652 0 -0.201478
653 0 -0.123323
654 0 -0.122857
655 0 -0.406511
656 0 0.201566
657 0 0.488212
658 0 0.058516
659 0 0.051455
660 0 0.078673
661 0 0.421342
662 0 -0.233527
663 0 0.296352
664 0 -0.152250
665 0 -0.350408
666 0 0.369111
667 0 -0.513033
668 0 0.428180
669 0 -0.368196
670 0 -0.400928
671 0 -0.904287
672 0 0.355845
673 0 -0.561355
674 0 -0.000000
675 0 -0.000000
676 0 -0.460455
677 0 -0.077911
678 0 0.497478
679 0 -0.059104
680 0 -0.759172
681 0 -0.000000
682 0 0.033151
683 0 -0.325242
684 0 -0.127300
685 0 -0.014723
686 0 -0.844650
687 0 0.157115
688 0 0.337137
689 0 0.198905
690 0 -0.667569
691 0 -0.000000
692 0 0.202635
693 0 -0.092452
694 0 0.000000
695 0 -0.378572
696 0 0.504214
697 0 0.173974
698 0 0.015549
699 0 0.039831
700 0 -0.256063
701 0 -0.424802
702 0 -0.166360
703 0 -0.278164
704 0 0.011420
705 0 -0.561684
706 0 -0.045164
707 0 0.049438
708 0 0.356996
709 0 0.478782
710 0 -0.000000
711 0 0.089651
712 0 -0.122225
713 0 0.148232
714 0 -0.397794
715 0 0.476863
716 0 -0.122464
717 0 0.362811
718 0 0.000000
719 0 -0.000000
720 0 -0.373061
721 0 0.240381
722 0 -0.312012
723 0 0.291071
724 0 -0.313888
725 0 -0.107319
726 0 0.000000
727 0 -0.242153
728 0 -0.191377
729 0 -0.500130
730 0 -0.723439
731 0 0.589623
732 0 -0.000000
733 0 0.299688
734 0 -0.664496
735 0 -0.000000
736 0 0.677141
737 0 -0.213254
738 0 -0.162096
739 0 -0.724809
740 0 0.295735
741 0 0.067931
742 0 -0.133366
743 0 -0.000000
744 0 -0.278207
745 0 -0.326600
746 0 -0.168292
747 0 -0.242557
748 0 0.000000
749 0 -0.502816
750 0 0.374155
751 0 -0.373501
752 0 0.155088
753 0 -0.084806
754 0 -0.033146
755 0 -0.188928
756 0 0.000000
757 0 0.000000
758 0 0.573176
759 0 -0.415863
760 0 0.401874
761 0 -0.367017
762 0 -0.760706
763 0 -0.063898
764 0 0.000000
765 0 0.291977
766 0 -0.293794
767 0 -0.557756
768 0 -0.116008
769 0 0.707037
770 0 -0.457030
771 0 -0.549753
772 0 -0.471354
773 0 0.017932
774 0 0.872566
775 0 -0.687281
776 0 -0.040047
777 0 0.119451
778 0 -0.114065
779 0 -0.442507
780 0 0.516495
781 0 0.420363
782 0 -0.359702
783 0 0.000000
784 0 -0.000000
785 0 0.119892
786 0 -0.430834
787 0 0.000000
788 0 -0.000000
789 0 0.097461
790 0 -0.141240
791 0 -0.271704
792 0 0.349512
793 0 -0.655400
794 0 0.174127
795 0 0.235378
796 0 -0.219180
797 0 -0.115485
798 0 0.595092
799 0 0.000000
0 1 -0.299867
1 1 -0.621968
2 1 -0.162479
3 1 -0.562985
4 1 -0.395703
5 1 0.381509
6 1 -0.283978
7 1 -0.955712
8 1 -0.000000
9 1 -0.034141
10 1 -0.101647
11 1 -0.925967
12 1 -0.574002
13 1 -0.486899
14 1 0.126929
15 1 -0.349722
16 1 -0.701387
17 1 0.000000
18 1 0.130411
19 1 0.000000
20 1 -0.000000
21 1 -0.000000
22 1 0.767109
23 1 0.366724
24 1 0.001857
25 1 0.000000
26 1 -0.000000
27 1 -0.265883
28 1 -0.273489
29 1 -2.015373
30 1 0.318842
31 1 -0.270070
32 1 -0.288708
33 1 -0.085522
34 1 -0.000000
35 1 -0.781106
36 1 0.105514
37 1 0.091138
38 1 -0.000000
39 1 -0.000000
40 1 -0.285134
41 1 0.557302
42 1 -0.519298
43 1 -1.121076
44 1 0.477202
45 1 -0.135133
46 1 0.000000
47 1 0.157034
48 1 -0.217276
49 1 -0.058393
50 1 -0.550726
51 1 0.000000
52 1 0.720600
53 1 -0.211524
54 1 -0.427936
55 1 0.000000
56 1 -0.037761
57 1 0.334808
58 1 0.299379
59 1 -0.000000
60 1 -0.201852
61 1 0.008803
62 1 -0.268186
63 1 0.000000
64 1 0.383000
65 1 -1.277642
66 1 -0.538654
67 1 0.327196
68 1 0.035386
69 1 0.031735
70 1 -0.482340
71 1 -0.534401
72 1 -0.288468
73 1 -0.149982
74 1 -0.000000
75 1 -0.539272
76 1 0.128016
77 1 0.348375
78 1 -0.188992
79 1 0.117608
80 1 -0.296391
81 1 0.000000
82 1 -0.000000
83 1 -0.744601
84 1 -0.000000
85 1 -0.181977
86 1 -0.194643
87 1 0.112203
88 1 -0.000000
89 1 0.271177
90 1 -0.601820
91 1 -0.138367
92 1 0.000000
93 1 -0.109493
94 1 -0.176200
95 1 0.029285
96 1 0.621404
97 1 -0.378453
98 1 0.000000
99 1 -0.022462
100 1 -0.169513
101 1 0.268364
102 1 -0.019531
103 1 0.318729
104 1 -0.308260
105 1 0.294239
106 1 -0.640338
107 1 0.197919
108 1 0.086755
109 1 -0.287570
110 1 -0.390797
111 1 0.068337
112 1 -1.066618
113 1 0.520621
114 1 -0.524263
115 1 -0.029996
116 1 -0.143023
117 1 0.092724
118 1 0.381077
119 1 0.000000
120 1 0.000000
121 1 0.358203
122 1 -0.165786
123 1 -0.188921
124 1 0.327799
125 1 -0.590889
126 1 0.373679
127 1 -0.250297
128 1 -0.666142
129 1 -0.115633
130 1 -0.027127
131 1 -0.169346
132 1 -0.561908
133 1 -0.442625
134 1 -0.000000
135 1 0.697728
136 1 -0.012912
137 1 -0.038654
138 1 0.036027
139 1 -0.607889
140 1 0.073927
141 1 0.173911
142 1 -0.181957
143 1 0.834413
144 1 -0.225403
145 1 -0.005499
146 1 -0.153705
147 1 -0.000000
148 1 0.048070
149 1 -1.321052
150 1 -0.003631
151 1 -0.075239
152 1 -0.277524
153 1 0.000000
154 1 -0.022669
155 1 0.145923
156 1 0.000000
157 1 -0.804932
158 1 0.713715
159 1 -0.315523
160 1 0.198754
161 1 -0.011951
162 1 -0.575376
163 1 -0.580524
164 1 -0.186094
165 1 0.195352
166 1 -0.798572
167 1 -0.444409
168 1 -0.385867
169 1 -0.193758
170 1 0.552771
171 1 -0.072934
172 1 -0.500373
173 1 -0.055938
174 1 -0.036054
175 1 -0.249690
176 1 -0.555189
177 1 0.529343
178 1 -0.858364
179 1 0.272395
180 1 0.000000
181 1 -0.154547
182 1 -0.103996
183 1 -0.251031
184 1 -0.000000
185 1 -0.881916
186 1 -0.665763
187 1 -0.210031
188 1 0.000000
189 1 -0.816295
190 1 -0.754021
191 1 -0.356330
192 1 0.080527
193 1 0.280730
194 1 -0.216004
195 1 -0.475243
196 1 0.404381
197 1 -0.000000
198 1 0.102863
199 1 0.071320
200 1 -0.194541
201 1 -0.244131
202 1 0.000000
203 1 -0.520154
204 1 0.082617
205 1 0.210188
206 1 0.197412
207 1 0.963842
208 1 -0.024656
209 1 -0.185822
210 1 0.237474
211 1 -0.336690
212 1 -0.691435
213 1 -0.290692
214 1 -0.394658
215 1 -0.000000
216 1 0.063638
217 1 -0.000000
218 1 -0.577726
219 1 -0.015086
220 1 -0.052060
221 1 -0.336007
222 1 -0.297372
223 1 0.000000
224 1 -0.035810
225 1 -0.016466
226 1 -1.676554
227 1 -0.088655
228 1 -0.000000
229 1 -0.043958
230 1 -0.102412
231 1 -1.043385
232 1 0.138519
233 1 -0.093480
234 1 -0.240439
235 1 -0.642481
236 1 0.055334
237 1 -0.609580
238 1 0.043648
239 1 -0.081614
240 1 0.220654
241 1 -0.615950
242 1 -0.427733
243 1 -0.000000
244 1 -0.240135
245 1 -0.500779
246 1 -0.637250
247 1 -0.111191
248 1 -0.291867
249 1 -0.220584
250 1 0.511600
251 1 -0.495645
252 1 0.000000
253 1 -0.040420
254 1 -0.146037
255 1 -0.088433
256 1 -0.000000
257 1 0.015331
258 1 -0.000000
259 1 -0.280839
260 1 -0.793866
261 1 0.000000
262 1 -0.053770
263 1 -0.024115
264 1 0.369829
265 1 0.248364
266 1 -0.000000
267 1 -0.003678
268 1 0.390720
269 1 -0.458799
270 1 -0.487456
271 1 0.000000
272 1 -0.999039
273 1 -0.455846
274 1 -0.416276
275 1 -0.000000
276 1 -0.329394
277 1 -0.000000
278 1 -0.237373
279 1 -0.459391
280 1 -0.250061
281 1 0.215631
282 1 0.000000
283 1 -0.426866
284 1 -0.011239
285 1 -0.289659
286 1 0.000000
287 1 -0.806380
288 1 -0.024006
289 1 -0.317875
290 1 -0.048963
291 1 0.145670
292 1 -0.050127
293 1 -0.133867
294 1 -1.461420
295 1 -0.093010
296 1 -0.139669
297 1 0.000000
298 1 -0.196729
299 1 -0.384726
300 1 -0.036031
301 1 -0.587052
302 1 -0.763300
303 1 -0.202650
304 1 0.011373
305 1 -1.332850
306 1 -0.363100
307 1 0.354232
308 1 -0.417265
309 1 -0.159158
310 1 -0.121166
311 1 -0.106154
312 1 -0.692435
313 1 0.019104
314 1 -0.000000
315 1 -1.815160
316 1 0.280898
317 1 0.233561
318 1 -0.539520
319 1 -0.859479
320 1 -0.194911
321 1 0.181546
322 1 -0.384754
323 1 -0.000000
324 1 -0.004053
325 1 -0.286182
326 1 0.013469
327 1 -0.171202
328 1 0.413125
329 1 0.433898
330 1 0.000000
331 1 -0.155718
332 1 -0.547543
333 1 0.085787
334 1 -0.458683
335 1 -0.001265
336 1 -0.487282
337 1 -0.002796
338 1 -0.193517
339 1 -0.477531
340 1 -0.682748
341 1 -0.354006
342 1 0.000000
343 1 -0.000000
344 1 -0.384781
345 1 -0.000000
346 1 -0.315932
347 1 0.531253
348 1 -0.649558
349 1 -0.197327
350 1 -0.814678
351 1 -0.290774
352 1 -0.556684
353 1 -0.032601
354 1 -0.082373
355 1 -0.636747
356 1 0.389204
357 1 -0.283015
358 1 -0.000000
359 1 -2.802011
360 1 -0.217580
361 1 -0.016719
362 1 -0.590880
363 1 -0.000035
364 1 0.464605
365 1 -0.000000
366 1 -0.000000
367 1 -0.000000
368 1 -1.229768
369 1 -0.000000
370 1 -0.000000
371 1 -0.238505
372 1 -0.573001
373 1 -0.000000
374 1 -1.037472
375 1 -0.225712
376 1 -0.674786
377 1 0.290049
378 1 -0.308467
379 1 -0.614872
380 1 -0.649695
381 1 -0.241882
382 1 -0.159249
383 1 -0.126181
384 1 -0.440790
385 1 1.013763
386 1 -0.556225
387 1 0.568364
388 1 -0.323598
389 1 -0.411783
390 1 -0.264938
391 1 -0.193211
392 1 -0.000000
393 1 -0.343945
394 1 -0.317759
395 1 -0.144533
396 1 0.889691
397 1 -0.385744
398 1 0.000000
399 1 0.012748
400 1 0.799417
401 1 -0.000000
402 1 -0.503038
403 1 -0.593682
404 1 -0.143999
405 1 -0.412354
406 1 -0.438561
407 1 -1.000300
408 1 -0.529903
409 1 0.268676
410 1 -0.113962
411 1 0.855771
412 1 -0.000000
413 1 0.220131
414 1 -0.366155
415 1 -0.000000
416 1 0.040207
417 1 -0.000000
418 1 -0.371719
419 1 0.460179
420 1 -0.592750
421 1 -0.382817
422 1 -0.345804
423 1 -0.000000
424 1 0.035199
425 1 0.383233
426 1 -0.628192
427 1 -0.307780
428 1 -0.606505
429 1 -0.000000
430 1 -0.637094
431 1 -0.944394
432 1 0.506681
433 1 -0.270143
434 1 -1.087718
435 1 -0.000000
436 1 -0.147705
437 1 -0.999811
438 1 -0.000000
439 1 -0.820626
440 1 -0.319928
441 1 -0.000559
442 1 0.000000
443 1 -0.250547
444 1 0.079316
445 1 -0.519809
446 1 -0.376165
447 1 -0.071026
448 1 -0.131554
449 1 0.575367
450 1 -0.486451
451 1 -0.417536
452 1 0.559795
453 1 0.254970
454 1 0.094491
455 1 0.000000
456 1 -0.268964
457 1 0.115396
458 1 -0.000000
459 1 -0.212645
460 1 0.227367
461 1 0.000000
462 1 0.327842
463 1 0.084943
464 1 -0.000000
465 1 -0.547879
466 1 0.053039
467 1 -0.151831
468 1 0.279148
469 1 -0.253801
470 1 -0.000000
471 1 -0.019712
472 1 -0.697828
473 1 0.048742
474 1 -0.036963
475 1 -0.026182
476 1 0.483971
477 1 -0.434887
478 1 -0.260322
479 1 0.800156
480 1 -0.279233
481 1 -0.451394
482 1 -0.135400
483 1 -0.791305
484 1 -0.547769
485 1 -0.227294
486 1 -0.100596
487 1 0.034034
488 1 -0.388705
489 1 -0.000000
490 1 -0.000000
491 1 -0.621186
492 1 0.218517
493 1 -0.870734
494 1 -0.585792
495 1 -0.806725
496 1 -0.585865
497 1 0.859742
498 1 -0.274008
499 1 0.033006
500 1 0.634001
501 1 -0.941363
502 1 1.051627
503 1 -0.520620
504 1 0.066883
505 1 -0.446015
506 1 -0.000000
507 1 -0.674902
508 1 0.081670
509 1 -0.000000
510 1 -1.064617
511 1 -0.333404
512 1 -0.022933
513 1 -0.681155
514 1 0.127538
515 1 -0.913870
516 1 0.151168
517 1 0.235674
518 1 0.322315
519 1 0.915817
520 1 -0.105211
521 1 -0.638771
522 1 -0.000000
523 1 -0.228500
524 1 -0.526820
525 1 -0.052261
526 1 -0.661247
527 1 0.000000
528 1 -0.136091
529 1 -1.200805
530 1 -0.020118
531 1 -0.162864
532 1 -0.196224
533 1 -0.589646
534 1 -0.014519
535 1 -0.505144
536 1 -0.611661
537 1 -0.188241
538 1 0.000000
539 1 0.035457
540 1 -0.270850
541 1 0.320616
542 1 -0.295475
543 1 -0.590060
544 1 -0.920459
545 1 -0.171806
546 1 -0.983220
547 1 -0.019326
548 1 -0.818253
549 1 0.219969
550 1 -0.034053
551 1 -0.349401
552 1 -0.528433
553 1 -0.302835
554 1 -0.658369
555 1 -0.294273
556 1 -0.747808
557 1 0.000000
558 1 -0.548185
559 1 -0.512926
560 1 -0.315032
561 1 0.538542
562 1 -0.610143
563 1 -0.305217
564 1 0.161272
565 1 -0.125250
566 1 -0.000000
567 1 -0.079781
568 1 0.544402
569 1 -0.297287
570 1 -0.665906
571 1 -0.546436
572 1 -0.000000
573 1 0.329411
574 1 -0.785359
575 1 -0.751895
576 1 -0.524109
577 1 0.005029
578 1 -0.057321
579 1 -0.412654
580 1 -0.653504
581 1 -0.580904
582 1 -0.000000
583 1 -0.220893
584 1 -0.123615
585 1 0.000000
586 1 0.054400
587 1 -0.700454
588 1 -0.322643
589 1 1.040982
590 1 0.271561
591 1 0.014459
592 1 0.659924
593 1 -0.492340
594 1 -0.012452
595 1 -0.000000
596 1 -0.860103
597 1 -0.407394
598 1 -0.011550
599 1 -0.546881
600 1 -0.498432
601 1 -0.493118
602 1 0.018031
603 1 -0.752429
604 1 0.000000
605 1 -0.290718
606 1 -0.067840
607 1 -0.470805
608 1 0.133174
609 1 0.000000
610 1 -0.855604
611 1 -0.540075
612 1 -0.580831
613 1 -0.079863
614 1 -0.344637
615 1 -0.597351
616 1 -0.089248
617 1 0.018794
618 1 -0.466079
619 1 0.000000
620 1 -0.000658
621 1 -0.575011
622 1 -0.000000
623 1 -1.011069
624 1 -0.184676
625 1 -0.211189
626 1 -0.472199
627 1 0.000000
628 1 -0.248947
629 1 -0.227401
630 1 0.260562
631 1 0.027185
632 1 -0.134912
633 1 -0.864412
634 1 0.393944
635 1 -0.641453
636 1 0.267757
637 1 0.088830
638 1 -0.466863
639 1 -0.577068
640 1 -0.826759
641 1 0.365178
642 1 0.291645
643 1 0.032752
644 1 -0.816035
645 1 -0.582567
646 1 0.172929
647 1 -0.372877
648 1 -0.602803
649 1 -0.469357
650 1 -0.901231
651 1 0.178216
652 1 -0.001146
653 1 -0.421268
654 1 -0.437744
655 1 0.184133
656 1 0.099254
657 1 0.642588
658 1 -0.458388
659 1 -0.285789
660 1 -0.435999
661 1 0.330317
662 1 -0.663791
663 1 0.803281
664 1 -0.877908
665 1 -0.530601
666 1 -0.590851
667 1 -0.029547
668 1 -0.253440
669 1 0.413756
670 1 -0.183290
671 1 0.238551
672 1 -0.315366
673 1 -1.115188
674 1 -0.000000
675 1 0.000000
676 1 -0.033969
677 1 -0.481563
678 1 0.404614
679 1 -0.150553
680 1 -0.860184
681 1 0.000000
682 1 0.184689
683 1 -0.367997
684 1 -0.669370
685 1 0.046829
686 1 -0.093837
687 1 0.006712
688 1 -0.176187
689 1 0.232019
690 1 0.071448
691 1 0.000000
692 1 -0.015520
693 1 -0.528128
694 1 0.000000
695 1 -0.085230
696 1 0.252854
697 1 -0.583165
698 1 -0.105301
699 1 -1.164464
700 1 -0.048709
701 1 -0.087092
702 1 -0.361278
703 1 -0.636415
704 1 -1.106624
705 1 0.130130
706 1 0.205691
707 1 -0.683378
708 1 -0.569451
709 1 -0.874893
710 1 -0.000000
711 1 -0.291678
712 1 -0.013304
713 1 0.569513
714 1 -0.230157
715 1 -0.532589
716 1 -0.718872
717 1 -0.100150
718 1 0.000000
719 1 -0.000000
720 1 -0.168719
721 1 -0.106169
722 1 -0.316984
723 1 -0.408184
724 1 0.584282
725 1 -0.647916
726 1 -0.000000
727 1 0.232262
728 1 -0.675373
729 1 -0.348553
730 1 -0.697573
731 1 -0.247854
732 1 -0.000000
733 1 0.020488
734 1 0.343211
735 1 0.000000
736 1 -0.010817
737 1 -0.000709
738 1 -0.000769
739 1 -0.319091
740 1 0.441058
741 1 -0.044225
742 1 0.733077
743 1 0.000000
744 1 -0.325363
745 1 0.348173
746 1 -0.335549
747 1 0.019532
748 1 0.000000
749 1 0.405648
750 1 -2.997800
751 1 0.230721
752 1 -0.111411
753 1 0.021173
754 1 -0.036679
755 1 -0.355039
756 1 0.000000
757 1 -0.000000
758 1 0.598851
759 1 0.524011
760 1 -0.643493
761 1 -0.677064
762 1 0.068868
763 1 -0.229851
764 1 0.000000
765 1 -0.704999
766 1 0.437019
767 1 -0.441794
768 1 0.007120
769 1 0.167604
770 1 -0.455295
771 1 0.007025
772 1 0.390848
773 1 -0.588381
774 1 0.946451
775 1 -0.261031
776 1 0.329477
777 1 -0.475671
778 1 0.072983
779 1 -0.621993
780 1 0.297770
781 1 -0.056055
782 1 -0.186125
783 1 0.000000
784 1 -0.000000
785 1 -0.614609
786 1 0.304238
787 1 0.000000
788 1 0.000000
789 1 -0.567567
790 1 -0.117324
791 1 -0.419305
792 1 0.674623
793 1 -0.472556
794 1 -0.576851
795 1 -0.037256
796 1 -0.041251
797 1 -0.004049
798 1 -0.387428
799 1 0.000000
0 2 -0.023628
1 2 -0.496345
2 2 -0.314326
3 2 0.009591
4 2 -0.143657
5 2 0.275279
6 2 -0.215527
7 2 -0.139547
8 2 0.000000
9 2 -0.005704
10 2 0.714150
11 2 -0.616290
12 2 -0.039020
13 2 -0.082408
14 2 0.096375
15 2 -0.343453
16 2 0.347525
17 2 -0.000000
18 2 0.309883
19 2 0.000000
20 2 0.000000
21 2 -0.000000
22 2 -0.501026
23 2 -0.173415
24 2 -0.250781
25 2 -0.000000
26 2 0.000000
27 2 -0.173217
28 2 -0.859545
29 2 0.237856
30 2 -0.239005
31 2 0.574162
32 2 -0.240008
33 2 -0.161046
34 2 -0.000000
35 2 -0.095119
36 2 -0.283149
37 2 -0.450105
38 2 0.000000
39 2 0.000000
40 2 -0.019844
41 2 -0.345306
42 2 0.157300
43 2 0.016888
44 2 0.742117
45 2 0.717063
46 2 -0.000000
47 2 0.464183
48 2 0.048648
49 2 -0.253383
50 2 0.035975
51 2 -0.000000
52 2 0.540779
53 2 0.218938
54 2 -0.519092
55 2 -0.000000
56 2 -0.379948
57 2 0.322781
58 2 -1.044924
59 2 -0.000000
60 2 0.097741
61 2 -0.058211
62 2 -0.189083
63 2 0.000000
64 2 -0.420608
65 2 -0.044670
66 2 -0.153268
67 2 -0.267400
68 2 -0.119805
69 2 -0.159323
70 2 -0.131051
71 2 -0.564746
72 2 -0.075276
73 2 0.511758
74 2 -0.000000
75 2 -0.008640
76 2 -0.109101
77 2 -0.294410
78 2 0.064208
79 2 -0.754233
80 2 -0.033199
81 2 0.000000
82 2 0.000000
83 2 0.061389
84 2 0.000000
85 2 -0.227937
86 2 -0.324705
87 2 0.517549
88 2 -0.000000
89 2 0.083545
90 2 -0.266142
91 2 0.040225
92 2 0.000000
93 2 0.276264
94 2 -0.263008
95 2 -0.118745
96 2 0.267131
97 2 0.155996
98 2 -0.000000
99 2 0.161064
100 2 0.018598
101 2 0.017729
102 2 0.346258
103 2 -0.331647
104 2 -0.209133
105 2 -0.309340
106 2 0.661835
107 2 0.045977
108 2 0.252020
109 2 -0.005772
110 2 0.167598
111 2 0.231871
112 2 -0.165680
113 2 -0.099644
114 2 -0.127556
115 2 0.456009
116 2 -0.396950
117 2 0.089231
118 2 0.124635
119 2 -0.000000
120 2 0.000000
121 2 -0.256960
122 2 0.375011
123 2 -0.079750
124 2 0.169712
125 2 -0.350001
126 2 -0.226467
127 2 -0.184760
128 2 -0.307671
129 2 -0.810181
130 2 -0.071928
131 2 0.055556
132 2 -0.653258
133 2 0.202610
134 2 0.000000
135 2 -0.693995
136 2 0.158860
137 2 -0.026170
138 2 0.087868
139 2 0.104292
140 2 -0.142467
141 2 -0.037616
142 2 -0.190186
143 2 -0.228279
144 2 -0.100939
145 2 0.163860
146 2 -0.387308
147 2 -0.000000
148 2 -0.114145
149 2 0.412530
150 2 -0.000000
151 2 0.107956
152 2 0.060585
153 2 0.000000
154 2 0.019895
155 2 -0.444659
156 2 -0.000000
157 2 -0.566839
158 2 0.208177
159 2 -0.009317
160 2 0.270130
161 2 -0.107056
162 2 0.269121
163 2 -0.229443
164 2 0.107472
165 2 0.461923
166 2 0.676692
167 2 -0.498566
168 2 -0.573285
169 2 0.160349
170 2 -0.622059
171 2 0.706138
172 2 -0.552377
173 2 -0.097600
174 2 -0.471484
175 2 0.206552
176 2 0.015485
177 2 -0.347381
178 2 0.257477
179 2 -0.093952
180 2 0.000000
181 2 0.481960
182 2 0.143637
183 2 -0.153993
184 2 -0.000000
185 2 0.037883
186 2 -0.512024
187 2 0.001320
188 2 -0.000000
189 2 -0.055288
190 2 0.005769
191 2 -0.141688
192 2 -0.365728
193 2 0.703487
194 2 0.216956
195 2 -0.140894
196 2 0.435339
197 2 -0.000000
198 2 -0.308538
199 2 -0.000695
200 2 -0.100478
201 2 0.012196
202 2 -0.000000
203 2 0.009377
204 2 -0.778166
205 2 0.126761
206 2 0.064200
207 2 0.589649
208 2 -0.118125
209 2 0.004694
210 2 -0.220304
211 2 0.130256
212 2 0.555384
213 2 -0.334836
214 2 -0.099245
215 2 -0.000000
216 2 -0.432715
217 2 0.000000
218 2 -0.037684
219 2 -0.297234
220 2 0.398098
221 2 -0.275279
222 2 -0.349119
223 2 0.000000
224 2 -0.358320
225 2 0.452860
226 2 -0.415461
227 2 -0.248513
228 2 0.000000
229 2 -0.229704
230 2 -0.128324
231 2 -0.064369
232 2 -0.154497
233 2 0.117496
234 2 0.090022
235 2 -0.145721
236 2 0.026579
237 2 0.071863
238 2 -0.142307
239 2 -0.058417
240 2 0.100921
241 2 -0.206983
242 2 -0.125946
243 2 0.000000
244 2 -0.810340
245 2 -0.131334
246 2 -0.310842
247 2 -0.003577
248 2 -0.048660
249 2 -0.216348
250 2 0.635847
251 2 -0.451534
252 2 -0.000000
253 2 -0.241111
254 2 -0.608962
255 2 0.170166
256 2 -0.000000
257 2 -0.019711
258 2 0.000000
259 2 0.378491
260 2 -0.245959
261 2 0.000000
262 2 0.316017
263 2 -0.084693
264 2 -0.597832
265 2 0.335780
266 2 -0.000000
267 2 0.404737
268 2 0.398758
269 2 -0.702953
270 2 -0.041773
271 2 0.000000
272 2 -0.142589
273 2 -0.182167
274 2 -0.087047
275 2 0.000000
276 2 0.002082
277 2 0.000000
278 2 -0.104980
279 2 -0.332770
280 2 0.076578
281 2 -0.197622
282 2 0.000000
283 2 -1.174427
284 2 0.318019
285 2 -0.018986
286 2 0.000000
287 2 -0.126828
288 2 -0.299496
289 2 0.091534
290 2 -0.150344
291 2 0.100874
292 2 -0.406690
293 2 -0.133197
294 2 0.281433
295 2 -0.046727
296 2 -0.180057
297 2 0.000000
298 2 0.146608
299 2 0.131650
300 2 -0.279759
301 2 0.265882
302 2 -0.250550
303 2 -0.232337
304 2 0.135706
305 2 -0.199047
306 2 0.148654
307 2 -0.796383
308 2 -0.004449
309 2 -0.743134
310 2 0.443682
311 2 0.165166
312 2 -0.646806
313 2 -0.432435
314 2 -0.000000
315 2 -0.221601
316 2 0.007661
317 2 -0.392456
318 2 -0.194016
319 2 -1.144614
320 2 0.170664
321 2 -0.059437
322 2 0.265676
323 2 -0.000000
324 2 -0.000956
325 2 0.020726
326 2 -0.007976
327 2 0.446491
328 2 0.479518
329 2 -0.107983
330 2 -0.000000
331 2 -0.014533
332 2 -0.478571
333 2 -0.664915
334 2 0.115286
335 2 -0.000000
336 2 -0.326561
337 2 -0.590568
338 2 -0.141633
339 2 0.405037
340 2 -0.250823
341 2 0.023659
342 2 -0.000000
343 2 -0.000000
344 2 -0.134957
345 2 0.000000
346 2 -0.140266
347 2 0.642916
348 2 0.408036
349 2 0.099110
350 2 0.145911
351 2 -0.233098
352 2 -0.106354
353 2 -0.669449
354 2 -0.140138
355 2 0.074254
356 2 0.129441
357 2 0.140969
358 2 0.000000
359 2 0.187892
360 2 0.554056
361 2 0.133239
362 2 -0.064618
363 2 -0.024829
364 2 -0.571640
365 2 0.000000
366 2 0.000000
367 2 0.000000
368 2 0.674132
369 2 0.000000
370 2 0.000000
371 2 -0.415083
372 2 0.321287
373 2 0.000000
374 2 0.041748
375 2 0.193872
376 2 -0.268767
377 2 0.550461
378 2 -0.047617
379 2 -0.242276
380 2 0.032045
381 2 -0.651897
382 2 0.065163
383 2 -0.000745
384 2 -0.221796
385 2 0.055311
386 2 -0.278860
387 2 -0.481898
388 2 -0.639238
389 2 0.414161
390 2 0.910776
391 2 -0.191624
392 2 0.000000
393 2 -0.219606
394 2 0.042873
395 2 0.217895
396 2 0.222237
397 2 0.373722
398 2 0.000000
399 2 0.089492
400 2 -0.029041
401 2 0.000000
402 2 -0.059420
403 2 -0.182075
404 2 -0.180176
405 2 0.218365
406 2 -0.732296
407 2 -0.775418
408 2 -0.062191
409 2 -0.020783
410 2 -0.525694
411 2 0.107131
412 2 0.000000
413 2 -0.942803
414 2 -0.003576
415 2 0.000000
416 2 -0.879117
417 2 0.000000
418 2 -0.236926
419 2 0.522181
420 2 -0.692877
421 2 -0.631184
422 2 0.085158
423 2 0.000000
424 2 -0.173328
425 2 -0.014611
426 2 0.217958
427 2 -0.371176
428 2 0.028333
429 2 -0.000000
430 2 -0.258674
431 2 -0.626491
432 2 0.256366
433 2 -0.031182
434 2 0.213989
435 2 0.000000
436 2 -0.258958
437 2 0.519164
438 2 -0.000000
439 2 -0.905288
440 2 -0.341030
441 2 0.000000
442 2 0.000000
443 2 -0.241338
444 2 -0.092412
445 2 -0.168948
446 2 0.338873
447 2 0.058164
448 2 -0.422203
449 2 0.339772
450 2 -0.017379
451 2 -0.372654
452 2 -0.181040
453 2 -0.112232
454 2 -0.109728
455 2 -0.000000
456 2 -0.101784
457 2 -0.272429
458 2 0.000000
459 2 0.134683
460 2 -0.252998
461 2 -0.000000
462 2 0.088367
463 2 0.374812
464 2 -0.000000
465 2 -0.160477
466 2 -0.470854
467 2 -0.032789
468 2 0.164428
469 2 0.058862
470 2 0.000000
471 2 -0.057603
472 2 -0.314791
473 2 -0.292552
474 2 0.342759
475 2 -0.012213
476 2 -0.451040
477 2 -0.278740
478 2 -0.054276
479 2 0.213494
480 2 -0.624459
481 2 -0.043152
482 2 0.067570
483 2 -0.125372
484 2 -0.428833
485 2 0.020534
486 2 -0.662058
487 2 0.044607
488 2 -0.396949
489 2 -0.000000
490 2 -0.000000
491 2 0.091262
492 2 -0.087233
493 2 -0.014395
494 2 -0.291976
495 2 -0.005915
496 2 0.243997
497 2 0.052459
498 2 -0.048129
499 2 0.583400
500 2 0.025615
501 2 0.110140
502 2 0.071495
503 2 -0.146833
504 2 0.502158
505 2 0.410905
506 2 -0.000000
507 2 0.162411
508 2 -0.333633
509 2 0.000000
510 2 -0.096358
511 2 -0.298678
512 2 -0.437683
513 2 0.228881
514 2 0.348127
515 2 0.476773
516 2 -0.066105
517 2 -1.476408
518 2 0.209418
519 2 0.415299
520 2 0.257636
521 2 -0.042208
522 2 -0.000000
523 2 0.455471
524 2 -0.206442
525 2 0.073154
526 2 -0.014701
527 2 -0.000000
528 2 -1.239974
529 2 -0.325079
530 2 0.053677
531 2 1.006158
532 2 0.376007
533 2 0.497859
534 2 -0.036332
535 2 -0.022013
536 2 0.652923
537 2 0.095334
538 2 0.000000
539 2 -1.473818
540 2 0.187194
541 2 0.219962
542 2 0.113605
543 2 -0.038272
544 2 0.326091
545 2 0.403143
546 2 0.030343
547 2 -0.002779
548 2 0.417279
549 2 -0.046671
550 2 0.093866
551 2 0.092327
552 2 -0.213741
553 2 0.305909
554 2 -0.561447
555 2 0.334665
556 2 -0.236048
557 2 -0.000000
558 2 0.149762
559 2 0.154744
560 2 -0.644329
561 2 0.270292
562 2 -0.677414
563 2 -0.306579
564 2 0.275602
565 2 -0.097606
566 2 -0.000000
567 2 -0.552150
568 2 -0.141577
569 2 0.304477
570 2 -0.484609
571 2 0.283480
572 2 0.000000
573 2 -0.010363
574 2 -0.840210
575 2 -0.050437
576 2 -0.968063
577 2 -0.145975
578 2 0.077241
579 2 -0.480987
580 2 0.208951
581 2 -0.248507
582 2 0.000000
583 2 -0.172392
584 2 -0.103960
585 2 0.000000
586 2 -0.076216
587 2 -0.580304
588 2 0.031289
589 2 0.548852
590 2 -0.812692
591 2 -0.414007
592 2 0.061255
593 2 -0.555878
594 2 -0.001734
595 2 -0.000000
596 2 0.048843
597 2 -0.249091
598 2 -0.148306
599 2 0.097453
600 2 0.133624
601 2 -0.170754
602 2 0.137482
603 2 0.538914
604 2 -0.000000
605 2 -0.116890
606 2 -0.510709
607 2 -0.262661
608 2 0.123192
609 2 0.000000
610 2 -0.369940
611 2 -0.550335
612 2 0.171682
613 2 0.024109
614 2 -0.102098
615 2 0.054833
616 2 0.444028
617 2 0.030390
618 2 0.026632
619 2 -0.000000
620 2 -0.000000
621 2 0.370090
622 2 -0.000000
623 2 0.227255
624 2 -0.225973
625 2 -0.709429
626 2 -0.165914
627 2 -0.000000
628 2 -0.440003
629 2 0.340075
630 2 -0.175764
631 2 -0.140311
632 2 -0.221458
633 2 -0.141971
634 2 0.126257
635 2 -0.015080
636 2 -0.236054
637 2 -0.295253
638 2 0.047487
639 2 -0.323079
640 2 -0.217106
641 2 -0.368129
642 2 0.566475
643 2 -0.263385
644 2 -1.335606
645 2 -0.122426
646 2 -0.094872
647 2 -0.018684
648 2 -0.162646
649 2 0.037150
650 2 -0.144233
651 2 0.168977
652 2 -0.000000
653 2 -0.263756
654 2 -0.684500
655 2 -0.124289
656 2 0.513969
657 2 0.025537
658 2 -0.381144
659 2 -0.192411
660 2 -0.328898
661 2 -0.558631
662 2 -0.032463
663 2 0.289267
664 2 0.187385
665 2 -0.365731
666 2 -0.147394
667 2 0.061604
668 2 -0.130518
669 2 0.319600
670 2 0.229690
671 2 0.017223
672 2 -1.055894
673 2 0.106273
674 2 -0.000000
675 2 -0.000000
676 2 -0.017532
677 2 -0.229453
678 2 -0.817915
679 2 -0.089941
680 2 0.017430
681 2 -0.000000
682 2 -1.438145
683 2 -0.098971
684 2 -0.392542
685 2 0.096830
686 2 -0.202068
687 2 -0.237074
688 2 -0.342919
689 2 0.209602
690 2 0.172978
691 2 0.000000
692 2 0.174046
693 2 0.117270
694 2 0.000000
695 2 -0.030647
696 2 0.632099
697 2 0.604784
698 2 0.117587
699 2 -0.431154
700 2 -0.028069
701 2 -0.105302
702 2 0.005187
703 2 -0.356415
704 2 -0.201229
705 2 0.218960
706 2 0.037147
707 2 0.419442
708 2 0.706592
709 2 -0.021537
710 2 0.000000
711 2 -0.411741
712 2 0.364276
713 2 -0.282379
714 2 -0.116571
715 2 -0.045526
716 2 -0.542597
717 2 0.280050
718 2 -0.000000
719 2 0.000000
720 2 0.021844
721 2 -0.077523
722 2 0.035826
723 2 0.111222
724 2 0.605611
725 2 0.170368
726 2 -0.000000
727 2 -0.576056
728 2 -0.536238
729 2 -0.450278
730 2 -0.242291
731 2 -0.078963
732 2 -0.000000
733 2 -0.695466
734 2 0.013582
735 2 -0.000000
736 2 -1.149713
737 2 -0.000000
738 2 -0.002025
739 2 -0.611675
740 2 -0.494825
741 2 0.654534
742 2 -0.306208
743 2 0.000000
744 2 -0.113465
745 2 -0.094965
746 2 -0.191151
747 2 0.160599
748 2 -0.000000
749 2 0.432847
750 2 -0.607041
751 2 0.061825
752 2 -0.180211
753 2 -0.002983
754 2 0.295681
755 2 0.492190
756 2 0.000000
757 2 0.000000
758 2 0.551834
759 2 -0.370782
760 2 0.341203
761 2 -0.381083
762 2 0.147869
763 2 -0.083643
764 2 -0.000000
765 2 -0.712668
766 2 -0.266382
767 2 -0.157235
768 2 0.255986
769 2 -0.596710
770 2 -0.323292
771 2 0.719050
772 2 -0.444245
773 2 0.441463
774 2 0.272039
775 2 -0.674305
776 2 -0.368852
777 2 0.780865
778 2 -0.439955
779 2 -0.147552
780 2 0.421574
781 2 -0.304610
782 2 0.085851
783 2 0.000000
784 2 -0.000000
785 2 -0.397079
786 2 0.326717
787 2 0.000000
788 2 0.000000
789 2 0.104489
790 2 -0.150910
791 2 -0.162819
792 2 -0.261008
793 2 0.634271
794 2 0.580385
795 2 -0.118800
796 2 -0.003502
797 2 -0.002511
798 2 0.355823
799 2 0.000000
0 3 -0.184469
1 3 -0.856904
2 3 -0.164229
3 3 0.057006
4 3 -0.438930
5 3 -0.648754
6 3 -0.515176
7 3 -0.423052
8 3 -0.000000
9 3 -0.067083
10 3 -0.651626
11 3 -0.175161
12 3 0.158572
13 3 -0.004270
14 3 -0.092527
15 3 -0.547245
16 3 0.619223
17 3 0.000000
18 3 0.855831
19 3 -0.000000
20 3 -0.000000
21 3 -0.000000
22 3 -0.013523
23 3 -0.674032
24 3 0.147314
25 3 -0.000000
26 3 0.000000
27 3 -0.261394
28 3 -0.191667
29 3 0.050603
30 3 0.657473
31 3 0.165956
32 3 -0.495772
33 3 -0.210547
34 3 -0.000000
35 3 -0.222022
36 3 -0.776436
37 3 -0.019361
38 3 -0.000000
39 3 0.000000
40 3 0.229034
41 3 0.712338
42 3 -0.310323
43 3 -0.354379
44 3 0.253209
45 3 -0.448095
46 3 0.000000
47 3 0.038392
48 3 -0.904432
49 3 -0.480449
50 3 -1.101074
51 3 0.000000
52 3 -0.318063
53 3 0.142471
54 3 0.018545
55 3 -0.000000
56 3 -1.057380
57 3 -0.118161
58 3 -1.124800
59 3 0.000000
60 3 0.176182
61 3 0.619077
62 3 0.457933
63 3 0.000000
64 3 -0.476546
65 3 0.291416
66 3 -0.841203
67 3 -0.271469
68 3 -0.234251
69 3 0.260442
70 3 -0.004968
71 3 -0.891640
72 3 -0.230575
73 3 0.580042
74 3 -0.000000
75 3 -0.057104
76 3 -0.382042
77 3 0.344421
78 3 -0.421529
79 3 -0.181358
80 3 -0.779108
81 3 -0.000000
82 3 -0.000000
83 3 0.013113
84 3 -0.000000
85 3 -0.686285
86 3 -0.434187
87 3 0.735600
88 3 0.000000
89 3 -0.601998
90 3 -0.565247
91 3 0.238958
92 3 0.000000
93 3 -0.315434
94 3 -0.875707
95 3 -0.187849
96 3 -0.315392
97 3 -0.377988
98 3 0.000000
99 3 0.228575
100 3 -0.608732
101 3 0.243593
102 3 0.660297
103 3 -0.089063
104 3 -0.645520
105 3 0.677642
106 3 0.465386
107 3 -0.027408
108 3 0.281507
109 3 -0.315900
110 3 -0.721253
111 3 -0.043769
112 3 0.137275
113 3 -0.278071
114 3 -0.877798
115 3 0.908714
116 3 -0.036441
117 3 -0.472965
118 3 0.813225
119 3 -0.000000
120 3 -0.000000
121 3 0.186620
122 3 0.458969
123 3 -0.355445
124 3 0.624708
125 3 -0.377129
126 3 -0.351426
127 3 -0.323821
128 3 -0.826808
129 3 -0.662184
130 3 -0.858569
131 3 0.728692
132 3 -0.500908
133 3 -0.076173
134 3 -0.000000
135 3 0.569654
136 3 -0.499251
137 3 -0.007123
138 3 -0.778508
139 3 -1.319653
140 3 -0.325536
141 3 -0.205076
142 3 -0.436086
143 3 -0.492067
144 3 -0.220633
145 3 -0.413038
146 3 -0.303927
147 3 -0.000000
148 3 -0.220777
149 3 -0.408878
150 3 -0.000000
151 3 -0.039742
152 3 -0.463126
153 3 -0.000000
154 3 0.054146
155 3 0.768844
156 3 0.000000
157 3 -1.618493
158 3 0.752929
159 3 -0.928792
160 3 -0.124716
161 3 -0.002877
162 3 0.592295
163 3 0.209469
164 3 -0.270630
165 3 -0.188005
166 3 0.552845
167 3 -0.539342
168 3 -0.763031
169 3 0.151088
170 3 -0.430874
171 3 -0.915927
172 3 0.350689
173 3 -0.067493
174 3 -0.940872
175 3 0.385932
176 3 -0.247837
177 3 0.060088
178 3 0.580865
179 3 -0.824794
180 3 0.000000
181 3 -0.376349
182 3 0.006835
183 3 -0.210011
184 3 0.000000
185 3 -0.837730
186 3 -0.249991
187 3 -0.610826
188 3 -0.000000
189 3 -0.413826
190 3 -0.256328
191 3 -0.377081
192 3 -0.452291
193 3 -0.611351
194 3 -0.846337
195 3 0.507276
196 3 0.582596
197 3 -0.000000
198 3 -0.359956
199 3 -0.076217
200 3 -0.420582
201 3 -0.476275
202 3 -0.000000
203 3 -1.076420
204 3 -1.020694
205 3 0.051978
206 3 -0.267421
207 3 0.033439
208 3 -0.444581
209 3 -0.235091
210 3 -0.021587
211 3 0.155734
212 3 0.281946
213 3 -1.175499
214 3 0.100797
215 3 -0.000000
216 3 -0.540343
217 3 0.000000
218 3 0.646800
219 3 -0.902306
220 3 -0.043823
221 3 0.071114
222 3 -0.209740
223 3 0.000000
224 3 -0.324140
225 3 0.584965
226 3 0.601839
227 3 -0.753370
228 3 0.000000
229 3 -0.441849
230 3 -0.001510
231 3 0.658527
232 3 -0.680249
233 3 -0.510745
234 3 -0.220781
235 3 -0.312020
236 3 -0.342911
237 3 0.125544
238 3 -0.368862
239 3 -0.209646
240 3 0.803607
241 3 -0.740721
242 3 0.520670
243 3 -0.000000
244 3 -1.026854
245 3 0.700176
246 3 0.274020
247 3 -0.202096
248 3 -0.459164
249 3 0.056092
250 3 0.373580
251 3 -0.426855
252 3 -0.000000
253 3 -0.024568
254 3 -0.845458
255 3 0.052360
256 3 -0.000000
257 3 -0.248841
258 3 0.000000
259 3 0.530227
260 3 0.062779
261 3 0.000000
262 3 0.277211
263 3 -0.047063
264 3 -0.794839
265 3 0.511241
266 3 -0.000000
267 3 0.136645
268 3 -0.303643
269 3 -1.020413
270 3 -0.817187
271 3 0.000000
272 3 -0.625911
273 3 -0.275361
274 3 -0.326806
275 3 0.000000
276 3 -0.056385
277 3 -0.000000
278 3 -0.006464
279 3 -1.156674
280 3 -0.812814
281 3 0.324414
282 3 0.000000
283 3 0.166788
284 3 -0.529980
285 3 -0.948934
286 3 -0.000000
287 3 -1.077920
288 3 0.086848
289 3 -0.991174
290 3 0.215826
291 3 -0.182732
292 3 -0.671993
293 3 -0.259444
294 3 0.390800
295 3 -0.001763
296 3 0.449789
297 3 0.000000
298 3 0.591694
299 3 -0.007023
300 3 0.137352
301 3 -0.239659
302 3 -0.740896
303 3 -0.403964
304 3 0.319533
305 3 -0.637983
306 3 0.454288
307 3 0.530328
308 3 0.796960
309 3 -0.679637
310 3 0.660706
311 3 -0.455161
312 3 -1.240271
313 3 -0.666277
314 3 -0.000000
315 3 -0.100533
316 3 0.284108
317 3 -0.158740
318 3 -0.226800
319 3 -1.145624
320 3 -0.008860
321 3 -0.302608
322 3 -0.705921
323 3 0.000000
324 3 -0.000000
325 3 -0.485695
326 3 -0.531193
327 3 -2.821522
328 3 -0.431172
329 3 0.594255
330 3 -0.000000
331 3 -0.095136
332 3 -0.180655
333 3 0.065389
334 3 -0.426394
335 3 -0.000284
336 3 -0.121472
337 3 0.030378
338 3 -0.416455
339 3 -0.631221
340 3 0.077898
341 3 -0.185324
342 3 -0.000000
343 3 0.000000
344 3 -0.460345
345 3 -0.000000
346 3 -0.715360
347 3 0.210293
348 3 -0.986383
349 3 -0.592656
350 3 0.396217
351 3 -0.072176
352 3 -0.548060
353 3 0.009778
354 3 -0.276994
355 3 -1.197077
356 3 -0.262229
357 3 0.236187
358 3 0.000000
359 3 0.510304
360 3 0.449862
361 3 -0.310146
362 3 -0.601158
363 3 -0.377461
364 3 0.431048
365 3 0.000000
366 3 -0.000000
367 3 0.000000
368 3 0.501543
369 3 -0.000000
370 3 0.000000
371 3 0.063907
372 3 0.276623
373 3 -0.000000
374 3 0.057437
375 3 0.152135
376 3 -0.061495
377 3 0.252644
378 3 -0.438720
379 3 -0.603616
380 3 -0.304769
381 3 -0.871661
382 3 -0.202282
383 3 -0.679921
384 3 -0.430533
385 3 0.888134
386 3 -0.060596
387 3 -0.107350
388 3 -0.469641
389 3 0.324959
390 3 -1.183279
391 3 -0.562432
392 3 0.000000
393 3 -0.479715
394 3 -0.429537
395 3 -0.041901
396 3 -0.488416
397 3 0.423951
398 3 0.000000
399 3 -0.548247
400 3 0.392678
401 3 -0.000000
402 3 -0.030856
403 3 0.033698
404 3 -0.193220
405 3 0.219452
406 3 -0.752597
407 3 -1.162290
408 3 -0.302496
409 3 -0.052428
410 3 -0.337318
411 3 -0.413727
412 3 -0.000000
413 3 -0.809763
414 3 0.191457
415 3 -0.000000
416 3 -1.165357
417 3 0.000000
418 3 -0.832609
419 3 0.646007
420 3 -0.922231
421 3 -0.408713
422 3 -0.220949
423 3 -0.000000
424 3 0.760273
425 3 -0.278045
426 3 -0.093223
427 3 -0.180823
428 3 -1.299332
429 3 0.000000
430 3 -0.013143
431 3 -0.184510
432 3 -0.899629
433 3 0.628451
434 3 -0.981895
435 3 0.000000
436 3 -0.132715
437 3 -0.040706
438 3 0.000000
439 3 -0.630616
440 3 -0.511486
441 3 -0.000000
442 3 -0.000000
443 3 -0.258283
444 3 -0.358065
445 3 -0.891474
446 3 0.790085
447 3 -0.281289
448 3 -0.372899
449 3 -0.051418
450 3 -0.653014
451 3 -0.839347
452 3 0.395407
453 3 0.622923
454 3 -0.623541
455 3 0.000000
456 3 -0.981621
457 3 0.191120
458 3 0.000000
459 3 -0.169118
460 3 -0.196718
461 3 0.000000
462 3 0.907022
463 3 0.332698
464 3 0.000000
465 3 -0.051978
466 3 -0.181564
467 3 -0.647824
468 3 -0.474372
469 3 -0.002454
470 3 -0.000000
471 3 -0.002290
472 3 -0.705930
473 3 -0.297832
474 3 -0.721346
475 3 -0.044230
476 3 -0.369237
477 3 0.697636
478 3 0.232812
479 3 -0.236701
480 3 0.278548
481 3 0.382389
482 3 -0.502907
483 3 -0.257332
484 3 -0.366984
485 3 0.646499
486 3 -1.110744
487 3 -0.146650
488 3 -1.026462
489 3 -0.000000
490 3 0.000000
491 3 0.064091
492 3 0.155058
493 3 -0.239633
494 3 -1.387683
495 3 -0.221410
496 3 -0.017826
497 3 0.021407
498 3 -0.370808
499 3 -0.623252
500 3 0.270109
501 3 -0.425734
502 3 -0.067927
503 3 -0.318916
504 3 -0.641299
505 3 -0.077209
506 3 -0.000000
507 3 -1.084014
508 3 -0.548843
509 3 0.000000
510 3 0.175253
511 3 -0.599838
512 3 -0.684641
513 3 0.031765
514 3 -0.160151
515 3 0.405754
516 3 -0.874123
517 3 -0.678005
518 3 0.072763
519 3 -0.090731
520 3 -1.311642
521 3 -0.301744
522 3 0.000000
523 3 0.266110
524 3 0.023018
525 3 -0.220604
526 3 -0.657103
527 3 0.000000
528 3 -0.554985
529 3 -0.628472
530 3 -0.136722
531 3 -0.668613
532 3 0.020351
533 3 -0.694327
534 3 -0.639309
535 3 -0.670331
536 3 0.008720
537 3 -0.167655
538 3 -0.000000
539 3 0.255209
540 3 0.345055
541 3 0.405549
542 3 -0.205528
543 3 -0.266539
544 3 -0.302599
545 3 -0.517566
546 3 -0.803306
547 3 -0.039082
548 3 0.761006
549 3 -0.242258
550 3 -0.056039
551 3 -0.737019
552 3 -0.058537
553 3 0.172885
554 3 -0.128632
555 3 -0.052662
556 3 -1.122887
557 3 -0.000000
558 3 -0.357245
559 3 -0.716852
560 3 -0.610812
561 3 -0.085135
562 3 -1.109762
563 3 1.293491
564 3 0.138705
565 3 -0.313576
566 3 -0.000000
567 3 0.307752
568 3 0.056834
569 3 0.384367
570 3 -0.731667
571 3 0.461194
572 3 0.000000
573 3 -0.049835
574 3 0.633207
575 3 -0.779023
576 3 -1.806905
577 3 0.588676
578 3 -0.522927
579 3 0.065718
580 3 -0.699589
581 3 -0.228477
582 3 -0.000000
583 3 -0.256985
584 3 -0.239078
585 3 -0.000000
586 3 -0.045654
587 3 -1.068720
588 3 -0.055523
589 3 0.835162
590 3 -1.025004
591 3 -0.323370
592 3 0.852025
593 3 -0.636077
594 3 -0.016854
595 3 -0.000000
596 3 0.445492
597 3 -0.296945
598 3 -0.313437
599 3 -0.059280
600 3 -0.060159
601 3 0.616919
602 3 -1.113258
603 3 -0.710233
604 3 -0.000000
605 3 -0.494411
606 3 -0.109756
607 3 -0.701727
608 3 -0.091054
609 3 -0.000000
610 3 0.617345
611 3 -0.446465
612 3 -1.074573
613 3 -0.150774
614 3 -0.122575
615 3 0.362565
616 3 0.106581
617 3 -0.466987
618 3 0.315359
619 3 -0.000000
620 3 -0.000000
621 3 -0.518646
622 3 0.000000
623 3 -0.716606
624 3 0.073747
625 3 0.307631
626 3 -0.523322
627 3 0.000000
628 3 -0.500502
629 3 0.745466
630 3 -0.712091
631 3 0.097738
632 3 -0.351377
633 3 -0.699896
634 3 -0.572585
635 3 -0.569518
636 3 -0.427810
637 3 0.320405
638 3 -0.585778
639 3 -0.524374
640 3 -0.209846
641 3 0.376768
642 3 -0.080371
643 3 -0.081199
644 3 -0.496658
645 3 -0.402578
646 3 0.589663
647 3 -0.337582
648 3 -0.481423
649 3 -0.220665
650 3 -0.218698
651 3 -0.017201
652 3 -0.000000
653 3 -0.906314
654 3 0.261288
655 3 -0.742517
656 3 0.525576
657 3 -0.229702
658 3 -0.369611
659 3 -0.440383
660 3 -0.388573
661 3 -0.456250
662 3 -0.440240
663 3 -0.231676
664 3 0.474885
665 3 -0.369429
666 3 -0.256758
667 3 -1.133302
668 3 -0.719495
669 3 0.803625
670 3 -0.728849
671 3 -0.233289
672 3 -0.844545
673 3 0.936209
674 3 0.000000
675 3 -0.000000
676 3 -0.090634
677 3 -0.389900
678 3 -0.311093
679 3 -0.939031
680 3 -0.765006
681 3 -0.000000
682 3 -0.930497
683 3 -0.277443
684 3 -0.515614
685 3 -0.180603
686 3 0.065294
687 3 -0.423129
688 3 0.108182
689 3 0.427155
690 3 -0.533913
691 3 -0.000000
692 3 0.247852
693 3 0.079601
694 3 -0.000000
695 3 -0.612781
696 3 -0.089300
697 3 0.780459
698 3 0.225245
699 3 0.049428
700 3 -0.071290
701 3 -0.491475
702 3 -0.332329
703 3 0.110181
704 3 -0.887994
705 3 0.683835
706 3 0.217104
707 3 -0.372205
708 3 0.365284
709 3 -1.092964
710 3 0.000000
711 3 0.340103
712 3 -1.083094
713 3 0.519086
714 3 -0.511096
715 3 -1.131914
716 3 -0.756786
717 3 1.129646
718 3 -0.000000
719 3 0.000000
720 3 -0.224825
721 3 0.182457
722 3 -1.365723
723 3 0.656631
724 3 -0.008608
725 3 -0.085913
726 3 -0.000000
727 3 -0.569564
728 3 -0.510809
729 3 -0.196233
730 3 -0.579219
731 3 -1.207057
732 3 0.000000
733 3 -1.070401
734 3 0.276178
735 3 0.000000
736 3 -0.783867
737 3 -0.000000
738 3 -0.000182
739 3 0.335082
740 3 -1.392221
741 3 -0.747219
742 3 0.075293
743 3 0.000000
744 3 -0.337219
745 3 0.413796
746 3 -0.170640
747 3 0.034784
748 3 0.000000
749 3 0.869458
750 3 1.265842
751 3 -0.543571
752 3 -0.239629
753 3 -0.144223
754 3 0.569790
755 3 0.861624
756 3 -0.000000
757 3 -0.000000
758 3 0.166374
759 3 0.293554
760 3 0.552134
761 3 -0.265409
762 3 0.593606
763 3 -0.122686
764 3 0.000000
765 3 -0.008654
766 3 0.197999
767 3 -0.041292
768 3 0.026597
769 3 0.186202
770 3 -1.220886
771 3 -1.159797
772 3 0.019298
773 3 0.217493
774 3 -0.568164
775 3 -0.691047
776 3 -0.666702
777 3 -0.235334
778 3 -0.828213
779 3 -0.133782
780 3 -0.701008
781 3 -0.031967
782 3 -0.574955
783 3 0.000000
784 3 -0.000000
785 3 0.311621
786 3 0.087100
787 3 0.000000
788 3 0.000000
789 3 -0.590027
790 3 -0.476527
791 3 0.631064
792 3 -0.102037
793 3 -0.551774
794 3 0.561720
795 3 -0.001144
796 3 -0.028323
797 3 -0.000375
798 3 0.322256
799 3 0.000000
0 4 -0.248238
1 4 0.118620
2 4 0.148673
3 4 0.053689
4 4 -0.466558
5 4 -0.185353
6 4 -0.258196
7 4 0.273791
8 4 0.000000
9 4 -0.000000
10 4 -0.373402
11 4 0.217831
12 4 -0.016210
13 4 0.137998
14 4 -0.534612
15 4 -0.658316
16 4 0.079824
17 4 -0.000000
18 4 0.819993
19 4 -0.000000
20 4 -0.000000
21 4 -0.000000
22 4 0.160222
23 4 -0.516242
24 4 0.471262
25 4 0.000000
26 4 -0.000000
27 4 -0.185539
28 4 -0.999497
29 4 -0.379123
30 4 -0.776139
31 4 0.387932
32 4 -0.361262
33 4 -0.488866
34 4 -0.000000
35 4 0.243353
36 4 -0.130397
37 4 -0.225659
38 4 -0.000000
39 4 -0.000000
40 4 -0.367174
41 4 0.764508
42 4 0.162007
43 4 -0.707632
44 4 0.189147
45 4 -0.820927
46 4 0.000000
47 4 -0.083624
48 4 -0.767199
49 4 0.025184
50 4 0.237922
51 4 0.000000
52 4 0.326882
53 4 -0.286211
54 4 0.643428
55 4 0.000000
56 4 -0.192008
57 4 -0.583297
58 4 -1.082572
59 4 -0.000000
60 4 0.455205
61 4 0.150299
62 4 0.043955
63 4 -0.000000
64 4 0.348447
65 4 -0.353855
66 4 -0.169458
67 4 0.263274
68 4 0.025210
69 4 -0.820213
70 4 -0.016952
71 4 -0.568658
72 4 -0.115532
73 4 -0.719563
74 4 -0.000000
75 4 0.293736
76 4 -0.288917
77 4 -0.743717
78 4 -1.134623
79 4 -0.614496
80 4 -0.493609
81 4 0.000000
82 4 -0.000000
83 4 -0.142468
84 4 -0.000000
85 4 -0.757595
86 4 -0.210814
87 4 0.185271
88 4 -0.000000
89 4 0.075436
90 4 0.037972
91 4 -0.552048
92 4 -0.000000
93 4 -0.199577
94 4 0.257259
95 4 -0.248793
96 4 0.331181
97 4 0.114707
98 4 -0.000000
99 4 -0.403442
100 4 -0.288368
101 4 -1.253093
102 4 -0.079696
103 4 -0.663486
104 4 0.465887
105 4 -0.325567
106 4 -0.945671
107 4 -1.217286
108 4 -0.251058
109 4 -0.586820
110 4 -0.146968
111 4 -0.274093
112 4 -0.952681
113 4 0.218561
114 4 0.228604
115 4 0.395450
116 4 0.758034
117 4 -0.179223
118 4 -0.741928
119 4 -0.000000
120 4 -0.000000
121 4 0.552488
122 4 0.197136
123 4 -0.137304
124 4 -0.170556
125 4 -0.614032
126 4 0.019148
127 4 0.115495
128 4 0.441277
129 4 0.548705
130 4 -0.077310
131 4 0.082103
132 4 -0.006302
133 4 0.436217
134 4 0.000000
135 4 0.107649
136 4 -0.244048
137 4 -0.000000
138 4 -0.140233
139 4 1.067205
140 4 0.132717
141 4 -0.326107
142 4 -0.198045
143 4 -0.392411
144 4 -0.542761
145 4 0.277286
146 4 -0.009909
147 4 0.000000
148 4 -1.101632
149 4 0.230986
150 4 -0.000000
151 4 -0.236945
152 4 0.180208
153 4 -0.000000
154 4 1.008529
155 4 0.988885
156 4 -0.000000
157 4 0.577537
158 4 0.698556
159 4 -0.248465
160 4 0.447128
161 4 -0.000000
162 4 0.806221
163 4 -0.329497
164 4 0.039762
165 4 0.511195
166 4 0.253723
167 4 -0.401421
168 4 -0.306302
169 4 -0.792968
170 4 0.387430
171 4 -0.168544
172 4 -0.732177
173 4 -0.000000
174 4 0.163030
175 4 -0.102258
176 4 0.399151
177 4 -0.213548
178 4 0.578514
179 4 -0.241121
180 4 0.000000
181 4 -0.056109
182 4 -0.814299
183 4 -0.110754
184 4 0.000000
185 4 -0.068909
186 4 -0.474008
187 4 -0.269942
188 4 0.000000
189 4 -0.111099
190 4 0.209882
191 4 -0.059147
192 4 0.464776
193 4 -0.087781
194 4 0.277239
195 4 -0.426886
196 4 -0.176625
197 4 -0.000000
198 4 -0.480184
199 4 0.625417
200 4 -0.212914
201 4 -0.396354
202 4 0.000000
203 4 -0.026302
204 4 0.566710
205 4 0.173359
206 4 -0.878750
207 4 -0.501885
208 4 -0.501467
209 4 -0.239444
210 4 -0.412314
211 4 -1.244376
212 4 0.657853
213 4 0.377519
214 4 0.357441
215 4 0.000000
216 4 -0.782393
217 4 -0.000000
218 4 -0.946492
219 4 0.813249
220 4 -0.417110
221 4 0.218823
222 4 -0.000000
223 4 -0.000000
224 4 -0.101274
225 4 -0.359168
226 4 -0.336990
227 4 -1.356814
228 4 0.000000
229 4 0.589381
230 4 0.000000
231 4 0.575538
232 4 -0.188217
233 4 -0.154150
234 4 -0.197957
235 4 -0.247911
236 4 -1.210243
237 4 0.025743
238 4 -0.542844
239 4 -0.990830
240 4 -0.396279
241 4 -0.715154
242 4 -0.611085
243 4 0.000000
244 4 -0.315833
245 4 0.552710
246 4 0.193754
247 4 -0.113183
248 4 -0.129033
249 4 0.338960
250 4 -0.288289
251 4 0.105162
252 4 0.000000
253 4 -0.000000
254 4 0.424976
255 4 -0.248546
256 4 0.000000
257 4 -0.589998
258 4 -0.000000
259 4 -0.761102
260 4 0.633818
261 4 -0.000000
262 4 0.475180
263 4 -0.002198
264 4 -0.197648
265 4 0.498398
266 4 0.000000
267 4 -0.354279
268 4 0.247961
269 4 -0.589736
270 4 0.353651
271 4 0.000000
272 4 -0.362202
273 4 -1.053761
274 4 -0.211872
275 4 -0.000000
276 4 -0.059748
277 4 0.000000
278 4 -0.048296
279 4 0.578216
280 4 -0.534720
281 4 0.243498
282 4 -0.000000
283 4 0.182241
284 4 -0.024325
285 4 -0.447898
286 4 -0.000000
287 4 -0.136501
288 4 -0.214519
289 4 -0.547754
290 4 0.189127
291 4 -0.757500
292 4 -0.014528
293 4 -0.199344
294 4 -0.305962
295 4 0.000000
296 4 -0.407171
297 4 -0.000000
298 4 -0.390968
299 4 -0.065644
300 4 -0.190135
301 4 -0.075031
302 4 -0.378037
303 4 -0.023550
304 4 0.423612
305 4 -0.296884
306 4 -0.076675
307 4 -0.074457
308 4 1.239492
309 4 0.153922
310 4 -0.603013
311 4 -0.143358
312 4 0.377594
313 4 0.394917
314 4 0.000000
315 4 0.382022
316 4 -0.617671
317 4 0.296433
318 4 -0.068521
319 4 0.985924
320 4 -0.521012
321 4 -0.444903
322 4 0.296520
323 4 -0.000000
324 4 -0.000000
325 4 -0.277672
326 4 0.282324
327 4 -0.501668
328 4 -0.157787
329 4 -0.035474
330 4 0.000000
331 4 -0.085167
332 4 -0.283062
333 4 -0.991620
334 4 -0.566631
335 4 -0.000000
336 4 -0.000000
337 4 -0.181178
338 4 -0.132615
339 4 -0.146567
340 4 1.274589
341 4 0.012945
342 4 -0.000000
343 4 0.000000
344 4 -0.336115
345 4 -0.000000
346 4 0.480010
347 4 -0.688116
348 4 0.068446
349 4 0.679494
350 4 -0.058919
351 4 0.777224
352 4 -0.593336
353 4 -0.949415
354 4 0.581496
355 4 -0.420104
356 4 -0.217757
357 4 -0.188153
358 4 -0.000000
359 4 0.832599
360 4 -0.551187
361 4 -0.072352
362 4 0.255155
363 4 -0.272470
364 4 -0.596125
365 4 -0.000000
366 4 -0.000000
367 4 -0.000000
368 4 -0.026513
369 4 -0.000000
370 4 0.000000
371 4 -0.493596
372 4 -0.439622
373 4 -0.000000
374 4 0.585025
375 4 0.558633
376 4 -0.048134
377 4 0.277618
378 4 0.144845
379 4 -0.037783
380 4 -0.211531
381 4 0.244467
382 4 -0.173423
383 4 -0.299582
384 4 -0.155969
385 4 0.060962
386 4 -0.074619
387 4 -0.396299
388 4 0.466247
389 4 0.304024
390 4 -0.128791
391 4 -0.156027
392 4 0.000000
393 4 -0.349434
394 4 0.134691
395 4 -0.331095
396 4 -0.099410
397 4 -0.341610
398 4 0.000000
399 4 0.334941
400 4 -0.812245
401 4 -0.000000
402 4 -0.363871
403 4 -0.470188
404 4 0.066621
405 4 -0.795692
406 4 0.277457
407 4 0.200121
408 4 -0.176053
409 4 0.274747
410 4 -0.607871
411 4 -0.209564
412 4 -0.000000
413 4 0.084450
414 4 0.261515
415 4 -0.000000
416 4 0.701028
417 4 0.000000
418 4 -0.338694
419 4 0.470520
420 4 -0.223571
421 4 -0.191247
422 4 0.662326
423 4 -0.000000
424 4 -0.887064
425 4 0.343645
426 4 -0.431446
427 4 -0.612170
428 4 -0.606335
429 4 -0.000000
430 4 0.686608
431 4 -0.080972
432 4 -0.687508
433 4 0.100566
434 4 -0.298227
435 4 0.000000
436 4 0.361837
437 4 -0.062436
438 4 0.000000
439 4 -0.210485
440 4 -0.312542
441 4 -0.000000
442 4 -0.000000
443 4 -1.351310
444 4 0.125997
445 4 -0.112396
446 4 -0.040712
447 4 -0.216769
448 4 -0.292702
449 4 0.051549
450 4 -0.325643
451 4 -0.468190
452 4 -0.347523
453 4 -0.177130
454 4 0.304349
455 4 -0.000000
456 4 0.113243
457 4 -0.560683
458 4 0.000000
459 4 -0.484988
460 4 0.035257
461 4 0.000000
462 4 -0.430114
463 4 -0.789510
464 4 -0.000000
465 4 0.372291
466 4 -1.195243
467 4 -0.345528
468 4 -0.228583
469 4 -0.071089
470 4 0.000000
471 4 -0.000000
472 4 -0.463638
473 4 -0.339306
474 4 -0.233447
475 4 0.000000
476 4 0.207304
477 4 -0.744179
478 4 -0.272037
479 4 0.697525
480 4 1.128690
481 4 0.101498
482 4 -0.017071
483 4 -0.844178
484 4 0.245428
485 4 -0.250616
486 4 0.319996
487 4 0.035816
488 4 0.389454
489 4 -0.000000
490 4 -0.000000
491 4 -0.091053
492 4 -0.617404
493 4 0.347198
494 4 -0.344119
495 4 0.293260
496 4 -0.166374
497 4 -0.068988
498 4 -0.840537
499 4 -0.311484
500 4 0.423548
501 4 -0.059767
502 4 0.936693
503 4 0.165438
504 4 -0.365023
505 4 0.271654
506 4 -0.000000
507 4 -0.272911
508 4 0.306606
509 4 0.000000
510 4 0.741763
511 4 -0.234747
512 4 0.156649
513 4 0.054994
514 4 -0.149170
515 4 0.487323
516 4 0.147217
517 4 -0.840901
518 4 -1.309113
519 4 0.540173
520 4 -0.554681
521 4 -0.053987
522 4 0.000000
523 4 -0.582357
524 4 -0.342728
525 4 0.090955
526 4 -0.733419
527 4 -0.000000
528 4 0.237954
529 4 -0.000197
530 4 -0.506720
531 4 -0.276140
532 4 0.475814
533 4 -0.113377
534 4 -1.038045
535 4 0.020367
536 4 -0.280675
537 4 -0.585917
538 4 -0.000000
539 4 0.012068
540 4 -0.033382
541 4 -1.112812
542 4 -0.223451
543 4 -0.078488
544 4 -0.618327
545 4 -0.437836
546 4 -0.270009
547 4 0.000000
548 4 0.063104
549 4 -0.614885
550 4 0.592772
551 4 0.372187
552 4 -0.034497
553 4 0.148503
554 4 -0.105791
555 4 0.505822
556 4 0.137737
557 4 0.000000
558 4 0.497810
559 4 0.092858
560 4 -0.081992
561 4 -0.123241
562 4 0.678746
563 4 0.250109
564 4 0.521646
565 4 -0.087038
566 4 -0.000000
567 4 0.474920
568 4 -0.240838
569 4 -0.266573
570 4 0.142638
571 4 -0.450369
572 4 0.000000
573 4 0.214831
574 4 -0.574218
575 4 0.768683
576 4 0.214218
577 4 -0.399944
578 4 -0.102760
579 4 -0.717659
580 4 -0.075304
581 4 0.149311
582 4 0.000000
583 4 -0.320744
584 4 -1.337263
585 4 0.000000
586 4 0.091279
587 4 0.150647
588 4 0.382115
589 4 0.067392
590 4 0.779447
591 4 -0.361528
592 4 0.191883
593 4 -0.712068
594 4 -0.000000
595 4 -0.000000
596 4 -0.518776
597 4 -0.268537
598 4 -0.216624
599 4 -0.319720
600 4 -0.452895
601 4 -0.816606
602 4 0.593278
603 4 0.889933
604 4 -0.000000
605 4 -0.552919
606 4 0.248760
607 4 -0.798619
608 4 -0.693772
609 4 0.000000
610 4 0.535243
611 4 -0.353083
612 4 -0.252144
613 4 -0.265968
614 4 -0.379244
615 4 -0.726669
616 4 -1.200993
617 4 1.352704
618 4 -0.242028
619 4 -0.000000
620 4 -0.000000
621 4 -0.388530
622 4 0.000000
623 4 0.157369
624 4 -0.435850
625 4 -0.118837
626 4 -0.380610
627 4 0.000000
628 4 -0.170838
629 4 1.209363
630 4 0.378349
631 4 0.408681
632 4 -0.251939
633 4 0.270179
634 4 0.194575
635 4 -0.166165
636 4 0.059961
637 4 -0.249506
638 4 -0.453774
639 4 -0.143864
640 4 -0.365765
641 4 0.093739
642 4 -0.055789
643 4 -0.700693
644 4 -0.601035
645 4 -0.386037
646 4 0.382312
647 4 -0.181613
648 4 0.050615
649 4 -0.384508
650 4 -0.405679
651 4 -0.125097
652 4 -0.000000
653 4 0.016914
654 4 -0.168702
655 4 -0.030386
656 4 -0.304504
657 4 0.852279
658 4 0.589425
659 4 -0.076452
660 4 -0.037911
661 4 -0.199932
662 4 -0.155794
663 4 0.287280
664 4 -0.662933
665 4 -0.424729
666 4 -0.274198
667 4 0.634186
668 4 -0.222581
669 4 0.069982
670 4 0.218663
671 4 -0.426651
672 4 -0.523399
673 4 -0.420872
674 4 0.000000
675 4 0.000000
676 4 0.212455
677 4 0.056985
678 4 0.517242
679 4 -0.107492
680 4 -0.296856
681 4 0.000000
682 4 0.625955
683 4 -0.356552
684 4 0.104330
685 4 -0.106517
686 4 -0.670661
687 4 0.382267
688 4 0.023635
689 4 -0.236656
690 4 -0.563554
691 4 -0.000000
692 4 0.293221
693 4 -0.075852
694 4 -0.000000
695 4 -0.353779
696 4 0.368261
697 4 0.314494
698 4 -1.243577
699 4 -0.481850
700 4 -0.000000
701 4 -1.024285
702 4 0.012618
703 4 -0.959451
704 4 0.222960
705 4 0.026469
706 4 -0.531237
707 4 0.313595
708 4 -0.381266
709 4 -0.077350
710 4 0.000000
711 4 -0.162591
712 4 -0.037436
713 4 0.833448
714 4 0.464880
715 4 0.185885
716 4 -0.387207
717 4 -0.518144
718 4 -0.000000
719 4 -0.000000
720 4 -0.462981
721 4 -0.797335
722 4 0.276658
723 4 -0.320679
724 4 0.092293
725 4 0.401840
726 4 -0.000000
727 4 0.297825
728 4 -0.634240
729 4 -0.083765
730 4 -0.002696
731 4 -0.368807
732 4 0.000000
733 4 0.748381
734 4 -0.471021
735 4 0.000000
736 4 0.060983
737 4 -0.000000
738 4 -0.000000
739 4 0.999638
740 4 -1.121333
741 4 -0.310645
742 4 0.027153
743 4 0.000000
744 4 -0.136451
745 4 -0.325186
746 4 -0.159859
747 4 -0.644465
748 4 -0.000000
749 4 0.102571
750 4 0.733510
751 4 -0.101488
752 4 -0.382481
753 4 -0.146964
754 4 0.408546
755 4 0.167693
756 4 0.000000
757 4 -0.000000
758 4 0.450373
759 4 -1.113405
760 4 -0.763991
761 4 -0.094631
762 4 0.673534
763 4 -0.181395
764 4 0.000000
765 4 -0.169587
766 4 0.174136
767 4 -1.059972
768 4 0.291003
769 4 0.183424
770 4 -0.445493
771 4 -0.175150
772 4 -0.402150
773 4 0.491135
774 4 0.425779
775 4 -0.658244
776 4 0.691218
777 4 -0.566919
778 4 -0.729597
779 4 -0.154349
780 4 0.676946
781 4 -0.000000
782 4 -0.484643
783 4 0.000000
784 4 -0.000000
785 4 0.846016
786 4 -0.136205
787 4 -0.000000
788 4 -0.000000
789 4 0.128100
790 4 -0.079188
791 4 -0.775299
792 4 0.027335
793 4 -0.123302
794 4 0.771230
795 4 -0.000000
796 4 -0.018332
797 4 0.000000
798 4 -0.699852
799 4 -0.000000
0 5 -0.906123
1 5 -0.280461
2 5 0.534490
3 5 -0.258803
4 5 -0.855069
5 5 0.217764
6 5 -0.101980
7 5 -0.894611
8 5 -0.000000
9 5 -0.421823
10 5 0.043133
11 5 -0.699681
12 5 -0.115506
13 5 -0.114660
14 5 -0.254394
15 5 -0.322114
16 5 -0.364185
17 5 -0.000000
18 5 0.018427
19 5 -0.000000
20 5 -0.000000
21 5 -0.000000
22 5 -0.177517
23 5 0.082044
24 5 -0.047016
25 5 -0.000000
26 5 0.000000
27 5 0.032665
28 5 -0.045327
29 5 0.448494
30 5 -0.177556
31 5 0.625221
32 5 -0.264243
33 5 0.090564
34 5 -0.000000
35 5 -0.414134
36 5 -0.025216
37 5 -0.325785
38 5 -0.000000
39 5 -0.000000
40 5 -0.214181
41 5 0.389861
42 5 -0.310187
43 5 -0.093290
44 5 -1.153825
45 5 -0.336151
46 5 0.000000
47 5 -0.956128
48 5 0.458055
49 5 0.353133
50 5 0.063161
51 5 0.000000
52 5 -0.519083
53 5 -0.617209
54 5 0.122100
55 5 0.000000
56 5 0.490232
57 5 -0.840073
58 5 -0.025989
59 5 -0.000000
60 5 -0.251520
61 5 -0.269515
62 5 -0.778309
63 5 -0.000000
64 5 -0.319821
65 5 0.430185
66 5 0.053494
67 5 0.452139
68 5 -0.631686
69 5 -0.231208
70 5 0.170043
71 5 -0.316512
72 5 -0.135224
73 5 -0.560111
74 5 -0.000000
75 5 -1.007263
76 5 -1.018555
77 5 0.065437
78 5 -0.335771
79 5 0.309492
80 5 -0.041714
81 5 -0.000000
82 5 -0.000000
83 5 -0.098162
84 5 0.000000
85 5 0.028313
86 5 0.198184
87 5 0.768442
88 5 0.000000
89 5 -0.727308
90 5 -0.012059
91 5 -0.046098
92 5 -0.000000
93 5 -0.019704
94 5 -0.168665
95 5 -0.236998
96 5 0.221939
97 5 -0.029467
98 5 0.000000
99 5 -0.657273
100 5 -0.292433
101 5 -0.638650
102 5 -0.431174
103 5 -0.401441
104 5 -0.178274
105 5 0.628363
106 5 -0.573745
107 5 -0.425478
108 5 -0.249187
109 5 -0.140942
110 5 -0.618251
111 5 -0.426854
112 5 0.091735
113 5 -0.362814
114 5 -0.210847
115 5 -0.124253
116 5 -0.561187
117 5 -0.278759
118 5 -0.160592
119 5 0.000000
120 5 -0.000000
121 5 0.062696
122 5 -0.796488
123 5 -0.370878
124 5 0.783278
125 5 -0.075232
126 5 -0.173132
127 5 -0.082553
128 5 0.169117
129 5 -0.122448
130 5 -0.530383
131 5 -0.592397
132 5 0.239257
133 5 -0.239399
134 5 -0.000000
135 5 0.248491
136 5 -0.131549
137 5 -0.185525
138 5 -0.770819
139 5 -0.357044
140 5 -0.093150
141 5 0.014608
142 5 -0.400219
143 5 0.810049
144 5 -0.111194
145 5 -0.214623
146 5 -0.209328
147 5 -0.000000
148 5 -0.073968
149 5 -0.126214
150 5 -0.318082
151 5 -0.289107
152 5 -0.384641
153 5 -0.000000
154 5 0.498983
155 5 0.222189
156 5 0.000000
157 5 -0.528933
158 5 0.461768
159 5 0.094500
160 5 -0.570278
161 5 0.142685
162 5 0.413450
163 5 -0.187283
164 5 -0.542310
165 5 0.279466
166 5 0.305641
167 5 -0.186029
168 5 0.528469
169 5 0.183303
170 5 0.822490
171 5 -0.108874
172 5 -0.002870
173 5 0.033071
174 5 -0.546174
175 5 0.683693
176 5 0.492487
177 5 1.036803
178 5 -0.457509
179 5 0.009680
180 5 -0.000000
181 5 -0.187498
182 5 -0.312472
183 5 0.035836
184 5 0.000000
185 5 0.254381
186 5 0.072186
187 5 -0.245898
188 5 -0.000000
189 5 -0.198841
190 5 -0.082173
191 5 -0.316927
192 5 -0.677759
193 5 -0.760895
194 5 -1.023899
195 5 0.160297
196 5 -0.098787
197 5 -0.000000
198 5 -0.061518
199 5 -0.138893
200 5 -0.179710
201 5 -0.396354
202 5 0.000000
203 5 0.386252
204 5 -0.201911
205 5 -0.434308
206 5 -0.640515
207 5 -1.103119
208 5 -0.157575
209 5 0.016597
210 5 -0.158531
211 5 -0.463540
212 5 -0.366824
213 5 -0.251920
214 5 -0.334011
215 5 -0.000000
216 5 -0.469952
217 5 0.000000
218 5 0.264872
219 5 -0.591679
220 5 0.231448
221 5 0.141927
222 5 0.350429
223 5 0.000000
224 5 -0.098688
225 5 -0.001388
226 5 0.448037
227 5 -0.088819
228 5 -0.000000
229 5 -0.437494
230 5 -0.269974
231 5 -0.438834
232 5 -0.547680
233 5 -0.175230
234 5 -0.165364
235 5 0.119398
236 5 -0.347059
237 5 -0.000946
238 5 -0.184112
239 5 -0.597386
240 5 0.233826
241 5 -0.117563
242 5 -0.241108
243 5 -0.000000
244 5 -0.767286
245 5 -0.116007
246 5 0.094470
247 5 -0.236075
248 5 -0.252250
249 5 -1.131506
250 5 -0.251535
251 5 -0.347196
252 5 0.000000
253 5 0.382406
254 5 -1.215061
255 5 -0.739944
256 5 -0.000000
257 5 -0.192605
258 5 0.000000
259 5 0.119246
260 5 -0.252873
261 5 0.000000
262 5 -0.568009
263 5 0.043555
264 5 -0.565539
265 5 -0.400399
266 5 -0.000000
267 5 -0.445487
268 5 -0.907997
269 5 -0.162385
270 5 0.174483
271 5 -0.000000
272 5 0.066672
273 5 -0.327759
274 5 -0.070926
275 5 -0.000000
276 5 -0.186019
277 5 -0.000000
278 5 -0.373865
279 5 -0.106767
280 5 -0.644362
281 5 -0.645221
282 5 -0.000000
283 5 -0.101432
284 5 -0.574247
285 5 0.347833
286 5 0.000000
287 5 -0.004504
288 5 -0.523939
289 5 -0.219365
290 5 -0.507292
291 5 -0.517066
292 5 0.732069
293 5 -0.478601
294 5 0.732952
295 5 -0.488686
296 5 0.351270
297 5 -0.000000
298 5 -0.242218
299 5 -0.313828
300 5 0.151665
301 5 -0.241073
302 5 0.005823
303 5 -0.739073
304 5 1.010894
305 5 -0.501141
306 5 -0.099565
307 5 -0.147881
308 5 0.225889
309 5 -0.066410
310 5 -0.706463
311 5 -0.163193
312 5 0.733281
313 5 -0.045623
314 5 -0.000000
315 5 0.271178
316 5 -0.029412
317 5 -0.287321
318 5 0.031712
319 5 -0.418430
320 5 -0.100785
321 5 -0.645944
322 5 -0.091790
323 5 0.000000
324 5 -0.481251
325 5 -0.153622
326 5 -0.415985
327 5 -0.130933
328 5 0.235856
329 5 -0.089258
330 5 -0.000000
331 5 -0.534383
332 5 -0.582765
333 5 -0.372862
334 5 0.164655
335 5 -0.783954
336 5 0.743623
337 5 -0.210246
338 5 -0.301692
339 5 0.247799
340 5 -0.557187
341 5 -0.260176
342 5 -0.000000
343 5 -0.000000
344 5 -0.870285
345 5 -0.000000
346 5 -0.425260
347 5 -0.771271
348 5 0.076588
349 5 0.026320
350 5 0.002680
351 5 0.104304
352 5 0.084468
353 5 -1.035657
354 5 -0.028951
355 5 0.174505
356 5 -0.232968
357 5 -0.165702
358 5 -0.000000
359 5 1.049708
360 5 0.121209
361 5 -0.298605
362 5 -0.070777
363 5 -0.414737
364 5 -0.383690
365 5 -0.000000
366 5 -0.000000
367 5 -0.000000
368 5 0.542118
369 5 -0.000000
370 5 -0.000000
371 5 -0.309312
372 5 0.156378
373 5 0.000000
374 5 -0.004228
375 5 -0.736955
376 5 0.360924
377 5 0.335424
378 5 -0.060611
379 5 -0.527225
380 5 0.687999
381 5 -0.202030
382 5 -0.502926
383 5 -0.053563
384 5 -0.224032
385 5 1.140323
386 5 -0.198528
387 5 -0.366740
388 5 -0.748038
389 5 -0.205731
390 5 0.218889
391 5 0.305904
392 5 -0.000000
393 5 -0.051278
394 5 -0.297284
395 5 -0.236912
396 5 -0.036002
397 5 -0.198790
398 5 -0.000000
399 5 -0.378500
400 5 -0.556278
401 5 0.000000
402 5 -0.004164
403 5 -0.210049
404 5 -0.730065
405 5 -0.254093
406 5 0.202115
407 5 0.398769
408 5 -0.285207
409 5 -0.329441
410 5 -0.259807
411 5 0.600076
412 5 0.000000
413 5 -0.319394
414 5 0.145364
415 5 0.000000
416 5 -0.458626
417 5 0.000000
418 5 -0.523302
419 5 -0.237502
420 5 0.061592
421 5 0.028847
422 5 -0.419320
423 5 -0.000000
424 5 0.442631
425 5 0.161931
426 5 -0.151615
427 5 -0.723892
428 5 -0.550600
429 5 -0.000000
430 5 -0.082950
431 5 0.092373
432 5 -0.483304
433 5 0.754203
434 5 0.174010
435 5 0.000000
436 5 -0.348539
437 5 0.122492
438 5 -0.000000
439 5 0.229191
440 5 -0.079660
441 5 -0.774352
442 5 0.000000
443 5 -0.023876
444 5 -0.520615
445 5 0.086941
446 5 1.032941
447 5 0.185677
448 5 -0.462127
449 5 -0.013540
450 5 -0.127651
451 5 0.502304
452 5 0.315815
453 5 0.192287
454 5 -0.520305
455 5 -0.000000
456 5 -0.164159
457 5 -0.324108
458 5 -0.000000
459 5 -0.005523
460 5 -0.416217
461 5 0.000000
462 5 -0.357677
463 5 0.335629
464 5 -0.000000
465 5 0.326505
466 5 -0.036342
467 5 -0.580129
468 5 -0.267714
469 5 -0.197791
470 5 -0.000000
471 5 -0.040365
472 5 -0.473772
473 5 -0.269349
474 5 -0.245772
475 5 -0.537662
476 5 -0.684316
477 5 -0.037588
478 5 0.565087
479 5 -0.708961
480 5 -0.114449
481 5 -0.008528
482 5 -0.943380
483 5 -0.234551
484 5 0.011925
485 5 0.290880
486 5 -0.838283
487 5 0.429920
488 5 -0.572339
489 5 -0.000000
490 5 -0.000000
491 5 -0.437550
492 5 0.616123
493 5 0.022808
494 5 0.772628
495 5 -0.624569
496 5 0.633624
497 5 -0.789437
498 5 -0.474070
499 5 -0.153693
500 5 0.821506
501 5 0.021822
502 5 0.051792
503 5 -0.426570
504 5 0.138755
505 5 -0.545115
506 5 0.000000
507 5 0.030268
508 5 0.016380
509 5 -0.000000
510 5 -0.819057
511 5 -0.075121
512 5 -0.850365
513 5 0.033335
514 5 -0.295460
515 5 -0.219806
516 5 0.391475
517 5 0.253156
518 5 -0.442291
519 5 0.294085
520 5 -0.568527
521 5 -0.458086
522 5 -0.000000
523 5 0.230172
524 5 -0.207820
525 5 -0.117454
526 5 -0.431263
527 5 -0.000000
528 5 -0.980881
529 5 -0.056237
530 5 0.283760
531 5 -0.294868
532 5 -0.723599
533 5 0.765083
534 5 -0.201544
535 5 0.371323
536 5 -0.520037
537 5 -0.476318
538 5 -0.000000
539 5 -0.186370
540 5 -0.236414
541 5 -0.963970
542 5 -0.364983
543 5 0.577289
544 5 -0.328528
545 5 -0.221449
546 5 -0.150494
547 5 -0.859270
548 5 -0.242132
549 5 0.122488
550 5 -0.344035
551 5 -0.534687
552 5 -0.388598
553 5 -1.111157
554 5 0.173853
555 5 0.646108
556 5 -0.291053
557 5 0.000000
558 5 -0.842840
559 5 -0.435118
560 5 -0.127547
561 5 0.319072
562 5 0.435239
563 5 -0.226132
564 5 -0.283674
565 5 -0.487371
566 5 0.000000
567 5 -0.623030
568 5 -0.399985
569 5 0.091744
570 5 -0.400039
571 5 0.047877
572 5 0.000000
573 5 0.178651
574 5 -0.284302
575 5 -0.434315
576 5 -0.110086
577 5 -0.591034
578 5 -0.064966
579 5 0.316249
580 5 -0.357039
581 5 0.420636
582 5 -0.000000
583 5 -0.090210
584 5 -0.226108
585 5 0.000000
586 5 0.271131
587 5 -0.323160
588 5 -0.628779
589 5 0.815258
590 5 -0.851151
591 5 0.538438
592 5 -0.339521
593 5 -0.104648
594 5 -0.860649
595 5 -0.000000
596 5 -0.382554
597 5 0.030108
598 5 -0.113339
599 5 0.267372
600 5 0.095186
601 5 -0.714763
602 5 0.111137
603 5 0.091119
604 5 0.000000
605 5 -0.411514
606 5 -0.623313
607 5 -0.775505
608 5 -0.294735
609 5 0.000000
610 5 0.249027
611 5 -0.603345
612 5 -0.459285
613 5 -0.532751
614 5 -0.155065
615 5 0.125304
616 5 -0.574408
617 5 -0.694973
618 5 -0.300231
619 5 0.000000
620 5 -0.361696
621 5 -0.318720
622 5 -0.000000
623 5 1.072659
624 5 -0.510118
625 5 0.150350
626 5 -0.200459
627 5 0.000000
628 5 -0.017609
629 5 -0.100871
630 5 -0.278690
631 5 -0.366872
632 5 0.032194
633 5 -0.583188
634 5 -0.438729
635 5 -0.049882
636 5 -0.669295
637 5 0.239102
638 5 0.267926
639 5 -0.066217
640 5 -0.091500
641 5 -0.758152
642 5 -0.544777
643 5 -0.375645
644 5 -0.066243
645 5 -0.015810
646 5 0.103943
647 5 -0.234484
648 5 -0.583070
649 5 -0.050648
650 5 -0.640561
651 5 -0.399072
652 5 -0.235427
653 5 0.051759
654 5 -0.488968
655 5 -0.068881
656 5 -0.333804
657 5 -0.665117
658 5 -0.936930
659 5 -0.004298
660 5 -0.122607
661 5 -0.613799
662 5 -0.721787
663 5 -0.371068
664 5 0.261788
665 5 0.262137
666 5 -0.592685
667 5 -0.194685
668 5 0.817087
669 5 0.805497
670 5 -0.068690
671 5 0.153518
672 5 -0.283928
673 5 0.680963
674 5 -0.000000
675 5 0.000000
676 5 -0.133864
677 5 -0.361047
678 5 0.586900
679 5 -0.212411
680 5 -0.820156
681 5 -0.000000
682 5 -0.683639
683 5 -0.436662
684 5 -0.149282
685 5 -0.163826
686 5 -0.079374
687 5 -0.270631
688 5 -0.042187
689 5 -0.812671
690 5 0.411770
691 5 0.000000
692 5 -1.202582
693 5 0.217206
694 5 -0.000000
695 5 -0.169618
696 5 -0.618184
697 5 -0.464100
698 5 0.213241
699 5 -0.197087
700 5 -0.456286
701 5 -0.164405
702 5 -0.299595
703 5 0.493205
704 5 -0.092954
705 5 -0.687113
706 5 0.297956
707 5 -0.453499
708 5 0.291654
709 5 -0.473525
710 5 0.000000
711 5 0.695448
712 5 0.140828
713 5 -0.948879
714 5 -0.635398
715 5 0.557277
716 5 0.453727
717 5 0.473378
718 5 0.000000
719 5 -0.000000
720 5 0.134116
721 5 -0.639261
722 5 -0.733279
723 5 -0.277043
724 5 -0.137283
725 5 -0.151159
726 5 0.000000
727 5 -0.005792
728 5 -0.022743
729 5 0.065314
730 5 -0.537614
731 5 -0.168227
732 5 -0.000000
733 5 -0.097155
734 5 -0.106152
735 5 0.000000
736 5 -0.488849
737 5 -0.669540
738 5 -0.497879
739 5 0.251372
740 5 0.655203
741 5 0.016331
742 5 0.356890
743 5 -0.000000
744 5 0.013057
745 5 -0.862493
746 5 -0.608494
747 5 -0.034008
748 5 0.000000
749 5 -0.560230
750 5 0.507174
751 5 -0.336653
752 5 -0.546811
753 5 0.060064
754 5 -0.993865
755 5 -0.914967
756 5 0.000000
757 5 -0.000000
758 5 -0.480558
759 5 0.125218
760 5 0.031174
761 5 0.001656
762 5 -0.109171
763 5 -0.252106
764 5 0.000000
765 5 0.317774
766 5 0.661067
767 5 -0.394120
768 5 -0.230896
769 5 -0.256213
770 5 0.501556
771 5 0.151272
772 5 0.095948
773 5 0.328761
774 5 -0.116966
775 5 -0.124790
776 5 -0.126068
777 5 0.872373
778 5 0.056474
779 5 -0.323069
780 5 -0.131099
781 5 -0.090658
782 5 -0.398767
783 5 -0.000000
784 5 0.000000
785 5 -0.603650
786 5 -0.189626
787 5 0.000000
788 5 -0.000000
789 5 -0.508366
790 5 -0.393273
791 5 0.358699
792 5 0.381688
793 5 0.385089
794 5 -0.762068
795 5 -0.026921
796 5 -0.085665
797 5 -0.756150
798 5 -0.493186
799 5 -0.000000
0 6 -0.363072
1 6 -0.363038
2 6 0.014836
3 6 -0.205359
4 6 0.006951
5 6 0.572422
6 6 -0.343413
7 6 -0.428026
8 6 0.000000
9 6 -0.000000
10 6 -0.682986
11 6 -0.334144
12 6 -0.796266
13 6 0.229343
14 6 0.373643
15 6 0.269913
16 6 0.489030
17 6 -0.000000
18 6 -0.514145
19 6 -0.000000
20 6 0.000000
21 6 0.000000
22 6 -0.569996
23 6 -0.520645
24 6 0.477881
25 6 -0.000000
26 6 0.000000
27 6 -0.073748
28 6 -0.743376
29 6 -0.493637
30 6 0.667802
31 6 0.144037
32 6 -0.217920
33 6 -0.103726
34 6 0.000000
35 6 -0.254661
36 6 0.086661
37 6 0.489237
38 6 -0.000000
39 6 0.000000
40 6 -0.046089
41 6 -0.064643
42 6 0.480280
43 6 -0.032399
44 6 -0.008749
45 6 -0.099991
46 6 -0.000000
47 6 0.254116
48 6 -0.180081
49 6 -0.033437
50 6 -0.434309
51 6 -0.000000
52 6 -0.185793
53 6 0.089420
54 6 0.300899
55 6 -0.000000
56 6 0.290031
57 6 0.144141
58 6 -0.628607
59 6 0.000000
60 6 0.597661
61 6 -0.542712
62 6 -0.225843
63 6 -0.000000
64 6 -0.419515
65 6 0.423980
66 6 -0.330586
67 6 0.130284
68 6 0.341995
69 6 -0.358039
70 6 -0.575662
71 6 -0.336306
72 6 0.613754
73 6 -0.541535
74 6 0.000000
75 6 -0.557180
76 6 0.340166
77 6 0.511274
78 6 -0.642603
79 6 -0.221447
80 6 0.484256
81 6 0.000000
82 6 0.000000
83 6 0.265525
84 6 -0.000000
85 6 -0.012802
86 6 0.035557
87 6 -0.309972
88 6 -0.000000
89 6 -0.532931
90 6 -0.072392
91 6 -0.231655
92 6 0.000000
93 6 0.104938
94 6 0.243372
95 6 0.088725
96 6 -0.242695
97 6 0.019609
98 6 0.000000
99 6 -0.251041
100 6 -0.416583
101 6 0.082397
102 6 0.310994
103 6 -0.989082
104 6 0.331858
105 6 0.554448
106 6 -0.155023
107 6 0.544048
108 6 0.283697
109 6 -0.074609
110 6 0.371201
111 6 0.018349
112 6 -0.431229
113 6 -0.699235
114 6 0.507276
115 6 -0.501362
116 6 -0.766427
117 6 -0.724859
118 6 0.096052
119 6 0.000000
120 6 0.000000
121 6 0.039487
122 6 0.717247
123 6 0.072945
124 6 -0.449051
125 6 0.032500
126 6 -0.662390
127 6 -0.257348
128 6 -0.440760
129 6 -0.603275
130 6 0.339489
131 6 -0.297243
132 6 -0.030400
133 6 0.272605
134 6 0.000000
135 6 0.562003
136 6 -0.246179
137 6 -0.000000
138 6 0.072594
139 6 0.112906
140 6 -0.008876
141 6 0.641126
142 6 0.009596
143 6 -0.437366
144 6 0.615363
145 6 0.720551
146 6 -0.179315
147 6 -0.000000
148 6 0.358938
149 6 -0.249063
150 6 -0.000000
151 6 -0.628156
152 6 0.075749
153 6 -0.000000
154 6 0.492338
155 6 -0.315349
156 6 0.000000
157 6 0.179192
158 6 0.324204
159 6 0.335365
160 6 0.378984
161 6 -0.004622
162 6 -0.327141
163 6 -0.042636
164 6 0.111763
165 6 -0.197309
166 6 0.257416
167 6 -0.111885
168 6 0.136785
169 6 0.835631
170 6 0.527972
171 6 -1.002711
172 6 0.266625
173 6 -0.000000
174 6 -0.604186
175 6 0.715587
176 6 -0.540521
177 6 -0.449814
178 6 0.152261
179 6 -0.187526
180 6 -0.000000
181 6 0.133924
182 6 0.305575
183 6 -0.038036
184 6 0.000000
185 6 -0.061999
186 6 0.191377
187 6 0.147184
188 6 -0.000000
189 6 0.117332
190 6 -0.046391
191 6 0.205665
192 6 -0.245463
193 6 -0.400336
194 6 -0.413363
195 6 -0.486800
196 6 -0.236959
197 6 -0.000000
198 6 -0.574101
199 6 -0.032256
200 6 -0.012771
201 6 0.306826
202 6 -0.000000
203 6 -0.151137
204 6 -0.786549
205 6 -0.178798
206 6 0.380921
207 6 -0.049572
208 6 0.077430
209 6 0.024824
210 6 0.961812
211 6 0.067663
212 6 0.665074
213 6 -0.503665
214 6 -0.170410
215 6 -0.000000
216 6 0.134943
217 6 0.000000
218 6 0.198304
219 6 -0.639431
220 6 -0.884519
221 6 -0.378668
222 6 -0.008876
223 6 -0.000000
224 6 0.423635
225 6 0.411900
226 6 -0.643589
227 6 -0.536610
228 6 -0.000000
229 6 -0.092486
230 6 -0.003410
231 6 0.545540
232 6 -1.068324
233 6 0.282157
234 6 0.091258
235 6 0.287215
236 6 -0.068551
237 6 -0.067927
238 6 -0.554115
239 6 -0.146734
240 6 0.346706
241 6 -0.412169
242 6 -1.038335
243 6 -0.000000
244 6 -0.826217
245 6 -0.527627
246 6 -0.052546
247 6 0.231555
248 6 0.086027
249 6 0.220284
250 6 0.495340
251 6 -0.465711
252 6 0.000000
253 6 -0.002984
254 6 -0.444722
255 6 0.723822
256 6 -0.000000
257 6 0.176810
258 6 0.000000
259 6 -0.941110
260 6 0.165697
261 6 -0.000000
262 6 0.605854
263 6 -0.008367
264 6 -0.206142
265 6 0.561462
266 6 0.000000
267 6 -0.433783
268 6 0.360967
269 6 0.115280
270 6 -0.642548
271 6 0.000000
272 6 -0.294170
273 6 -0.111217
274 6 0.150959
275 6 -0.000000
276 6 0.247076
277 6 0.000000
278 6 -0.272499
279 6 -0.901083
280 6 -0.600812
281 6 -0.518430
282 6 0.000000
283 6 -0.683225
284 6 -0.894475
285 6 0.442460
286 6 -0.000000
287 6 -1.019905
288 6 -0.631687
289 6 0.540517
290 6 -0.782963
291 6 0.633043
292 6 0.477524
293 6 0.056561
294 6 0.742612
295 6 -0.000000
296 6 0.098609
297 6 0.000000
298 6 0.002860
299 6 -0.142351
300 6 -0.420201
301 6 0.024517
302 6 0.101428
303 6 -0.043483
304 6 0.740043
305 6 -1.367127
306 6 -0.380003
307 6 0.019129
308 6 -0.750751
309 6 -0.082644
310 6 0.509739
311 6 0.172804
312 6 -0.515998
313 6 -0.523237
314 6 -0.000000
315 6 0.150618
316 6 0.579826
317 6 -0.091516
318 6 -1.059636
319 6 -0.501657
320 6 0.157296
321 6 -0.160444
322 6 0.128585
323 6 -0.000000
324 6 -0.000000
325 6 -0.130178
326 6 -0.539434
327 6 -1.284610
328 6 0.386246
329 6 -0.425438
330 6 -0.000000
331 6 0.050429
332 6 -0.032432
333 6 -0.077326
334 6 -0.495677
335 6 0.000000
336 6 -0.027171
337 6 -0.240973
338 6 0.037507
339 6 -0.756698
340 6 -0.974588
341 6 0.513365
342 6 0.000000
343 6 -0.000000
344 6 0.180080
345 6 0.000000
346 6 -0.202265
347 6 0.667445
348 6 0.155633
349 6 -0.414753
350 6 0.515865
351 6 -0.049999
352 6 0.182780
353 6 0.224701
354 6 0.193644
355 6 -0.291232
356 6 -0.297811
357 6 0.204539
358 6 -0.000000
359 6 0.284771
360 6 -0.202715
361 6 0.234392
362 6 -0.210478
363 6 0.080646
364 6 -0.296289
365 6 -0.000000
366 6 -0.000000
367 6 0.000000
368 6 -0.099093
369 6 0.000000
370 6 -0.000000
371 6 -0.416453
372 6 -0.731604
373 6 -0.000000
374 6 0.087847
375 6 0.325424
376 6 -0.090909
377 6 -0.480679
378 6 -0.143092
379 6 0.129169
380 6 -0.271451
381 6 -0.621979
382 6 0.216766
383 6 -0.684181
384 6 -0.104107
385 6 0.492218
386 6 0.053994
387 6 -0.872761
388 6 -0.064105
389 6 0.031769
390 6 -0.027583
391 6 -0.123795
392 6 -0.000000
393 6 -0.034531
394 6 0.056014
395 6 0.276069
396 6 0.460001
397 6 0.605825
398 6 0.000000
399 6 -0.085976
400 6 0.816488
401 6 0.000000
402 6 -0.673588
403 6 0.776657
404 6 -0.642349
405 6 -0.973258
406 6 0.180971
407 6 -0.264681
408 6 0.204686
409 6 0.729113
410 6 0.009483
411 6 -0.795573
412 6 0.000000
413 6 -0.584109
414 6 0.101364
415 6 -0.000000
416 6 0.301043
417 6 0.000000
418 6 -0.428005
419 6 -0.369971
420 6 -0.376675
421 6 -0.158848
422 6 -0.287683
423 6 -0.000000
424 6 -0.039691
425 6 -0.142805
426 6 0.427582
427 6 0.490081
428 6 -0.302314
429 6 -0.000000
430 6 -0.569122
431 6 -0.169173
432 6 -0.466184
433 6 0.294737
434 6 0.117654
435 6 0.000000
436 6 -0.631869
437 6 0.198173
438 6 0.000000
439 6 1.045241
440 6 0.099489
441 6 0.000000
442 6 0.000000
443 6 0.277626
444 6 0.289181
445 6 0.291709
446 6 0.458922
447 6 -0.058217
448 6 -0.236368
449 6 -0.339925
450 6 0.080780
451 6 0.133766
452 6 0.878889
453 6 0.812360
454 6 -0.254111
455 6 0.000000
456 6 0.352854
457 6 -0.263079
458 6 0.000000
459 6 0.575729
460 6 0.270854
461 6 0.000000
462 6 0.206128
463 6 -1.221262
464 6 -0.000000
465 6 -0.372757
466 6 -0.211180
467 6 0.107076
468 6 -0.713983
469 6 -0.048861
470 6 -0.000000
471 6 -0.000000
472 6 -0.650836
473 6 0.303145
474 6 0.275791
475 6 0.000000
476 6 0.261245
477 6 0.210972
478 6 0.996692
479 6 -0.517533
480 6 -0.718862
481 6 0.007421
482 6 0.222400
483 6 -0.057814
484 6 -0.322693
485 6 0.895955
486 6 0.107928
487 6 0.403220
488 6 -0.070750
489 6 -0.000000
490 6 0.000000
491 6 0.107734
492 6 0.043639
493 6 -0.133990
494 6 0.567303
495 6 0.603848
496 6 0.697812
497 6 -0.380506
498 6 -0.122084
499 6 -0.965431
500 6 0.112328
501 6 -0.279297
502 6 0.108413
503 6 -0.038570
504 6 -0.273397
505 6 0.484382
506 6 -0.000000
507 6 -0.142411
508 6 0.082274
509 6 -0.000000
510 6 -0.723816
511 6 -0.081934
512 6 -0.483278
513 6 -0.570300
514 6 0.031421
515 6 0.204179
516 6 0.145142
517 6 0.096592
518 6 0.139586
519 6 0.341780
520 6 -0.811272
521 6 0.261039
522 6 0.000000
523 6 -0.084251
524 6 0.142732
525 6 0.221355
526 6 -0.385993
527 6 0.000000
528 6 -0.472787
529 6 -0.054796
530 6 -0.021195
531 6 -1.027030
532 6 0.637814
533 6 1.055518
534 6 0.515308
535 6 -0.319294
536 6 0.215433
537 6 0.369103
538 6 0.000000
539 6 -1.156481
540 6 -1.263031
541 6 -0.408069
542 6 0.337166
543 6 0.469869
544 6 -0.684499
545 6 0.136140
546 6 0.050649
547 6 -0.000000
548 6 0.471666
549 6 -0.512961
550 6 0.361687
551 6 -0.201503
552 6 -0.556249
553 6 -0.043255
554 6 -0.358322
555 6 -0.225925
556 6 0.404417
557 6 -0.000000
558 6 0.024890
559 6 0.225709
560 6 -0.435160
561 6 0.188200
562 6 -0.216869
563 6 -0.417795
564 6 0.113436
565 6 0.106245
566 6 0.000000
567 6 -0.905633
568 6 -0.184793
569 6 -0.366400
570 6 -0.923411
571 6 0.061097
572 6 0.000000
573 6 -0.732675
574 6 -0.764698
575 6 -0.357324
576 6 -0.647362
577 6 0.671509
578 6 -0.495949
579 6 -1.462516
580 6 0.162941
581 6 -0.742419
582 6 0.000000
583 6 -0.239326
584 6 0.201534
585 6 -0.000000
586 6 0.116696
587 6 -0.215061
588 6 -0.051696
589 6 -0.481159
590 6 0.164413
591 6 1.122642
592 6 -0.573581
593 6 -0.701139
594 6 0.000000
595 6 -0.000000
596 6 0.221809
597 6 0.285780
598 6 0.233325
599 6 -0.221652
600 6 0.323197
601 6 -0.306727
602 6 0.750894
603 6 -0.661880
604 6 -0.000000
605 6 0.371501
606 6 0.735443
607 6 -0.046664
608 6 0.293097
609 6 -0.000000
610 6 -0.594383
611 6 0.217689
612 6 0.435259
613 6 -0.081381
614 6 0.365994
615 6 0.052639
616 6 0.218253
617 6 -0.097727
618 6 0.141782
619 6 -0.000000
620 6 -0.000000
621 6 0.042121
622 6 -0.000000
623 6 0.114224
624 6 -0.799099
625 6 0.126703
626 6 -0.399076
627 6 0.000000
628 6 -0.219690
629 6 -0.408247
630 6 0.255573
631 6 0.485047
632 6 -0.119562
633 6 -1.042260
634 6 -0.725516
635 6 0.341195
636 6 0.318000
637 6 0.046899
638 6 -0.459574
639 6 -0.164520
640 6 0.184273
641 6 -0.597055
642 6 0.259015
643 6 0.094191
644 6 -0.108880
645 6 0.031920
646 6 0.319473
647 6 0.285747
648 6 -0.416525
649 6 0.008338
650 6 0.237394
651 6 0.111509
652 6 0.000000
653 6 -0.016321
654 6 -0.467986
655 6 0.554309
656 6 -0.359851
657 6 -0.144169
658 6 -0.302674
659 6 -0.020753
660 6 -0.365017
661 6 -0.630839
662 6 0.062025
663 6 0.175655
664 6 -0.717558
665 6 0.678749
666 6 0.031007
667 6 -0.185257
668 6 0.179569
669 6 0.278837
670 6 -1.032936
671 6 0.860550
672 6 -1.261289
673 6 0.461671
674 6 -0.000000
675 6 -0.000000
676 6 0.195560
677 6 -0.302222
678 6 0.123483
679 6 0.239659
680 6 -0.010781
681 6 0.000000
682 6 -0.294786
683 6 0.351992
684 6 -0.238873
685 6 0.216291
686 6 0.040367
687 6 -0.201565
688 6 -0.174136
689 6 0.275821
690 6 -0.143579
691 6 0.000000
692 6 0.108373
693 6 0.346185
694 6 0.000000
695 6 0.271549
696 6 0.233140
697 6 -0.971489
698 6 1.110841
699 6 -0.147847
700 6 -0.000000
701 6 -0.155346
702 6 0.083352
703 6 0.615927
704 6 0.767564
705 6 0.454909
706 6 0.248061
707 6 -0.722646
708 6 -0.282932
709 6 -0.386390
710 6 -0.000000
711 6 0.254721
712 6 -0.081039
713 6 -0.774594
714 6 -0.024852
715 6 -0.031767
716 6 0.058662
717 6 -0.570040
718 6 -0.000000
719 6 -0.000000
720 6 -0.253592
721 6 -0.819475
722 6 -0.098986
723 6 -0.383319
724 6 0.500730
725 6 0.521056
726 6 0.000000
727 6 -0.143232
728 6 0.774361
729 6 -0.678372
730 6 -0.477230
731 6 -0.502028
732 6 -0.000000
733 6 -0.293417
734 6 0.128765
735 6 -0.000000
736 6 -1.173621
737 6 -0.000000
738 6 -0.000000
739 6 -0.230237
740 6 -0.719868
741 6 -0.532246
742 6 -0.331256
743 6 -0.000000
744 6 0.245355
745 6 0.454660
746 6 0.239413
747 6 -0.254236
748 6 -0.000000
749 6 0.429348
750 6 0.686179
751 6 -0.103613
752 6 -0.282400
753 6 0.366672
754 6 0.740271
755 6 -0.066980
756 6 0.000000
757 6 -0.000000
758 6 0.015150
759 6 -0.063945
760 6 -0.241464
761 6 0.015718
762 6 0.059405
763 6 0.512509
764 6 -0.000000
765 6 0.782571
766 6 0.051746
767 6 -0.689692
768 6 -0.114859
769 6 -0.721548
770 6 -0.012633
771 6 -0.011162
772 6 -0.022927
773 6 0.530040
774 6 -0.178079
775 6 0.128474
776 6 0.289088
777 6 -0.734237
778 6 -0.367785
779 6 0.345583
780 6 -0.192417
781 6 -0.005701
782 6 -0.130909
783 6 -0.000000
784 6 0.000000
785 6 0.388899
786 6 0.414382
787 6 0.000000
788 6 -0.000000
789 6 -0.076497
790 6 -0.092314
791 6 0.611010
792 6 -0.189964
793 6 0.145708
794 6 -0.236098
795 6 -0.001900
796 6 0.068525
797 6 0.000000
798 6 -1.711415
799 6 -0.000000
0 7 0.331752
1 7 -0.165151
2 7 0.316439
3 7 0.115440
4 7 -0.000590
5 7 0.225912
6 7 0.062066
7 7 0.038351
8 7 -0.000000
9 7 -0.055785
10 7 -1.490305
11 7 -0.536271
12 7 -0.160058
13 7 -0.416745
14 7 -0.087317
15 7 -0.017512
16 7 0.305399
17 7 -0.000000
18 7 -0.020671
19 7 -0.000000
20 7 -0.000000
21 7 0.000000
22 7 -0.325424
23 7 -0.239260
24 7 -0.151520
25 7 -0.000000
26 7 -0.000000
27 7 0.011749
28 7 -0.411916
29 7 0.326602
30 7 0.074597
31 7 0.570146
32 7 0.052165
33 7 -0.157298
34 7 0.000000
35 7 -0.159980
36 7 -0.057280
37 7 -0.591643
38 7 -0.000000
39 7 0.000000
40 7 -0.230129
41 7 -0.099640
42 7 0.605134
43 7 0.458121
44 7 -0.310166
45 7 -0.308840
46 7 0.000000
47 7 -0.275936
48 7 0.840068
49 7 -0.198247
50 7 0.797672
51 7 0.000000
52 7 0.162824
53 7 -0.591395
54 7 -0.084708
55 7 0.000000
56 7 -0.158187
57 7 -0.150106
58 7 -0.201933
59 7 0.000000
60 7 0.183500
61 7 -0.258603
62 7 -0.262483
63 7 0.000000
64 7 -0.292748
65 7 0.222393
66 7 0.004134
67 7 0.099857
68 7 -0.005062
69 7 -0.433039
70 7 -0.591243
71 7 -0.296755
72 7 0.331654
73 7 -0.276766
74 7 0.000000
75 7 -0.276552
76 7 0.586830
77 7 -0.178881
78 7 0.060773
79 7 -0.378046
80 7 0.108901
81 7 0.000000
82 7 -0.000000
83 7 0.010179
84 7 0.000000
85 7 -0.338773
86 7 0.106969
87 7 0.139404
88 7 -0.000000
89 7 -0.121510
90 7 0.190485
91 7 -0.267596
92 7 -0.000000
93 7 -0.006052
94 7 0.000944
95 7 0.137446
96 7 0.072541
97 7 -0.114634
98 7 -0.000000
99 7 -0.359993
100 7 -0.220185
101 7 0.056087
102 7 0.470680
103 7 -0.084275
104 7 0.157082
105 7 0.210714
106 7 0.003136
107 7 -0.233201
108 7 -0.948707
109 7 -0.254252
110 7 -0.165723
111 7 -0.368794
112 7 -0.194267
113 7 -0.058330
114 7 0.470159
115 7 0.008549
116 7 -0.164750
117 7 0.059440
118 7 -0.692950
119 7 0.000000
120 7 -0.000000
121 7 -0.436801
122 7 0.222661
123 7 0.018184
124 7 -0.973811
125 7 -0.510042
126 7 0.877311
127 7 0.055501
128 7 -0.419406
129 7 -0.391073
130 7 0.048996
131 7 -0.116962
132 7 -0.279664
133 7 -0.096706
134 7 -0.000000
135 7 1.211231
136 7 0.425944
137 7 -0.044209
138 7 -0.148582
139 7 -0.366242
140 7 0.273952
141 7 -0.180122
142 7 -0.406211
143 7 -0.115418
144 7 0.086130
145 7 -0.354253
146 7 -0.369016
147 7 -0.000000
148 7 0.012599
149 7 0.189144
150 7 -0.002175
151 7 -0.317621
152 7 -0.075246
153 7 -0.000000
154 7 1.147120
155 7 -1.144292
156 7 -0.000000
157 7 0.285966
158 7 -0.112641
159 7 0.623000
160 7 -0.215117
161 7 -0.009849
162 7 0.142139
163 7 -0.283517
164 7 -0.031906
165 7 0.735171
166 7 -0.049137
167 7 -0.669372
168 7 0.528548
169 7 0.966020
170 7 -0.525620
171 7 -0.591523
172 7 -0.268276
173 7 -0.123998
174 7 -0.223028
175 7 -0.129646
176 7 -0.274812
177 7 -0.449430
178 7 0.265656
179 7 0.184220
180 7 0.000000
181 7 0.171890
182 7 -0.297580
183 7 -0.086358
184 7 -0.000000
185 7 0.823400
186 7 -0.366982
187 7 -0.084128
188 7 0.000000
189 7 0.037085
190 7 0.123758
191 7 0.003316
192 7 -0.065848
193 7 0.779809
194 7 -0.109974
195 7 -1.133325
196 7 -0.661190
197 7 -0.000000
198 7 0.130565
199 7 -0.103764
200 7 -0.012094
201 7 0.338953
202 7 0.000000
203 7 -0.452827
204 7 0.449897
205 7 -0.134795
206 7 0.052848
207 7 0.140788
208 7 -0.115222
209 7 0.136569
210 7 0.454394
211 7 -0.167059
212 7 1.307836
213 7 0.027065
214 7 -0.408438
215 7 -0.000000
216 7 -0.498295
217 7 -0.000000
218 7 -0.031763
219 7 -0.460012
220 7 -0.452266
221 7 0.274146
222 7 -0.121146
223 7 -0.000000
224 7 0.283349
225 7 1.128167
226 7 -1.200574
227 7 -0.147581
228 7 -0.000000
229 7 -0.036214
230 7 -0.057014
231 7 0.316333
232 7 -0.261025
233 7 0.192138
234 7 -0.497986
235 7 0.072712
236 7 -0.125847
237 7 0.387025
238 7 0.414740
239 7 0.401397
240 7 -0.701318
241 7 0.019486
242 7 -0.378146
243 7 0.000000
244 7 0.278010
245 7 -0.247069
246 7 -0.220564
247 7 0.114899
248 7 -0.027387
249 7 -0.341655
250 7 -0.615199
251 7 -0.203302
252 7 0.000000
253 7 -0.163564
254 7 -0.195879
255 7 0.425928
256 7 0.000000
257 7 -0.112130
258 7 -0.000000
259 7 0.174842
260 7 -0.255082
261 7 0.000000
262 7 0.024534
263 7 -0.081572
264 7 1.155776
265 7 0.566145
266 7 0.000000
267 7 -0.198598
268 7 0.006277
269 7 -0.002739
270 7 -0.277683
271 7 0.000000
272 7 0.121271
273 7 0.107504
274 7 -0.352522
275 7 -0.000000
276 7 -0.142342
277 7 0.000000
278 7 -0.331474
279 7 0.267947
280 7 -0.121570
281 7 -0.167364
282 7 0.000000
283 7 -0.218301
284 7 -0.556502
285 7 0.487012
286 7 -0.000000
287 7 -0.183105
288 7 -0.315701
289 7 0.290748
290 7 -0.294065
291 7 -0.082248
292 7 -0.349337
293 7 -0.123808
294 7 0.576740
295 7 -0.018983
296 7 0.171316
297 7 0.000000
298 7 -0.327388
299 7 -0.104588
300 7 -0.077012
301 7 -0.056105
302 7 0.318639
303 7 -0.004799
304 7 0.948831
305 7 -0.471563
306 7 -0.298884
307 7 -0.426007
308 7 0.073655
309 7 -0.084231
310 7 -0.244375
311 7 -0.139290
312 7 -0.348710
313 7 0.231039
314 7 -0.000000
315 7 0.859151
316 7 -0.598176
317 7 -0.173428
318 7 -0.547410
319 7 -0.189031
320 7 -0.315397
321 7 0.004770
322 7 -0.123008
323 7 -0.000000
324 7 -0.002610
325 7 -0.117310
326 7 -0.694353
327 7 -0.312463
328 7 0.010544
329 7 -0.213461
330 7 -0.000000
331 7 -0.199381
332 7 -0.079671
333 7 -0.234867
334 7 0.066934
335 7 -0.057796
336 7 0.033072
337 7 -0.231396
338 7 -0.028802
339 7 0.165316
340 7 -0.403807
341 7 -0.065850
342 7 0.000000
343 7 -0.000000
344 7 -0.970672
345 7 0.000000
346 7 -0.245198
347 7 -0.204354
348 7 0.822028
349 7 0.319102
350 7 0.266648
351 7 -0.164032
352 7 0.245903
353 7 1.388466
354 7 -0.098628
355 7 -0.335000
356 7 -0.244884
357 7 -0.103252
358 7 0.000000
359 7 1.746680
360 7 -1.039678
361 7 -0.267556
362 7 0.019115
363 7 0.000295
364 7 -0.862827
365 7 0.000000
366 7 -0.000000
367 7 0.000000
368 7 0.631267
369 7 0.000000
370 7 -0.000000
371 7 -0.186438
372 7 -0.209954
373 7 -0.000000
374 7 0.007703
375 7 0.381069
376 7 0.335112
377 7 -0.732428
378 7 0.190516
379 7 0.207560
380 7 0.474292
381 7 0.064201
382 7 -0.053697
383 7 0.218203
384 7 -0.038997
385 7 -0.071133
386 7 -0.033164
387 7 -0.355000
388 7 0.050900
389 7 -0.213531
390 7 1.119534
391 7 0.005808
392 7 -0.000000
393 7 0.299563
394 7 -0.115450
395 7 -0.057704
396 7 -0.249497
397 7 -0.084207
398 7 -0.000000
399 7 -0.251765
400 7 0.168013
401 7 0.000000
402 7 -0.459564
403 7 0.190199
404 7 -0.253590
405 7 -0.204883
406 7 0.152806
407 7 0.347842
408 7 -0.100246
409 7 -0.298795
410 7 -0.609113
411 7 -1.219077
412 7 -0.000000
413 7 -0.689505
414 7 0.043303
415 7 0.000000
416 7 0.315383
417 7 -0.000000
418 7 0.024064
419 7 0.014032
420 7 0.017401
421 7 0.154041
422 7 -0.098467
423 7 -0.000000
424 7 0.015625
425 7 1.035353
426 7 -0.007126
427 7 0.391559
428 7 0.149232
429 7 0.000000
430 7 -0.526870
431 7 -0.034317
432 7 -0.488052
433 7 -0.413326
434 7 0.236213
435 7 -0.000000
436 7 -0.439638
437 7 1.068271
438 7 -0.000000
439 7 1.104024
440 7 0.039100
441 7 -0.051421
442 7 0.000000
443 7 -0.040956
444 7 0.289736
445 7 -0.360191
446 7 0.306502
447 7 -0.008979
448 7 -0.194345
449 7 -0.356834
450 7 0.093734
451 7 0.561209
452 7 0.009909
453 7 0.889951
454 7 -0.190988
455 7 -0.000000
456 7 0.146507
457 7 -0.059310
458 7 0.000000
459 7 0.128381
460 7 0.230298
461 7 -0.000000
462 7 -0.123414
463 7 -0.445632
464 7 0.000000
465 7 -0.701145
466 7 -0.070900
467 7 -0.306591
468 7 -0.201607
469 7 -0.296417
470 7 -0.000000
471 7 -0.108956
472 7 -0.207720
473 7 -0.231457
474 7 -0.307258
475 7 -0.075700
476 7 0.705569
477 7 -0.535056
478 7 0.092769
479 7 -0.632230
480 7 -0.163917
481 7 0.003923
482 7 0.449733
483 7 -0.041711
484 7 -0.279961
485 7 -0.290963
486 7 0.109992
487 7 -0.121650
488 7 -0.163083
489 7 0.000000
490 7 -0.000000
491 7 -0.109714
492 7 -0.088686
493 7 -0.096191
494 7 1.611279
495 7 -0.104157
496 7 -0.151192
497 7 0.336490
498 7 -0.225752
499 7 -0.569474
500 7 -0.163243
501 7 -0.065550
502 7 0.420643
503 7 -0.053814
504 7 0.058160
505 7 -0.344657
506 7 0.000000
507 7 -0.236406
508 7 -0.274987
509 7 0.000000
510 7 -0.332017
511 7 -0.105810
512 7 -0.323568
513 7 -0.093075
514 7 -0.034806
515 7 0.811727
516 7 1.292612
517 7 -0.015370
518 7 -0.190266
519 7 0.672280
520 7 -0.299353
521 7 -0.122680
522 7 0.000000
523 7 0.257347
524 7 -0.108625
525 7 -0.026837
526 7 0.055025
527 7 -0.000000
528 7 0.390656
529 7 -0.101794
530 7 -0.460032
531 7 -0.426888
532 7 0.075576
533 7 0.544446
534 7 0.322849
535 7 0.225863
536 7 0.072632
537 7 -0.083056
538 7 -0.000000
539 7 -0.066497
540 7 -0.327852
541 7 0.023709
542 7 0.146212
543 7 -0.306152
544 7 -0.073253
545 7 -0.122778
546 7 0.038314
547 7 -0.064112
548 7 0.531913
549 7 -0.318118
550 7 1.091527
551 7 -0.167418
552 7 0.126710
553 7 -0.480730
554 7 -0.243345
555 7 -0.462655
556 7 0.706830
557 7 -0.000000
558 7 -0.520271
559 7 0.038033
560 7 -0.590525
561 7 -0.510734
562 7 -0.214556
563 7 -0.288257
564 7 -0.016843
565 7 0.018626
566 7 -0.000000
567 7 -0.213871
568 7 0.002355
569 7 -0.082315
570 7 0.098873
571 7 -0.492802
572 7 0.000000
573 7 -1.386548
574 7 0.105869
575 7 -0.195624
576 7 0.418305
577 7 -0.313783
578 7 -0.312808
579 7 -0.580423
580 7 -0.018085
581 7 0.177303
582 7 0.000000
583 7 -0.055500
584 7 -0.076476
585 7 0.000000
586 7 0.011128
587 7 -0.144509
588 7 0.624434
589 7 0.783136
590 7 1.068522
591 7 -0.258312
592 7 0.097880
593 7 0.106579
594 7 -0.061386
595 7 0.000000
596 7 0.191567
597 7 0.181187
598 7 -0.012050
599 7 0.221568
600 7 0.157568
601 7 -0.111891
602 7 0.187029
603 7 -0.431813
604 7 -0.000000
605 7 -0.380441
606 7 -0.546784
607 7 0.266276
608 7 0.226873
609 7 0.000000
610 7 -0.486614
611 7 -0.058489
612 7 -0.171857
613 7 -0.401508
614 7 -0.076089
615 7 -0.159557
616 7 0.512550
617 7 -0.010972
618 7 -0.384624
619 7 -0.000000
620 7 -0.053912
621 7 -0.399657
622 7 -0.000000
623 7 -0.205512
624 7 0.023387
625 7 -0.563453
626 7 -0.250216
627 7 -0.000000
628 7 -0.562221
629 7 0.975357
630 7 -0.838722
631 7 -0.440469
632 7 0.119383
633 7 0.289203
634 7 -0.789125
635 7 -0.116822
636 7 0.005769
637 7 0.775093
638 7 -0.063362
639 7 0.214690
640 7 0.086871
641 7 0.488153
642 7 -0.335826
643 7 1.133319
644 7 -0.042991
645 7 0.122987
646 7 0.070565
647 7 -0.095669
648 7 -0.028534
649 7 -0.511874
650 7 0.073638
651 7 0.290577
652 7 -0.045819
653 7 0.326644
654 7 1.420765
655 7 0.007168
656 7 0.229559
657 7 -0.672455
658 7 1.270954
659 7 -0.143238
660 7 -0.474629
661 7 -0.008802
662 7 -0.292392
663 7 0.063550
664 7 -0.463537
665 7 0.010328
666 7 0.052211
667 7 -0.117738
668 7 -0.221742
669 7 0.709881
670 7 -0.920207
671 7 -0.248945
672 7 0.795815
673 7 -0.237198
674 7 0.000000
675 7 0.000000
676 7 0.797072
677 7 -0.162538
678 7 0.123481
679 7 0.207840
680 7 -0.089310
681 7 -0.000000
682 7 1.354941
683 7 0.012003
684 7 -0.023366
685 7 -0.082883
686 7 -0.185413
687 7 -0.071112
688 7 -0.263703
689 7 -0.214435
690 7 1.405982
691 7 -0.000000
692 7 0.115553
693 7 0.080680
694 7 -0.000000
695 7 0.132217
696 7 -0.170116
697 7 -0.443649
698 7 0.068291
699 7 0.540254
700 7 -0.062450
701 7 -0.123299
702 7 -0.194884
703 7 0.398319
704 7 0.249517
705 7 -0.067536
706 7 0.030698
707 7 -0.092903
708 7 -0.264942
709 7 -0.537226
710 7 -0.000000
711 7 -0.145149
712 7 0.150377
713 7 -0.209340
714 7 -0.033569
715 7 -0.019632
716 7 0.272165
717 7 -0.366239
718 7 -0.000000
719 7 -0.000000
720 7 -0.435463
721 7 -0.265328
722 7 -0.297739
723 7 0.717522
724 7 0.095855
725 7 0.121517
726 7 -0.000000
727 7 -0.199819
728 7 0.013953
729 7 0.812601
730 7 -0.050316
731 7 0.561826
732 7 0.000000
733 7 0.180853
734 7 -0.124868
735 7 0.000000
736 7 0.332938
737 7 -0.024126
738 7 -0.108300
739 7 -0.209049
740 7 -0.266087
741 7 -0.649807
742 7 0.163608
743 7 0.000000
744 7 -0.040316
745 7 0.907978
746 7 0.032857
747 7 0.044488
748 7 0.000000
749 7 0.857473
750 7 1.203999
751 7 0.240848
752 7 -0.010006
753 7 0.234339
754 7 0.108232
755 7 0.109847
756 7 -0.000000
757 7 -0.000000
758 7 -0.368051
759 7 -0.834759
760 7 0.228812
761 7 0.158062
762 7 0.398635
763 7 0.066602
764 7 -0.000000
765 7 0.671049
766 7 -0.300915
767 7 0.175519
768 7 0.474976
769 7 -0.244670
770 7 0.755858
771 7 1.084156
772 7 -1.516105
773 7 0.884011
774 7 -0.781014
775 7 0.400823
776 7 0.270698
777 7 -0.696730
778 7 0.191070
779 7 0.344941
780 7 -0.893679
781 7 -0.265984
782 7 -0.142906
783 7 0.000000
784 7 -0.000000
785 7 0.904313
786 7 0.113293
787 7 0.000000
788 7 -0.000000
789 7 -0.236305
790 7 -0.018453
791 7 -0.583941
792 7 -0.234800
793 7 0.951753
794 7 -0.052189
795 7 -0.215579
796 7 0.040407
797 7 -0.056470
798 7 -0.619615
799 7 0.000000
0 8 -0.129524
1 8 0.007630
2 8 -0.411621
3 8 0.020860
4 8 -0.716453
5 8 -0.012144
6 8 0.031316
7 8 -0.071560
8 8 -0.000000
9 8 0.055972
10 8 0.492115
11 8 -0.096338
12 8 -0.140668
13 8 -0.014298
14 8 -0.661319
15 8 -0.030640
16 8 -0.137888
17 8 -0.000000
18 8 -0.560571
19 8 0.000000
20 8 0.000000
21 8 -0.000000
22 8 -0.755757
23 8 0.441991
24 8 -0.006025
25 8 -0.000000
26 8 0.000000
27 8 -0.019229
28 8 0.126994
29 8 0.114628
30 8 0.763197
31 8 0.508068
32 8 -0.201950
33 8 0.291596
34 8 -0.000000
35 8 -0.210299
36 8 -0.005881
37 8 0.120292
38 8 0.000000
39 8 0.000000
40 8 -0.523248
41 8 -1.185900
42 8 0.035834
43 8 -0.211945
44 8 -0.112278
45 8 0.161216
46 8 0.000000
47 8 0.375694
48 8 -0.068112
49 8 -0.169862
50 8 -0.004421
51 8 -0.000000
52 8 0.268859
53 8 -0.052457
54 8 -0.578834
55 8 0.000000
56 8 -0.083268
57 8 0.397169
58 8 0.205742
59 8 -0.000000
60 8 -0.356958
61 8 0.023031
62 8 -0.562390
